{"learner":{"attributes":{"scikit_learn":"{\"_estimator_type\": \"classifier\"}"},"feature_names":[],"feature_types":[],"gradient_booster":{"model":{"cats":{"enc":[],"feature_segments":[],"sorted_idx":[]},"gbtree_model_param":{"num_parallel_tree":"1","num_trees":"200"},"iteration_indptr":[0,1,2,3,4,5,6,7,8,9,10,11,12,13,14,15,16,17,18,19,20,21,22,23,24,25,26,27,28,29,30,31,32,33,34,35,36,37,38,39,40,41,42,43,44,45,46,47,48,49,50,51,52,53,54,55,56,57,58,59,60,61,62,63,64,65,66,67,68,69,70,71,72,73,74,75,76,77,78,79,80,81,82,83,84,85,86,87,88,89,90,91,92,93,94,95,96,97,98,99,100,101,102,103,104,105,106,107,108,109,110,111,112,113,114,115,116,117,118,119,120,121,122,123,124,125,126,127,128,129,130,131,132,133,134,135,136,137,138,139,140,141,142,143,144,145,146,147,148,149,150,151,152,153,154,155,156,157,158,159,160,161,162,163,164,165,166,167,168,169,170,171,172,173,174,175,176,177,178,179,180,181,182,183,184,185,186,187,188,189,190,191,192,193,194,195,196,197,198,199,200],"tree_info":[0,0,0,0,0,0,0,0,0,0,0,0,0,0,0,0,0,0,0,0,0,0,0,0,0,0,0,0,0,0,0,0,0,0,0,0,0,0,0,0,0,0,0,0,0,0,0,0,0,0,0,0,0,0,0,0,0,0,0,0,0,0,0,0,0,0,0,0,0,0,0,0,0,0,0,0,0,0,0,0,0,0,0,0,0,0,0,0,0,0,0,0,0,0,0,0,0,0,0,0,0,0,0,0,0,0,0,0,0,0,0,0,0,0,0,0,0,0,0,0,0,0,0,0,0,0,0,0,0,0,0,0,0,0,0,0,0,0,0,0,0,0,0,0,0,0,0,0,0,0,0,0,0,0,0,0,0,0,0,0,0,0,0,0,0,0,0,0,0,0,0,0,0,0,0,0,0,0,0,0,0,0,0,0,0,0,0,0,0,0,0,0,0,0,0,0,0,0,0,0],"trees":[{"base_weights":[4.2734265E-2,2.3672716E-1,-5.233321E-1,3.9331335E-1,-3.085673E-1,-1.8057425E0,1.5358157E-1,2.545601E-1,6.469963E-2,-7.476868E-1,5.2746445E-1,-9.972765E-2,-3.014799E-2,5.7891005E-1,-6.1549366E-1,-5.426595E-3,2.9016411E-2,-6.2493064E-2,-4.194855E-3,5.4270875E-2,4.1125232E-4,4.3118596E-2,-1.1738865E-2,1.212912E-2,-5.963225E-2],"categories":[],"categories_nodes":[],"categories_segments":[],"categories_sizes":[],"default_left":[0,0,0,0,0,0,0,0,0,0,0,0,0,0,0,0,0,0,0,0,0,0,0,0,0],"id":0,"left_children":[1,3,5,7,9,11,13,15,-1,17,19,-1,-1,21,23,-1,-1,-1,-1,-1,-1,-1,-1,-1,-1],"loss_changes":[9.32497E0,5.5084734E0,1.9112253E1,5.8511953E0,5.7674403E0,5.17498E-1,5.3031244E0,5.2791643E0,0E0,3.2316432E0,1.6211127E0,0E0,0E0,2.5672817E0,3.1963353E0,0E0,0E0,0E0,0E0,0E0,0E0,0E0,0E0,0E0,0E0],"parents":[2147483647,0,0,1,1,2,2,3,3,4,4,5,5,6,6,7,7,9,9,10,10,13,13,14,14],"right_children":[2,4,6,8,10,12,14,16,-1,18,20,-1,-1,22,24,-1,-1,-1,-1,-1,-1,-1,-1,-1,-1],"split_conditions":[6.56216E3,4E0,1.9024855E1,2.5529848E1,1.6E1,1.8412846E1,6.2520824E1,2E0,6.469963E-2,2.136546E1,2.034782E1,-9.972765E-2,-3.014799E-2,2E1,8E0,-5.426595E-3,2.9016411E-2,-6.2493064E-2,-4.194855E-3,5.4270875E-2,4.1125232E-4,4.3118596E-2,-1.1738865E-2,1.212912E-2,-5.963225E-2],"split_indices":[6,8,2,2,7,2,4,8,0,2,2,0,0,7,7,0,0,0,0,0,0,0,0,0,0],"split_type":[0,0,0,0,0,0,0,0,0,0,0,0,0,0,0,0,0,0,0,0,0,0,0,0,0],"sum_hessian":[8.2788765E1,6.209157E1,2.0697191E1,4.8455776E1,1.3635796E1,6.574402E0,1.4122788E1,4.3098854E1,5.35692E0,9.009365E0,4.626431E0,5.1134233E0,1.4609782E0,9.252862E0,4.8699274E0,2.0697191E1,2.2401665E1,4.626431E0,4.3829346E0,1.7044744E0,2.9219563E0,6.817898E0,2.4349637E0,2.1914673E0,2.67846E0],"tree_param":{"num_deleted":"0","num_feature":"9","num_nodes":"25","size_leaf_vector":"1"}},{"base_weights":[8.019474E-2,3.318899E-1,-3.599937E-1,-4.8112783E-1,4.780848E-1,-1.2641399E-1,-8.6138785E-1,5.3358298E-2,-1.5328736E0,1.7783019E-1,9.206439E-1,-3.2362685E-1,4.8945334E-2,-1.1839386E0,7.932143E-2,-1.9395318E-2,-8.8019E-2,2.0088306E-2,-5.864162E-2,6.521293E-2,1.2423688E-2,8.6215785E-4,-4.41881E-2,-8.12653E-3,-7.0546165E-2,2.5242513E-2,-1.9047637E-2],"categories":[],"categories_nodes":[],"categories_segments":[],"categories_sizes":[],"default_left":[0,0,0,0,0,0,0,0,0,0,0,0,0,0,0,0,0,0,0,0,0,0,0,0,0,0,0],"id":1,"left_children":[1,3,5,7,9,11,13,-1,15,17,19,21,-1,23,25,-1,-1,-1,-1,-1,-1,-1,-1,-1,-1,-1,-1],"loss_changes":[9.555844E0,6.732505E0,3.5759578E0,1.6025227E1,6.0645294E0,5.2510953E0,3.075769E0,0E0,7.947407E-1,9.292381E0,4.4994698E0,3.826338E0,0E0,1.4818878E0,8.673412E-1,0E0,0E0,0E0,0E0,0E0,0E0,0E0,0E0,0E0,0E0,0E0,0E0],"parents":[2147483647,0,0,1,1,2,2,3,3,4,4,5,5,6,6,8,8,9,9,10,10,11,11,13,13,14,14],"right_children":[2,4,6,8,10,12,14,-1,16,18,20,22,-1,24,26,-1,-1,-1,-1,-1,-1,-1,-1,-1,-1,-1,-1],"split_conditions":[6.215293E1,1.8412846E1,6.56216E3,6.38501E3,6.462305E3,6.5086E3,2.1307175E1,5.3358298E-2,3.8752512E-3,6.451252E3,6.698836E3,5.127918E-3,4.8945334E-2,4.418672E-3,6.4152145E1,-1.9395318E-2,-8.8019E-2,2.0088306E-2,-5.864162E-2,6.521293E-2,1.2423688E-2,8.6215785E-4,-4.41881E-2,-8.12653E-3,-7.0546165E-2,2.5242513E-2,-1.9047637E-2],"split_indices":[4,2,6,6,6,6,2,0,3,6,6,3,0,3,4,0,0,0,0,0,0,0,0,0,0,0,0],"split_type":[0,0,0,0,0,0,0,0,0,0,0,0,0,0,0,0,0,0,0,0,0,0,0,0,0,0,0],"sum_hessian":[8.4170906E1,5.3707527E1,3.0463377E1,7.836462E0,4.5871063E1,2.1636099E1,8.827278E0,3.164008E0,4.6724544E0,2.8164595E1,1.770647E1,1.8960373E1,2.6757262E0,6.3808503E0,2.4464278E0,1.2229201E0,3.4495342E0,2.4761715E1,3.4028788E0,1.0674213E1,7.032257E0,1.2389789E1,6.570585E0,1.4721893E0,4.908661E0,1.2208713E0,1.2255566E0],"tree_param":{"num_deleted":"0","num_feature":"9","num_nodes":"27","size_leaf_vector":"1"}},{"base_weights":[-3.8629859E-3,3.6018017E-1,-5.3281474E-1,-5.291417E-1,5.422392E-1,-9.9789596E-1,-2.886971E-1,6.7628294E-1,-7.278699E-2,-2.0169477E-1,7.150302E-1,-1.347096E0,2.0485396E-2,7.4213543E-3,-9.0555304E-1,4.510004E-2,1.0573886E-3,-3.6175277E-2,2.7778491E-2,3.9979823E-2,-1.4773841E-2,-8.028352E-2,-2.473147E-2,-3.6677964E-2,4.6819344E-2,3.0980265E-2,-1.8918281E-2,-3.6788986E-3,-6.0750544E-2],"categories":[],"categories_nodes":[],"categories_segments":[],"categories_sizes":[],"default_left":[0,0,0,0,0,0,0,0,0,0,0,0,0,0,0,0,0,0,0,0,0,0,0,0,0,0,0,0,0],"id":2,"left_children":[1,3,5,7,9,11,13,15,-1,17,19,21,23,25,27,-1,-1,-1,-1,-1,-1,-1,-1,-1,-1,-1,-1,-1,-1],"loss_changes":[1.637737E1,8.444628E0,3.6480484E0,1.1112846E1,5.583807E0,4.126666E0,4.416648E0,6.646726E-1,0E0,3.861929E0,3.189619E0,1.1010876E0,3.399853E0,4.3211393E0,1.9287419E0,0E0,0E0,0E0,0E0,0E0,0E0,0E0,0E0,0E0,0E0,0E0,0E0,0E0,0E0],"parents":[2147483647,0,0,1,1,2,2,3,3,4,4,5,5,6,6,7,7,9,9,10,10,11,11,12,12,13,13,14,14],"right_children":[2,4,6,8,10,12,14,16,-1,18,20,22,24,26,28,-1,-1,-1,-1,-1,-1,-1,-1,-1,-1,-1,-1,-1,-1],"split_conditions":[6.04291E1,1.8514862E1,2E0,6.3924395E3,4.62168E-3,5.8853053E-3,4.9998662E-3,4.6517462E-3,-7.278699E-2,5.612214E1,9.874225E-3,7.0038635E1,6.458432E1,6.376803E3,3E0,4.510004E-2,1.0573886E-3,-3.6175277E-2,2.7778491E-2,3.9979823E-2,-1.4773841E-2,-8.028352E-2,-2.473147E-2,-3.6677964E-2,4.6819344E-2,3.0980265E-2,-1.8918281E-2,-3.6788986E-3,-6.0750544E-2],"split_indices":[4,2,8,6,3,3,3,3,0,4,3,4,4,6,8,0,0,0,0,0,0,0,0,0,0,0,0,0,0],"split_type":[0,0,0,0,0,0,0,0,0,0,0,0,0,0,0,0,0,0,0,0,0,0,0,0,0,0,0,0,0],"sum_hessian":[8.305358E1,4.93845E1,3.366908E1,8.067916E0,4.1316586E1,1.0526579E1,2.3142498E1,3.6238031E0,4.444113E0,7.7561207E0,3.3560463E1,7.598346E0,2.9282327E0,1.6303877E1,6.838621E0,2.414949E0,1.2088541E0,4.618332E0,3.1377888E0,3.116138E1,2.3990834E0,5.1520443E0,2.4463017E0,1.715214E0,1.2130187E0,6.068319E0,1.02355585E1,2.189617E0,4.6490045E0],"tree_param":{"num_deleted":"0","num_feature":"9","num_nodes":"29","size_leaf_vector":"1"}},{"base_weights":[3.0927407E-2,3.0557933E-1,-4.101691E-1,-2.1069251E-1,4.9510536E-1,3.4104235E-2,-4.8821828E-1,7.6351386E-1,-6.3323593E-1,6.6955304E-1,-3.2034656E-1,-1.3316907E0,-3.0728328E-1,5.9072297E-2,-2.4397026E-3,-6.696144E-2,1.2174051E-2,3.79995E-2,-2.177928E-2,-5.6243744E-2,2.3509236E-2,-7.6362595E-2,-1.8305324E-2,5.123013E-3,-3.0046089E-2],"categories":[],"categories_nodes":[],"categories_segments":[],"categories_sizes":[],"default_left":[0,0,0,0,0,0,0,0,0,0,0,0,0,0,0,0,0,0,0,0,0,0,0,0,0],"id":3,"left_children":[1,3,5,7,9,-1,11,13,15,17,19,21,23,-1,-1,-1,-1,-1,-1,-1,-1,-1,-1,-1,-1],"loss_changes":[1.0732536E1,5.440035E0,3.2335706E0,6.800014E0,5.9311914E0,0E0,4.526031E0,1.7874839E0,7.288846E0,3.672041E0,5.4632697E0,4.627638E-1,3.421574E0,0E0,0E0,0E0,0E0,0E0,0E0,0E0,0E0,0E0,0E0,0E0,0E0],"parents":[2147483647,0,0,1,1,2,2,3,3,4,4,6,6,7,7,8,8,9,9,10,10,11,11,12,12],"right_children":[2,4,6,8,10,-1,12,14,16,18,20,22,24,-1,-1,-1,-1,-1,-1,-1,-1,-1,-1,-1,-1],"split_conditions":[6.0966145E1,4.62168E-3,6.259825E3,6.4273477E3,5.7564777E1,3.4104235E-2,-3.911598E-4,4.1055614E-3,6.4902974E3,9.874225E-3,2E0,6.518515E3,6.5983185E1,5.9072297E-2,-2.4397026E-3,-6.696144E-2,1.2174051E-2,3.79995E-2,-2.177928E-2,-5.6243744E-2,2.3509236E-2,-7.6362595E-2,-1.8305324E-2,5.123013E-3,-3.0046089E-2],"split_indices":[4,3,5,5,4,0,0,3,5,3,8,5,4,0,0,0,0,0,0,0,0,0,0,0,0],"split_type":[0,0,0,0,0,0,0,0,0,0,0,0,0,0,0,0,0,0,0,0,0,0,0,0,0],"sum_hessian":[8.6555695E1,5.353128E1,3.3024414E1,1.4344623E1,3.918666E1,1.6863091E0,3.1338102E1,4.095404E0,1.0249218E1,3.2428272E1,6.7583857E0,4.411726E0,2.6926378E1,2.4040768E0,1.6913277E0,5.385164E0,4.864054E0,3.026399E1,2.1642845E0,3.1399276E0,3.6184578E0,3.18498E0,1.2267458E0,1.1512661E1,1.5413716E1],"tree_param":{"num_deleted":"0","num_feature":"9","num_nodes":"25","size_leaf_vector":"1"}},{"base_weights":[-4.580263E-3,4.7843274E-2,-7.15737E-2,-1.23459645E-1,3.675821E-1,-5.6057626E-1,1.4637898E-1,1.0216144E0,-7.234438E-2,2.7655354E-2,-3.948163E-2,1.4811157E-2,-4.9286444E-2,6.084309E-2,-9.970105E-3,-6.456538E-2,1.2325442E-2],"categories":[],"categories_nodes":[],"categories_segments":[],"categories_sizes":[],"default_left":[0,0,0,0,0,0,0,0,0,0,0,0,0,0,0,0,0],"id":4,"left_children":[1,3,-1,5,7,9,11,13,15,-1,-1,-1,-1,-1,-1,-1,-1],"loss_changes":[6.303045E0,4.5016823E0,0E0,6.4190955E0,8.312824E0,5.720767E0,6.0618224E0,3.0036287E0,7.3350973E0,0E0,0E0,0E0,0E0,0E0,0E0,0E0,0E0],"parents":[2147483647,0,0,1,1,3,3,4,4,5,5,6,6,7,7,8,8],"right_children":[2,4,-1,6,8,10,12,14,16,-1,-1,-1,-1,-1,-1,-1,-1],"split_conditions":[6.7796826E3,5.7374584E-3,-7.15737E-2,2E0,6.6036787E-3,-1.6599762E-3,6.71881E3,2.3917342E-3,6.9101155E-3,2.7655354E-2,-3.948163E-2,1.4811157E-2,-4.9286444E-2,6.084309E-2,-9.970105E-3,-6.456538E-2,1.2325442E-2],"split_indices":[5,3,0,8,3,0,5,0,3,0,0,0,0,0,0,0,0],"split_type":[0,0,0,0,0,0,0,0,0,0,0,0,0,0,0,0,0],"sum_hessian":[8.234658E1,8.0360634E1,1.9859493E0,5.2726055E1,2.7634579E1,1.971382E1,3.3012234E1,1.058129E1,1.705329E1,3.12162E0,1.65922E1,2.980556E1,3.2066767E0,9.125477E0,1.455813E0,2.9034944E0,1.4149795E1],"tree_param":{"num_deleted":"0","num_feature":"9","num_nodes":"17","size_leaf_vector":"1"}},{"base_weights":[-4.2965665E-2,-2.6380402E-1,3.4214118E-1,4.766074E-1,-3.7990552E-1,5.7989395E-1,-7.545411E-2,-1.6925322E-1,8.263403E-1,-5.0533825E-1,2.5096917E-1,-2.1657126E-1,8.685488E-1,5.1781106E-1,-9.416977E-1,-6.5454714E-2,4.7334652E-2,5.1671494E-2,3.4010478E-3,-4.7774587E-2,-8.862367E-3,3.4707528E-2,-4.240868E-2,-3.818585E-2,4.8044782E-2,5.3688824E-2,-3.2138575E-2,4.2093918E-2,-2.759375E-2,-8.083158E-2,8.160561E-3],"categories":[],"categories_nodes":[],"categories_segments":[],"categories_sizes":[],"default_left":[0,0,0,0,0,0,0,0,0,0,0,0,0,0,0,0,0,0,0,0,0,0,0,0,0,0,0,0,0,0,0],"id":5,"left_children":[1,3,5,7,9,11,13,15,17,19,21,23,25,27,29,-1,-1,-1,-1,-1,-1,-1,-1,-1,-1,-1,-1,-1,-1,-1,-1],"loss_changes":[7.4417963E0,4.9522057E0,3.2148223E0,1.9394287E0,3.9675403E0,4.893576E0,6.897157E0,5.854944E0,7.680361E-1,5.8590527E0,4.835321E0,4.7571216E0,5.4115944E0,3.2543106E0,4.3090887E0,0E0,0E0,0E0,0E0,0E0,0E0,0E0,0E0,0E0,0E0,0E0,0E0,0E0,0E0,0E0,0E0],"parents":[2147483647,0,0,1,1,2,2,3,3,4,4,5,5,6,6,7,7,8,8,9,9,10,10,11,11,12,12,13,13,14,14],"right_children":[2,4,6,8,10,12,14,16,18,20,22,24,26,28,30,-1,-1,-1,-1,-1,-1,-1,-1,-1,-1,-1,-1,-1,-1,-1,-1],"split_conditions":[2.136546E1,-1.5824616E-3,5.7564777E1,-3.233315E-3,5.7374584E-3,4.096752E1,6.4688157E-3,4.6852925E-3,4.792694E-3,2E0,3E0,2.7205437E1,9.9465065E-3,6.90435E1,6.3546993E1,-6.5454714E-2,4.7334652E-2,5.1671494E-2,3.4010478E-3,-4.7774587E-2,-8.862367E-3,3.4707528E-2,-4.240868E-2,-3.818585E-2,4.8044782E-2,5.3688824E-2,-3.2138575E-2,4.2093918E-2,-2.759375E-2,-8.083158E-2,8.160561E-3],"split_indices":[2,0,4,0,3,4,3,3,3,8,8,2,3,4,4,0,0,0,0,0,0,0,0,0,0,0,0,0,0,0,0],"split_type":[0,0,0,0,0,0,0,0,0,0,0,0,0,0,0,0,0,0,0,0,0,0,0,0,0,0,0,0,0,0,0],"sum_hessian":[8.5441536E1,5.4502323E1,3.0939209E1,6.966965E0,4.753536E1,1.9467165E1,1.1472044E1,2.6286395E0,4.3383255E0,3.981766E1,7.717698E0,5.244927E0,1.4222239E1,7.0475883E0,4.4244556E0,1.2147744E0,1.4138652E0,3.1227448E0,1.2155809E0,1.5980086E1,2.3837574E1,5.7626305E0,1.9550673E0,3.820845E0,1.4240819E0,1.2776749E1,1.4454901E0,5.572374E0,1.4752145E0,2.4591486E0,1.9653071E0],"tree_param":{"num_deleted":"0","num_feature":"9","num_nodes":"31","size_leaf_vector":"1"}},{"base_weights":[-1.0751714E-1,2.8277835E-1,-3.5861972E-1,6.1290164E-2,4.8908405E-2,-6.2504435E-1,2.512082E-1,6.290196E-1,-4.1243422E-1,5.159931E-1,-8.0564123E-1,6.982199E-1,-4.0802535E-1,-1.7235756E-2,4.3162014E-2,-3.398156E-2,3.4672115E-2,-1.0515508E-2,4.1038003E-2,-6.4003E-2,-2.3989072E-2,6.704946E-2,-1.8156348E-2,-4.066613E-2,1.4871388E-2],"categories":[],"categories_nodes":[],"categories_segments":[],"categories_sizes":[],"default_left":[0,0,0,0,0,0,0,0,0,0,0,0,0,0,0,0,0,0,0,0,0,0,0,0,0],"id":6,"left_children":[1,3,5,-1,7,9,11,13,15,17,19,21,23,-1,-1,-1,-1,-1,-1,-1,-1,-1,-1,-1,-1],"loss_changes":[8.4012575E0,7.3755336E0,8.601488E0,0E0,7.768078E0,7.928608E0,5.151965E0,3.2223916E0,5.2675667E0,1.4103098E0,4.3122787E0,7.453015E0,2.3305442E0,0E0,0E0,0E0,0E0,0E0,0E0,0E0,0E0,0E0,0E0,0E0,0E0],"parents":[2147483647,0,0,1,1,2,2,4,4,5,5,6,6,7,7,8,8,9,9,10,10,11,11,12,12],"right_children":[2,4,6,-1,8,10,12,14,16,18,20,22,24,-1,-1,-1,-1,-1,-1,-1,-1,-1,-1,-1,-1],"split_conditions":[6.418955E3,4.8336994E1,5.7374584E-3,6.1290164E-2,4.9998662E-3,-1.8704665E-3,3E0,1E0,6.3943926E3,-3.7098236E-3,2E0,5.823852E1,1.6E1,-1.7235756E-2,4.3162014E-2,-3.398156E-2,3.4672115E-2,-1.0515508E-2,4.1038003E-2,-6.4003E-2,-2.3989072E-2,6.704946E-2,-1.8156348E-2,-4.066613E-2,1.4871388E-2],"split_indices":[5,4,3,0,3,0,8,8,5,0,8,4,7,0,0,0,0,0,0,0,0,0,0,0,0],"split_type":[0,0,0,0,0,0,0,0,0,0,0,0,0,0,0,0,0,0,0,0,0,0,0,0,0],"sum_hessian":[8.368868E1,3.2714115E1,5.0974567E1,5.6580367E0,2.7056078E1,3.5458385E1,1.5516185E1,1.1824283E1,1.5231794E1,4.5914955E0,3.0866888E1,9.211161E0,6.305024E0,2.201238E0,9.623045E0,1.2578154E1,2.6536412E0,1.4487789E0,3.1427164E0,1.1376138E1,1.9490751E1,5.5727396E0,3.6384218E0,3.907295E0,2.3977292E0],"tree_param":{"num_deleted":"0","num_feature":"9","num_nodes":"25","size_leaf_vector":"1"}},{"base_weights":[9.29327E-3,6.4633733E-1,-1.7463875E-1,-1.1136387E-1,1.0237374E0,-1.100448E-1,-7.032206E-2,-5.489257E-1,4.943721E-2,5.275584E-1,1.2672294E0,-4.699871E-1,1.3809231E-1,2.765326E-2,-5.1259328E-2,4.3137863E-2,-2.184563E-2,1.9990375E-2,6.785669E-2,-2.7886357E-3,-4.1620534E-2,2.4573645E-2,-2.2331243E-2],"categories":[],"categories_nodes":[],"categories_segments":[],"categories_sizes":[],"default_left":[0,0,0,0,0,0,0,0,0,0,0,0,0,0,0,0,0,0,0,0,0,0,0],"id":7,"left_children":[1,3,5,7,9,11,-1,13,-1,15,17,19,21,-1,-1,-1,-1,-1,-1,-1,-1,-1,-1],"loss_changes":[1.0072251E1,5.620267E0,5.1556683E0,4.058646E0,8.962126E-1,5.825827E0,0E0,3.6470351E0,0E0,2.3091712E0,7.9325676E-2,3.9389715E0,8.268332E0,0E0,0E0,0E0,0E0,0E0,0E0,0E0,0E0,0E0,0E0],"parents":[2147483647,0,0,1,1,2,2,3,3,4,4,5,5,7,7,9,9,10,10,11,11,12,12],"right_children":[2,4,6,8,10,12,-1,14,-1,16,18,20,22,-1,-1,-1,-1,-1,-1,-1,-1,-1,-1],"split_conditions":[5.0381172E1,2.0231024E1,6.778715E3,4.9439167E1,4.096752E1,2E0,-7.032206E-2,-1.5234954E-3,4.943721E-2,3.7235176E1,-3.7123738E-3,5.858383E1,6.554931E1,2.765326E-2,-5.1259328E-2,4.3137863E-2,-2.184563E-2,1.9990375E-2,6.785669E-2,-2.7886357E-3,-4.1620534E-2,2.4573645E-2,-2.2331243E-2],"split_indices":[4,2,5,4,4,8,0,1,0,4,1,4,4,0,0,0,0,0,0,0,0,0,0],"split_type":[0,0,0,0,0,0,0,0,0,0,0,0,0,0,0,0,0,0,0,0,0,0,0],"sum_hessian":[8.399733E1,1.8255579E1,6.574175E1,6.3040137E0,1.1951565E1,6.3501175E1,2.2405744E0,4.8685865E0,1.4354273E0,4.9767528E0,6.9748125E0,2.5547894E1,3.795328E1,1.4205039E0,3.4480827E0,3.7714555E0,1.205297E0,1.1665599E0,5.8082523E0,1.2460575E1,1.3087319E1,2.3755713E1,1.419757E1],"tree_param":{"num_deleted":"0","num_feature":"9","num_nodes":"23","size_leaf_vector":"1"}},{"base_weights":[2.1225676E-2,-2.5499982E-1,5.030417E-1,-3.241369E-2,-7.213525E-1,9.233343E-1,1.3902795E-1,4.5044875E-1,-2.7786988E-1,-1.1433892E0,4.4522207E-2,2.8191918E-1,1.1984861E0,4.154414E-1,-9.7651976E-1,4.2677093E-2,-1.653541E-2,-7.2843425E-2,1.0957516E-2,2.77756E-2,-6.994265E-2,-2.4290105E-2,4.4469927E-2,4.4994887E-2,-6.1147134E-3,6.744173E-2,2.157172E-2,-8.974555E-3,3.633669E-2,-7.443436E-2,4.0917904E-3],"categories":[],"categories_nodes":[],"categories_segments":[],"categories_sizes":[],"default_left":[0,0,0,0,0,0,0,0,0,0,0,0,0,0,0,0,0,0,0,0,0,0,0,0,0,0,0,0,0,0,0],"id":8,"left_children":[1,3,5,7,9,11,13,15,17,19,21,23,25,27,29,-1,-1,-1,-1,-1,-1,-1,-1,-1,-1,-1,-1,-1,-1,-1,-1],"loss_changes":[1.1662119E1,5.7633157E0,4.7544565E0,4.7217536E0,5.857314E0,2.2450771E0,6.042393E0,4.5180187E0,1.5748717E1,5.819907E0,3.7229056E0,1.5341617E0,5.6374264E-1,2.9735253E0,2.2512853E0,0E0,0E0,0E0,0E0,0E0,0E0,0E0,0E0,0E0,0E0,0E0,0E0,0E0,0E0,0E0,0E0],"parents":[2147483647,0,0,1,1,2,2,3,3,4,4,5,5,6,6,7,7,8,8,9,9,10,10,11,11,12,12,13,13,14,14],"right_children":[2,4,6,8,10,12,14,16,18,20,22,24,26,28,30,-1,-1,-1,-1,-1,-1,-1,-1,-1,-1,-1,-1,-1,-1,-1,-1],"split_conditions":[2.136546E1,6.4152145E1,5.2321697E1,6.4273477E3,7.0038635E1,4.096752E1,7.983041E-3,1.935594E1,1.8862068E1,3.5586387E-3,5.5951676E-3,3E0,5.1084896E1,6.3943926E3,6.2602673E1,4.2677093E-2,-1.653541E-2,-7.2843425E-2,1.0957516E-2,2.77756E-2,-6.994265E-2,-2.4290105E-2,4.4469927E-2,4.4994887E-2,-6.1147134E-3,6.744173E-2,2.157172E-2,-8.974555E-3,3.633669E-2,-7.443436E-2,4.0917904E-3],"split_indices":[2,4,4,5,4,4,3,2,2,3,3,8,4,5,4,0,0,0,0,0,0,0,0,0,0,0,0,0,0,0,0],"split_type":[0,0,0,0,0,0,0,0,0,0,0,0,0,0,0,0,0,0,0,0,0,0,0,0,0,0,0,0,0,0,0],"sum_hessian":[8.566207E1,5.474657E1,3.0915499E1,3.778271E1,1.6963858E1,1.3635418E1,1.728008E1,1.2451979E1,2.5330734E1,1.0619205E1,6.344653E0,4.7011075E0,8.934311E0,1.4351593E1,2.9284868E0,8.152472E0,4.299507E0,6.939085E0,1.8391647E1,1.2345567E0,9.384648E0,4.1590447E0,2.1856081E0,1.3740733E0,3.3270345E0,6.835942E0,2.0983686E0,5.075278E0,9.276316E0,1.6994648E0,1.229022E0],"tree_param":{"num_deleted":"0","num_feature":"9","num_nodes":"31","size_leaf_vector":"1"}},{"base_weights":[9.161867E-2,-7.6317474E-2,6.253538E-1,-4.1920855E-4,-8.128814E-1,9.988891E-1,-9.958038E-2,4.4592234E-1,-2.0056349E-1,-1.0749695E0,-8.526369E-3,-2.9664221E-3,1.1035758E0,-5.3564418E-2,4.135019E-1,-1.6419746E-2,4.486727E-2,-4.6617955E-2,5.2151387E-3,-1.6368803E-2,-6.400058E-2,6.67435E-2,3.18889E-2,5.944561E-2,-2.3630213E-2],"categories":[],"categories_nodes":[],"categories_segments":[],"categories_sizes":[],"default_left":[0,0,0,0,0,0,0,0,0,0,0,0,0,0,0,0,0,0,0,0,0,0,0,0,0],"id":9,"left_children":[1,3,5,7,9,11,13,15,17,19,-1,-1,21,-1,23,-1,-1,-1,-1,-1,-1,-1,-1,-1,-1],"loss_changes":[7.645716E0,3.6541336E0,5.622679E0,5.473015E0,8.446965E-1,1.5667248E0,4.354371E0,6.924624E0,9.5337E0,2.168312E-1,0E0,0E0,4.827032E-1,0E0,4.585369E0,0E0,0E0,0E0,0E0,0E0,0E0,0E0,0E0,0E0,0E0],"parents":[2147483647,0,0,1,1,2,2,3,3,4,4,5,5,6,6,7,7,8,8,9,9,12,12,14,14],"right_children":[2,4,6,8,10,12,14,16,18,20,-1,-1,22,-1,24,-1,-1,-1,-1,-1,-1,-1,-1,-1,-1],"split_conditions":[2.2422903E1,2.6686434E-3,5.8853085E1,6.418955E3,3.6849268E-3,-7.0792064E-3,6.3943926E3,6.2928076E3,1.8514862E1,2.0100552E1,-8.526369E-3,-2.9664221E-3,2.6251091E1,-5.3564418E-2,6.450563E3,-1.6419746E-2,4.486727E-2,-4.6617955E-2,5.2151387E-3,-1.6368803E-2,-6.400058E-2,6.67435E-2,3.18889E-2,5.944561E-2,-2.3630213E-2],"split_indices":[2,0,4,5,0,0,5,5,2,2,0,0,2,0,6,0,0,0,0,0,0,0,0,0,0],"split_type":[0,0,0,0,0,0,0,0,0,0,0,0,0,0,0,0,0,0,0,0,0,0,0,0,0],"sum_hessian":[8.376739E1,6.437062E1,1.9396767E1,5.926437E1,5.1062503E0,1.2551487E1,6.8452797E0,1.7967365E1,4.129701E1,3.1482444E0,1.958006E0,1.1689116E0,1.1382575E1,1.9894968E0,4.855783E0,6.7174997E0,1.1249866E1,1.1539512E1,2.9757496E1,1.2365066E0,1.9117377E0,6.3591404E0,5.0234346E0,2.407399E0,2.4483838E0],"tree_param":{"num_deleted":"0","num_feature":"9","num_nodes":"25","size_leaf_vector":"1"}},{"base_weights":[2.0652572E-3,-1.5247425E-1,5.0738484E-1,1.630059E-1,-3.4363863E-1,1.0701264E-1,1.1138711E0,3.4881848E-1,-6.304228E-2,-9.93055E-1,5.2601326E-2,5.7086047E-2,-2.9053995E-1,6.47679E-2,2.7324115E-3,3.5770755E-2,-9.720272E-3,-6.550622E-5,-5.838069E-2,-5.489259E-2,2.1453168E-2,-6.669018E-2,7.1236207E-3],"categories":[],"categories_nodes":[],"categories_segments":[],"categories_sizes":[],"default_left":[0,0,0,0,0,0,0,0,0,0,0,0,0,0,0,0,0,0,0,0,0,0,0],"id":10,"left_children":[1,3,5,7,9,11,13,15,-1,17,19,-1,21,-1,-1,-1,-1,-1,-1,-1,-1,-1,-1],"loss_changes":[6.8091483E0,4.0836296E0,4.8391876E0,7.285976E0,1.0835897E1,5.846437E0,1.4697084E0,4.853388E0,0E0,2.7563105E0,1.21545725E1,0E0,4.925371E0,0E0,0E0,0E0,0E0,0E0,0E0,0E0,0E0,0E0,0E0],"parents":[2147483647,0,0,1,1,2,2,3,3,4,4,5,5,6,6,7,7,9,9,10,10,12,12],"right_children":[2,4,6,8,10,12,14,16,-1,18,20,-1,22,-1,-1,-1,-1,-1,-1,-1,-1,-1,-1],"split_conditions":[2.2422903E1,6.425245E3,6.426165E3,2.665089E-3,6.50282E3,6.3423325E3,6.440402E1,4.830826E-3,-6.304228E-2,-2.0288099E-3,1.8412846E1,5.7086047E-2,6.3616675E3,6.47679E-2,2.7324115E-3,3.5770755E-2,-9.720272E-3,-6.550622E-5,-5.838069E-2,-5.489259E-2,2.1453168E-2,-6.669018E-2,7.1236207E-3],"split_indices":[2,5,5,1,5,5,4,3,0,1,2,0,5,0,0,0,0,0,0,0,0,0,0],"split_type":[0,0,0,0,0,0,0,0,0,0,0,0,0,0,0,0,0,0,0,0,0,0,0],"sum_hessian":[8.5203445E1,6.5783455E1,1.9419985E1,2.4876637E1,4.0906822E1,1.2406365E1,7.0136194E0,2.2672848E1,2.2037883E0,1.4930433E1,2.5976389E1,2.9240584E0,9.4823065E0,5.7973685E0,1.216251E0,1.3347954E1,9.324895E0,2.3854048E0,1.2545029E1,5.9320483E0,2.004434E1,2.1711152E0,7.3111916E0],"tree_param":{"num_deleted":"0","num_feature":"9","num_nodes":"23","size_leaf_vector":"1"}},{"base_weights":[-1.09382086E-1,9.192746E-2,-3.3418924E-1,-3.9077193E-1,3.4931722E-1,-6.0180526E-2,-6.172041E-1,5.8485484E-1,-7.9283094E-1,-5.57306E-1,4.7879127E-1,1.4362545E-1,-8.0262536E-1,-9.4752616E-1,3.461404E-1,-2.372246E-2,5.863815E-2,-6.174755E-2,3.4797532E-3,4.3294575E-2,-6.77739E-2,2.8829603E-2,-3.7699703E-2,1.4127235E-2,-3.7899297E-2,-5.5670835E-2,3.8422898E-3,-5.78943E-2,3.1353917E-2,-3.8689315E-2,4.5052756E-2],"categories":[],"categories_nodes":[],"categories_segments":[],"categories_sizes":[],"default_left":[0,0,0,0,0,0,0,0,0,0,0,0,0,0,0,0,0,0,0,0,0,0,0,0,0,0,0,0,0,0,0],"id":11,"left_children":[1,3,5,7,9,11,13,15,17,19,21,23,25,27,29,-1,-1,-1,-1,-1,-1,-1,-1,-1,-1,-1,-1,-1,-1,-1,-1],"loss_changes":[3.973358E0,5.9442806E0,3.1712842E0,7.025927E0,3.907668E0,3.4637327E0,6.769921E0,3.9553313E0,4.7650633E0,6.1014986E0,3.7718573E0,2.4951246E0,1.4298098E0,5.808056E0,4.3647995E0,0E0,0E0,0E0,0E0,0E0,0E0,0E0,0E0,0E0,0E0,0E0,0E0,0E0,0E0,0E0,0E0],"parents":[2147483647,0,0,1,1,2,2,3,3,4,4,5,5,6,6,7,7,8,8,9,9,10,10,11,11,12,12,13,13,14,14],"right_children":[2,4,6,8,10,12,14,16,18,20,22,24,26,28,30,-1,-1,-1,-1,-1,-1,-1,-1,-1,-1,-1,-1,-1,-1,-1,-1],"split_conditions":[5.9194077E1,4.7111954E-3,5.120717E-3,6.4273477E3,6.284819E3,6.90435E1,7.0038635E1,8E0,6.495625E3,6.289045E3,6.778715E3,2E1,1.4839433E-3,4.0190304E-3,5.5951676E-3,-2.372246E-2,5.863815E-2,-6.174755E-2,3.4797532E-3,4.3294575E-2,-6.77739E-2,2.8829603E-2,-3.7699703E-2,1.4127235E-2,-3.7899297E-2,-5.5670835E-2,3.8422898E-3,-5.78943E-2,3.1353917E-2,-3.8689315E-2,4.5052756E-2],"split_indices":[4,3,3,5,6,4,4,7,5,5,5,7,0,0,3,0,0,0,0,0,0,0,0,0,0,0,0,0,0,0,0],"split_type":[0,0,0,0,0,0,0,0,0,0,0,0,0,0,0,0,0,0,0,0,0,0,0,0,0,0,0,0,0,0,0],"sum_hessian":[8.611888E1,4.5745728E1,4.037315E1,1.57293215E1,3.0016407E1,2.1129084E1,1.9244066E1,4.4577065E0,1.1271614E1,3.33802E0,2.6678387E1,1.721108E1,3.918004E0,1.4342555E1,4.901511E0,1.6598837E0,2.797823E0,7.1660233E0,4.1055913E0,1.1689162E0,2.1691039E0,2.5210632E1,1.4677541E0,1.5508215E1,1.7028652E0,2.698418E0,1.219586E0,1.2885731E1,1.4568247E0,1.4933048E0,3.4082062E0],"tree_param":{"num_deleted":"0","num_feature":"9","num_nodes":"31","size_leaf_vector":"1"}},{"base_weights":[9.5008254E-2,-2.629339E-1,3.2365564E-1,-5.909134E-1,2.5570902E-1,4.3877688E-1,-5.8175135E-1,4.9453652E-1,-8.023677E-1,1.057398E0,-4.0185028E-1,-1.6321744E-1,5.7652515E-1,2.4847845E-2,-4.623256E-2,4.635937E-2,-4.183741E-3,6.96219E-3,-4.984069E-2,6.2062737E-2,1.2036755E-2,4.4265587E-2,-4.1018408E-2,2.2391336E-2,-3.963531E-2,4.34871E-2,-9.180071E-4],"categories":[],"categories_nodes":[],"categories_segments":[],"categories_sizes":[],"default_left":[0,0,0,0,0,0,0,0,0,0,0,0,0,0,0,0,0,0,0,0,0,0,0,0,0,0,0],"id":12,"left_children":[1,3,5,7,9,11,13,15,17,19,21,23,25,-1,-1,-1,-1,-1,-1,-1,-1,-1,-1,-1,-1,-1,-1],"loss_changes":[7.057089E0,5.893348E0,5.7201853E0,5.212603E0,7.686745E0,3.99866E0,2.80624E0,1.088159E0,3.423871E0,6.74572E-1,5.193525E0,4.0273323E0,6.7383184E0,0E0,0E0,0E0,0E0,0E0,0E0,0E0,0E0,0E0,0E0,0E0,0E0,0E0,0E0],"parents":[2147483647,0,0,1,1,2,2,3,3,4,4,5,5,6,6,7,7,8,8,9,9,10,10,11,11,12,12],"right_children":[2,4,6,8,10,12,14,16,18,20,22,24,26,-1,-1,-1,-1,-1,-1,-1,-1,-1,-1,-1,-1,-1,-1],"split_conditions":[2E0,5.7374584E-3,6.721875E3,-1.4720124E-3,6.6036787E-3,-1.2958964E-3,-7.3257246E-4,4.343951E-3,4E0,6.6038374E3,4.6056606E1,-2.191933E-3,6.57151E1,2.4847845E-2,-4.623256E-2,4.635937E-2,-4.183741E-3,6.96219E-3,-4.984069E-2,6.2062737E-2,1.2036755E-2,4.4265587E-2,-4.1018408E-2,2.2391336E-2,-3.963531E-2,4.34871E-2,-9.180071E-4],"split_indices":[8,3,5,0,3,0,0,3,7,5,4,0,4,0,0,0,0,0,0,0,0,0,0,0,0,0,0],"split_type":[0,0,0,0,0,0,0,0,0,0,0,0,0,0,0,0,0,0,0,0,0,0,0,0,0,0,0],"sum_hessian":[8.4187836E1,3.2757217E1,5.143062E1,1.9981787E1,1.2775432E1,4.6086205E1,5.3444157E0,3.039663E0,1.6942123E1,5.482799E0,7.292632E0,8.547331E0,3.753887E1,1.1807346E0,4.163681E0,1.3934555E0,1.6462076E0,2.9483821E0,1.3993742E1,4.050902E0,1.4318973E0,1.5157026E0,5.77693E0,4.4836464E0,4.0636845E0,2.4835506E1,1.2703367E1],"tree_param":{"num_deleted":"0","num_feature":"9","num_nodes":"27","size_leaf_vector":"1"}},{"base_weights":[6.957893E-2,3.5185567E-1,-1.2673843E-1,6.283696E-2,1.3441119E-1,-1.2424157E0,4.5469172E-2,5.466077E-1,-3.5565922E-1,-7.62815E-2,-7.2937193E-3,2.7955067E-1,-7.870043E-1,3.4018356E-2,-1.781082E-2,-3.049252E-2,4.8023354E-2,-8.754338E-5,3.6479414E-2,3.1279746E-2,-5.522653E-2],"categories":[],"categories_nodes":[],"categories_segments":[],"categories_sizes":[],"default_left":[0,0,0,0,0,0,0,0,0,0,0,0,0,0,0,0,0,0,0,0,0],"id":13,"left_children":[1,3,5,-1,7,9,11,13,15,-1,-1,17,19,-1,-1,-1,-1,-1,-1,-1,-1],"loss_changes":[4.6026783E0,6.5218554E0,9.5184145E0,0E0,5.9588337E0,1.8334637E0,8.721566E0,2.161695E0,5.1497636E0,0E0,0E0,4.405603E0,5.103358E0,0E0,0E0,0E0,0E0,0E0,0E0,0E0,0E0],"parents":[2147483647,0,0,1,1,2,2,4,4,5,5,6,6,7,7,8,8,11,11,12,12],"right_children":[2,4,6,-1,8,10,12,14,16,-1,-1,18,20,-1,-1,-1,-1,-1,-1,-1,-1],"split_conditions":[6.401992E3,4.8336994E1,6.447438E3,6.283696E-2,4.8883036E-3,5.612214E1,6.57151E1,7.15427E1,6.3943926E3,-7.62815E-2,-7.2937193E-3,5.72546E-3,1E0,3.4018356E-2,-1.781082E-2,-3.049252E-2,4.8023354E-2,-8.754338E-5,3.6479414E-2,3.1279746E-2,-5.522653E-2],"split_indices":[6,4,6,0,3,4,4,4,5,0,0,3,8,0,0,0,0,0,0,0,0],"split_type":[0,0,0,0,0,0,0,0,0,0,0,0,0,0,0,0,0,0,0,0,0],"sum_hessian":[8.125241E1,3.3004417E1,4.8247993E1,5.4683967E0,2.7536022E1,5.6204267E0,4.2627567E1,1.4893656E1,1.2642367E1,4.1557665E0,1.4646604E0,3.3790325E1,8.837239E0,1.3186403E1,1.7072527E0,1.1045682E1,1.5966848E0,2.1406216E1,1.238411E1,1.4438184E0,7.393421E0],"tree_param":{"num_deleted":"0","num_feature":"9","num_nodes":"21","size_leaf_vector":"1"}},{"base_weights":[-9.020711E-2,1.438203E-1,-4.0656796E-1,5.631493E-1,-8.629409E-2,-8.408601E-1,-2.463627E-1,-2.819088E-2,6.729017E-1,-6.4361215E-1,3.7556955E-1,2.3420542E-2,-1.0826885E0,-1.08584575E-1,-1.0110254E0,2.0343142E-3,4.660238E-2,-4.43954E-3,-5.8398005E-2,5.1894564E-2,-1.9188334E-3,-1.6359618E-2,-6.892486E-2,-2.3396445E-2,1.263461E-2,-6.437164E-2,-9.456924E-3],"categories":[],"categories_nodes":[],"categories_segments":[],"categories_sizes":[],"default_left":[0,0,0,0,0,0,0,0,0,0,0,0,0,0,0,0,0,0,0,0,0,0,0,0,0,0,0],"id":14,"left_children":[1,3,5,7,9,11,13,-1,15,17,19,-1,21,23,25,-1,-1,-1,-1,-1,-1,-1,-1,-1,-1,-1,-1],"loss_changes":[6.442393E0,4.9023232E0,2.3619294E0,2.6003003E0,8.82494E0,3.526462E0,2.8810873E0,0E0,2.7175093E0,4.399605E0,5.2121334E0,0E0,1.415348E0,3.3865216E0,7.137861E-1,0E0,0E0,0E0,0E0,0E0,0E0,0E0,0E0,0E0,0E0,0E0,0E0],"parents":[2147483647,0,0,1,1,2,2,3,3,4,4,5,5,6,6,8,8,9,9,10,10,12,12,13,13,14,14],"right_children":[2,4,6,8,10,12,14,-1,16,18,20,-1,22,24,26,-1,-1,-1,-1,-1,-1,-1,-1,-1,-1,-1,-1],"split_conditions":[6.04291E1,6.3908833E3,-7.390437E-5,-3.163478E-3,6.462305E3,-1.5824616E-3,6.7165376E3,-2.819088E-2,6.284819E3,6.440945E3,6.662762E3,2.3420542E-2,6.346364E3,6.4471274E3,1.0428764E-3,2.0343142E-3,4.660238E-2,-4.43954E-3,-5.8398005E-2,5.1894564E-2,-1.9188334E-3,-1.6359618E-2,-6.892486E-2,-2.3396445E-2,1.263461E-2,-6.437164E-2,-9.456924E-3],"split_indices":[4,6,0,0,6,0,5,0,6,5,6,0,6,5,0,0,0,0,0,0,0,0,0,0,0,0,0],"split_type":[0,0,0,0,0,0,0,0,0,0,0,0,0,0,0,0,0,0,0,0,0,0,0,0,0,0,0],"sum_hessian":[8.522595E1,4.9301006E1,3.5924946E1,1.6955807E1,3.23452E1,8.536135E0,2.7388811E1,1.1375875E0,1.581822E1,1.447958E1,1.786562E1,1.1847702E0,7.351364E0,2.4174936E1,3.2138746E0,4.9352136E0,1.0883006E1,7.603512E0,6.876068E0,6.291612E0,1.1574007E1,2.6610725E0,4.690292E0,1.1971882E1,1.2203054E1,1.9811591E0,1.2327155E0],"tree_param":{"num_deleted":"0","num_feature":"9","num_nodes":"27","size_leaf_vector":"1"}},{"base_weights":[-5.985957E-2,-5.016659E-1,1.10952236E-1,2.260231E-1,-1.0895275E0,-1.6589807E-1,3.7601036E-1,-4.2992707E-2,5.8147204E-1,5.5952696E-3,-1.2221555E0,-5.647377E-2,-5.8464374E-2,5.805085E-3,6.5506566E-1,-9.629858E-3,5.0225873E-2,-7.633382E-2,-1.3666982E-2,-7.6249773E-3,4.820593E-2,2.6694635E-2,-1.7694125E-2,6.018836E-2,1.31618E-2],"categories":[],"categories_nodes":[],"categories_segments":[],"categories_sizes":[],"default_left":[0,0,0,0,0,0,0,0,0,0,0,0,0,0,0,0,0,0,0,0,0,0,0,0,0],"id":15,"left_children":[1,3,5,7,9,11,13,-1,15,-1,17,19,-1,21,23,-1,-1,-1,-1,-1,-1,-1,-1,-1,-1],"loss_changes":[6.381516E0,1.0321853E1,4.5585318E0,4.881973E0,2.2401218E0,3.3005853E0,3.2615776E0,0E0,3.1897316E0,0E0,3.0417309E0,2.9595587E0,0E0,2.961078E0,3.5560803E0,0E0,0E0,0E0,0E0,0E0,0E0,0E0,0E0,0E0,0E0],"parents":[2147483647,0,0,1,1,2,2,3,3,4,4,5,5,6,6,8,8,10,10,11,11,13,13,14,14],"right_children":[2,4,6,8,10,12,14,-1,16,-1,18,20,-1,22,24,-1,-1,-1,-1,-1,-1,-1,-1,-1,-1],"split_conditions":[1.9024855E1,6.4282925E3,6.44933E3,1E0,3.37586E-3,6.440945E3,4.7298702E-3,-4.2992707E-2,8E0,5.5952696E-3,5.7374584E-3,6.42939E3,-5.8464374E-2,4.343951E-3,-1.4324595E-4,-9.629858E-3,5.0225873E-2,-7.633382E-2,-1.3666982E-2,-7.6249773E-3,4.820593E-2,2.6694635E-2,-1.7694125E-2,6.018836E-2,1.31618E-2],"split_indices":[2,5,5,8,3,5,3,0,7,0,3,5,0,3,0,0,0,0,0,0,0,0,0,0,0],"split_type":[0,0,0,0,0,0,0,0,0,0,0,0,0,0,0,0,0,0,0,0,0,0,0,0,0],"sum_hessian":[8.2824196E1,2.2553194E1,6.0271E1,1.0353076E1,1.2200118E1,2.9662722E1,3.060828E1,2.2032382E0,8.1498375E0,1.2284294E0,1.0971688E1,2.7698368E1,1.9643533E0,1.359433E1,1.7013948E1,3.0725543E0,5.0772834E0,7.84486E0,3.1268284E0,2.6093822E1,1.6045452E0,5.3116E0,8.28273E0,6.224814E0,1.0789135E1],"tree_param":{"num_deleted":"0","num_feature":"9","num_nodes":"25","size_leaf_vector":"1"}},{"base_weights":[-6.0884513E-2,-2.0017341E-1,4.0149054E-1,-4.9206817E-1,-1.5459734E-3,5.304505E-1,-2.3128575E-2,-7.9586494E-1,5.1684684E-1,2.3186931E-1,-3.3488646E-1,-3.500849E-1,7.251031E-1,1.8432854E-2,-5.1596947E-2,-3.226405E-2,4.719218E-2,2.1677254E-2,-3.3787094E-2,3.3764306E-2,-2.4535425E-2,2.6141396E-2,-5.513184E-2,4.5483932E-2,7.8547625E-3],"categories":[],"categories_nodes":[],"categories_segments":[],"categories_sizes":[],"default_left":[0,0,0,0,0,0,0,0,0,0,0,0,0,0,0,0,0,0,0,0,0,0,0,0,0],"id":16,"left_children":[1,3,5,7,9,11,-1,13,15,17,19,21,23,-1,-1,-1,-1,-1,-1,-1,-1,-1,-1,-1,-1],"loss_changes":[5.525939E0,3.805301E0,2.463642E0,8.557951E0,3.1951532E0,3.3026705E0,0E0,6.1045847E0,3.9622228E0,4.714676E0,2.9932172E0,3.134985E0,1.4185014E0,0E0,0E0,0E0,0E0,0E0,0E0,0E0,0E0,0E0,0E0,0E0,0E0],"parents":[2147483647,0,0,1,1,2,2,3,3,4,4,5,5,7,7,8,8,9,9,10,10,11,11,12,12],"right_children":[2,4,6,8,10,12,-1,14,16,18,20,22,24,-1,-1,-1,-1,-1,-1,-1,-1,-1,-1,-1,-1],"split_conditions":[2.2422903E1,2E0,9.874225E-3,5.7374584E-3,6.31301E1,-1.2033695E-3,-2.3128575E-2,-1.4720124E-3,-1.0207869E-3,5.8444636E-3,6.259825E3,3E0,6.2520824E1,1.8432854E-2,-5.1596947E-2,-3.226405E-2,4.719218E-2,2.1677254E-2,-3.3787094E-2,3.3764306E-2,-2.4535425E-2,2.6141396E-2,-5.513184E-2,4.5483932E-2,7.8547625E-3],"split_indices":[2,8,3,3,4,0,0,0,0,3,5,8,4,0,0,0,0,0,0,0,0,0,0,0,0],"split_type":[0,0,0,0,0,0,0,0,0,0,0,0,0,0,0,0,0,0,0,0,0,0,0,0,0],"sum_hessian":[8.355369E1,6.464629E1,1.8907398E1,2.5579039E1,3.9067253E1,1.6787922E1,2.1194766E0,1.9821661E1,5.757379E0,2.3156656E1,1.5910598E1,2.8947299E0,1.3893191E1,3.2463293E0,1.657533E1,1.4096426E0,4.3477364E0,1.9373981E1,3.7826736E0,1.6807605E0,1.4229837E1,1.4815199E0,1.41321E0,1.0031806E1,3.8613858E0],"tree_param":{"num_deleted":"0","num_feature":"9","num_nodes":"25","size_leaf_vector":"1"}},{"base_weights":[2.5049085E-2,-3.8818446E-1,1.9260752E-1,6.6135865E-1,-8.907227E-1,-3.0822886E-2,5.148404E-1,-2.8108463E-2,9.829265E-1,8.837289E-2,-1.0899736E0,1.3291967E-1,-1.0701884E0,8.8161683E-1,2.7996218E-1,1.2096531E-2,6.391808E-2,-2.8245127E-2,4.3007568E-2,2.846165E-3,-6.318728E-2,1.7743777E-2,-2.6975458E-2,-1.3282622E-2,-6.269171E-2,7.1748826E-3,5.729484E-2,-8.236052E-3,3.5049763E-2],"categories":[],"categories_nodes":[],"categories_segments":[],"categories_sizes":[],"default_left":[0,0,0,0,0,0,0,0,0,0,0,0,0,0,0,0,0,0,0,0,0,0,0,0,0,0,0,0,0],"id":17,"left_children":[1,3,5,7,9,11,13,-1,15,17,19,21,23,25,27,-1,-1,-1,-1,-1,-1,-1,-1,-1,-1,-1,-1,-1,-1],"loss_changes":[6.014753E0,1.381785E1,4.458502E0,3.9735138E0,3.4881773E0,6.504417E0,1.9347034E0,0E0,1.2776618E0,2.434546E0,2.9660625E0,5.1442723E0,4.349637E-1,1.6732178E0,3.2800732E0,0E0,0E0,0E0,0E0,0E0,0E0,0E0,0E0,0E0,0E0,0E0,0E0,0E0,0E0],"parents":[2147483647,0,0,1,1,2,2,3,3,4,4,5,5,6,6,8,8,9,9,10,10,11,11,12,12,13,13,14,14],"right_children":[2,4,6,8,10,12,14,-1,16,18,20,22,24,26,28,-1,-1,-1,-1,-1,-1,-1,-1,-1,-1,-1,-1,-1,-1],"split_conditions":[1.9134714E1,6.391525E3,6.46191E3,-5.5586436E-4,1E0,6.451252E3,-1.4324595E-4,-2.8108463E-2,6.325025E3,4.240284E-3,6.4282925E3,4E0,4.473565E-3,4.5949784E-3,1.1527647E-3,1.2096531E-2,6.391808E-2,-2.8245127E-2,4.3007568E-2,2.846165E-3,-6.318728E-2,1.7743777E-2,-2.6975458E-2,-1.3282622E-2,-6.269171E-2,7.1748826E-3,5.729484E-2,-8.236052E-3,3.5049763E-2],"split_indices":[2,5,6,0,8,6,0,0,5,3,5,8,3,3,0,0,0,0,0,0,0,0,0,0,0,0,0,0,0],"split_type":[0,0,0,0,0,0,0,0,0,0,0,0,0,0,0,0,0,0,0,0,0,0,0,0,0,0,0,0,0],"sum_hessian":[8.478741E1,2.408129E1,6.070612E1,7.694795E0,1.6386494E1,3.6383095E1,2.4323025E1,1.4457338E0,6.2490616E0,2.8649476E0,1.3521547E1,3.218479E1,4.1983056E0,8.4204645E0,1.5902561E1,2.299774E0,3.9492874E0,1.6967643E0,1.1681832E0,1.8676255E0,1.1653921E1,2.4552673E1,7.6321173E0,1.2348936E0,2.9634118E0,2.6268356E0,5.7936287E0,8.030133E0,7.8724284E0],"tree_param":{"num_deleted":"0","num_feature":"9","num_nodes":"29","size_leaf_vector":"1"}},{"base_weights":[-2.750639E-2,-3.0428803E-1,1.495723E-1,6.448783E-1,-4.5834282E-1,3.2567924E-1,-2.648336E-1,-1.5205974E-2,5.1598873E-2,-7.541459E-1,5.6219153E-2,4.270104E-1,-7.561259E-1,4.7428556E-2,-4.551928E-1,-4.3419156E-2,2.294477E-2,4.669053E-2,-1.9857144E-2,-1.9530449E-2,2.6485786E-2,-1.0265748E-2,-4.792233E-2,3.1548817E-2,-3.6647826E-2],"categories":[],"categories_nodes":[],"categories_segments":[],"categories_sizes":[],"default_left":[0,0,0,0,0,0,0,0,0,0,0,0,0,0,0,0,0,0,0,0,0,0,0,0,0],"id":18,"left_children":[1,3,5,7,9,11,13,-1,-1,15,17,19,21,-1,23,-1,-1,-1,-1,-1,-1,-1,-1,-1,-1],"loss_changes":[3.999107E0,4.9458017E0,3.7252746E0,2.0978513E0,4.2960005E0,4.2079706E0,3.9940357E0,0E0,0E0,2.8671017E0,4.799721E0,2.9818273E0,1.8170512E-1,0E0,4.6882305E0,0E0,0E0,0E0,0E0,0E0,0E0,0E0,0E0,0E0,0E0],"parents":[2147483647,0,0,1,1,2,2,3,3,4,4,5,5,6,6,9,9,10,10,11,11,12,12,14,14],"right_children":[2,4,6,8,10,12,14,-1,-1,16,18,20,22,-1,24,-1,-1,-1,-1,-1,-1,-1,-1,-1,-1],"split_conditions":[2E0,4.70064E1,6.554931E1,2.0472364E1,6.46191E3,6.778715E3,6.259825E3,-1.5205974E-2,5.1598873E-2,3.6114375E-3,6.62328E3,3.6201187E1,5.3123253E1,4.7428556E-2,1.7757511E1,-4.3419156E-2,2.294477E-2,4.669053E-2,-1.9857144E-2,-1.9530449E-2,2.6485786E-2,-1.0265748E-2,-4.792233E-2,3.1548817E-2,-3.6647826E-2],"split_indices":[8,4,4,2,6,5,5,0,0,0,5,4,4,0,2,0,0,0,0,0,0,0,0,0,0],"split_type":[0,0,0,0,0,0,0,0,0,0,0,0,0,0,0,0,0,0,0,0,0,0,0,0,0],"sum_hessian":[7.966562E1,3.080215E1,4.886347E1,3.8563402E0,2.694581E1,3.444131E1,1.4422157E1,1.1793796E0,2.6769607E0,1.6814281E1,1.013153E1,3.2044983E1,2.3963287E0,1.4156075E0,1.300655E1,1.562677E1,1.187511E0,3.0901175E0,7.0414124E0,3.2632902E0,2.8781693E1,1.1850021E0,1.2113266E0,2.3898063E0,1.0616744E1],"tree_param":{"num_deleted":"0","num_feature":"9","num_nodes":"25","size_leaf_vector":"1"}},{"base_weights":[2.0438395E-2,-2.7385786E-1,2.1447527E-1,-1.3442308E-1,-1.1273533E0,1.512264E-1,4.665329E-2,4.5635813E-1,-4.25442E-1,-6.927761E-2,-1.2323536E-2,2.94549E-1,-1.0041643E0,4.804995E-2,5.2074282E-3,-3.25309E-2,5.640431E-2,4.040272E-2,7.810164E-3,-7.3563114E-2,1.7250875E-2],"categories":[],"categories_nodes":[],"categories_segments":[],"categories_sizes":[],"default_left":[0,0,0,0,0,0,0,0,0,0,0,0,0,0,0,0,0,0,0,0,0],"id":19,"left_children":[1,3,5,7,9,11,-1,13,15,-1,-1,17,19,-1,-1,-1,-1,-1,-1,-1,-1],"loss_changes":[4.6901402E0,3.735891E0,2.1058853E0,5.2168436E0,6.710253E-1,8.0178385E0,0E0,1.699321E0,7.7617707E0,0E0,0E0,2.8759534E0,3.8937097E0,0E0,0E0,0E0,0E0,0E0,0E0,0E0,0E0],"parents":[2147483647,0,0,1,1,2,2,3,3,4,4,5,5,7,7,8,8,11,11,12,12],"right_children":[2,4,6,8,10,12,-1,14,16,-1,-1,18,20,-1,-1,-1,-1,-1,-1,-1,-1],"split_conditions":[1.9847006E1,1.9539858E1,4.0109754E-3,6.38972E3,6.431685E3,2.572098E-3,4.665329E-2,1.779742E1,1.9359968E1,-6.927761E-2,-1.2323536E-2,6.3423325E3,2.5713676E1,4.804995E-2,5.2074282E-3,-3.25309E-2,5.640431E-2,4.040272E-2,7.810164E-3,-7.3563114E-2,1.7250875E-2],"split_indices":[2,2,1,5,6,1,0,2,2,0,0,5,2,0,0,0,0,0,0,0,0],"split_type":[0,0,0,0,0,0,0,0,0,0,0,0,0,0,0,0,0,0,0,0,0],"sum_hessian":[8.010426E1,3.1665598E1,4.8438667E1,2.8213827E1,3.4517708E0,4.5632626E1,2.8060422E0,9.1238575E0,1.908997E1,2.2262983E0,1.2254723E0,4.125957E1,4.3730545E0,3.039878E0,6.0839796E0,1.7180887E1,1.9090815E0,7.7293353E0,3.3530235E1,3.181209E0,1.1918455E0],"tree_param":{"num_deleted":"0","num_feature":"9","num_nodes":"21","size_leaf_vector":"1"}},{"base_weights":[4.5559496E-2,6.0120404E-1,-5.3118084E-2,1.9116722E-2,1.0695761E0,6.5968566E-2,-7.3775893E-1,4.665953E-1,-5.5557287E-1,7.921094E-3,6.180147E-2,-7.5169843E-1,1.5496972E-1,-9.681693E-1,1.12311235E-2,-1.1307494E-2,4.7083285E-2,-4.1926447E-2,-7.8292016E-4,1.9851679E-3,-4.705083E-2,-7.6939906E-3,1.7958349E-2,-7.246208E-2,-2.0946054E-2],"categories":[],"categories_nodes":[],"categories_segments":[],"categories_sizes":[],"default_left":[0,0,0,0,0,0,0,0,0,0,0,0,0,0,0,0,0,0,0,0,0,0,0,0,0],"id":20,"left_children":[1,3,5,7,9,11,13,15,17,-1,-1,19,21,23,-1,-1,-1,-1,-1,-1,-1,-1,-1,-1,-1],"loss_changes":[4.6275797E0,3.4478564E0,5.92671E0,1.979733E0,8.705578E-1,4.6525226E0,2.604374E0,1.6297538E0,5.040567E-1,0E0,0E0,9.796982E-1,3.652659E0,1.7374516E0,0E0,0E0,0E0,0E0,0E0,0E0,0E0,0E0,0E0,0E0,0E0],"parents":[2147483647,0,0,1,1,2,2,3,3,4,4,5,5,6,6,7,7,8,8,11,11,12,12,13,13],"right_children":[2,4,6,8,10,12,14,16,18,-1,-1,20,22,24,-1,-1,-1,-1,-1,-1,-1,-1,-1,-1,-1],"split_conditions":[-1.5824616E-3,6.42939E3,6.7117876E3,3E0,4.343951E-3,-1.089838E-3,1.4518767E-3,-2.9559773E-3,5.1512406E-3,7.921094E-3,6.180147E-2,6.406945E3,2E0,6.729585E3,1.12311235E-2,-1.1307494E-2,4.7083285E-2,-4.1926447E-2,-7.8292016E-4,1.9851679E-3,-4.705083E-2,-7.6939906E-3,1.7958349E-2,-7.246208E-2,-2.0946054E-2],"split_indices":[0,5,5,8,3,0,0,0,3,0,0,5,8,5,0,0,0,0,0,0,0,0,0,0,0],"split_type":[0,0,0,0,0,0,0,0,0,0,0,0,0,0,0,0,0,0,0,0,0,0,0,0,0],"sum_hessian":[8.2816765E1,1.1721491E1,7.109527E1,5.690375E0,6.0311165E0,6.1330986E1,9.764286E0,3.305027E0,2.3853478E0,1.233078E0,4.7980385E0,5.2895107E0,5.6041473E1,7.8732767E0,1.8910091E0,1.5576442E0,1.7473829E0,1.2022175E0,1.1831305E0,1.1736428E0,4.115868E0,2.2403088E1,3.3638386E1,3.3236156E0,4.549661E0],"tree_param":{"num_deleted":"0","num_feature":"9","num_nodes":"25","size_leaf_vector":"1"}},{"base_weights":[8.386509E-2,3.013934E-1,-2.1697551E-1,-1.176796E-1,4.612826E-1,9.9645145E-2,-5.386801E-1,8.176915E-1,-5.7457256E-1,2.8826687E-1,9.519266E-1,-5.4410327E-2,3.8627616E-1,-1.1075956E0,-2.070361E-1,5.6712188E-2,-6.022851E-3,-4.1671615E-2,2.1076692E-2,1.9357808E-2,-2.5522938E-2,-5.719648E-3,5.6790646E-2,4.6618674E-2,3.550569E-3,-6.871273E-2,-1.902045E-2,4.3162204E-2,-2.0239867E-2],"categories":[],"categories_nodes":[],"categories_segments":[],"categories_sizes":[],"default_left":[0,0,0,0,0,0,0,0,0,0,0,0,0,0,0,0,0,0,0,0,0,0,0,0,0,0,0,0,0],"id":21,"left_children":[1,3,5,7,9,11,13,15,17,19,21,-1,23,25,27,-1,-1,-1,-1,-1,-1,-1,-1,-1,-1,-1,-1,-1,-1],"loss_changes":[5.1976256E0,3.132053E0,3.4650788E0,6.2315106E0,2.5652466E0,6.454619E0,2.934535E0,1.5730813E0,2.83828E0,2.2642767E0,1.7547374E0,0E0,2.518998E0,6.3009167E-1,2.8519347E0,0E0,0E0,0E0,0E0,0E0,0E0,0E0,0E0,0E0,0E0,0E0,0E0,0E0,0E0],"parents":[2147483647,0,0,1,1,2,2,3,3,4,4,5,5,6,6,7,7,8,8,9,9,10,10,12,12,13,13,14,14],"right_children":[2,4,6,8,10,12,14,16,18,20,22,-1,24,26,28,-1,-1,-1,-1,-1,-1,-1,-1,-1,-1,-1,-1,-1,-1],"split_conditions":[6.04291E1,4.62168E-3,4.9914867E-3,6.4273477E3,1.1033874E-3,2E0,6.38972E3,4.1195727E-3,5.612214E1,7.6834136E-4,6.29399E3,-5.4410327E-2,6.4225176E3,1.4173855E-3,6.38501E3,5.6712188E-2,-6.022851E-3,-4.1671615E-2,2.1076692E-2,1.9357808E-2,-2.5522938E-2,-5.719648E-3,5.6790646E-2,4.6618674E-2,3.550569E-3,-6.871273E-2,-1.902045E-2,4.3162204E-2,-2.0239867E-2],"split_indices":[4,3,3,5,0,8,5,3,4,0,5,0,5,0,6,0,0,0,0,0,0,0,0,0,0,0,0,0,0],"split_type":[0,0,0,0,0,0,0,0,0,0,0,0,0,0,0,0,0,0,0,0,0,0,0,0,0,0,0,0,0],"sum_hessian":[7.742489E1,4.4933247E1,3.2491642E1,1.2481905E1,3.245134E1,1.6723087E1,1.5768555E1,3.8369849E0,8.64492E0,2.5164953E1,7.2863884E0,2.707241E0,1.4015847E1,4.9453645E0,1.082319E1,2.7126522E0,1.1243328E0,6.991372E0,1.6535485E0,2.285107E1,2.3138816E0,1.1273029E0,6.1590853E0,4.4134684E0,9.602379E0,2.967397E0,1.9779676E0,1.1631519E0,9.660038E0],"tree_param":{"num_deleted":"0","num_feature":"9","num_nodes":"29","size_leaf_vector":"1"}},{"base_weights":[8.2004435E-2,2.632267E-1,-1.5332392E-1,8.1836474E-1,8.405409E-2,-2.5743538E-1,5.792107E-1,3.140255E-1,1.086711E0,-4.8380494E-1,2.0920116E-1,-7.8744525E-1,-3.3413284E-2,4.9030483E-3,3.6339547E-2,5.3410422E-2,-4.5708403E-2,1.2767973E-2,5.99792E-2,4.752106E-2,-6.464321E-2,-3.181734E-3,4.5854267E-2,-4.8392456E-2,4.7385423E-3,1.594554E-2,-1.5083849E-2],"categories":[],"categories_nodes":[],"categories_segments":[],"categories_sizes":[],"default_left":[0,0,0,0,0,0,0,0,0,0,0,0,0,0,0,0,0,0,0,0,0,0,0,0,0,0,0],"id":22,"left_children":[1,3,5,7,9,11,13,15,17,19,21,23,25,-1,-1,-1,-1,-1,-1,-1,-1,-1,-1,-1,-1,-1,-1],"loss_changes":[3.3162694E0,4.2842603E0,2.7459908E0,1.0884628E0,2.5316868E0,3.595753E0,2.5145757E-1,5.677606E0,3.0257225E-1,8.745624E0,5.605678E0,1.5271297E0,2.221567E0,0E0,0E0,0E0,0E0,0E0,0E0,0E0,0E0,0E0,0E0,0E0,0E0,0E0,0E0],"parents":[2147483647,0,0,1,1,2,2,3,3,4,4,5,5,6,6,7,7,8,8,9,9,10,10,11,11,12,12],"right_children":[2,4,6,8,10,12,14,16,18,20,22,24,26,-1,-1,-1,-1,-1,-1,-1,-1,-1,-1,-1,-1,-1,-1],"split_conditions":[6.04291E1,6.3423325E3,7.50839E1,6.2905474E3,1.8412846E1,2E0,6.571985E3,6.289045E3,-1.5824616E-3,6.425245E3,6.691425E3,6.91752E1,6.554931E1,4.9030483E-3,3.6339547E-2,5.3410422E-2,-4.5708403E-2,1.2767973E-2,5.99792E-2,4.752106E-2,-6.464321E-2,-3.181734E-3,4.5854267E-2,-4.8392456E-2,4.7385423E-3,1.594554E-2,-1.5083849E-2],"split_indices":[4,5,4,5,2,8,5,5,0,5,5,4,4,0,0,0,0,0,0,0,0,0,0,0,0,0,0],"split_type":[0,0,0,0,0,0,0,0,0,0,0,0,0,0,0,0,0,0,0,0,0,0,0,0,0,0,0],"sum_hessian":[7.581503E1,4.2764378E1,3.305065E1,9.56409E0,3.320029E1,2.9505722E1,3.5449305E0,4.075216E0,5.488874E0,5.477962E0,2.7722326E1,8.018905E0,2.1486816E1,1.2227871E0,2.3221433E0,2.6055288E0,1.4696872E0,1.0461259E0,4.442748E0,1.9126563E0,3.5653057E0,2.0666903E1,7.0554237E0,6.5769267E0,1.4419782E0,9.206572E0,1.2280245E1],"tree_param":{"num_deleted":"0","num_feature":"9","num_nodes":"27","size_leaf_vector":"1"}},{"base_weights":[-3.0165244E-2,-1.894236E-1,1.9876273E-1,-1.6147073E-2,-1.2431637E0,6.405364E-1,-2.6098868E-1,2.1461767E-1,-2.8003404E-1,-1.694551E-2,-6.891401E-2,9.6946347E-1,3.9571926E-2,6.622181E-1,-7.525435E-1,-3.7676163E-2,1.8565653E-2,9.696219E-3,-2.5057435E-2,1.5832786E-2,5.5655118E-2,2.8341979E-2,-2.7751401E-2,3.50805E-3,5.000722E-2,2.4285043E-2,-4.761556E-2],"categories":[],"categories_nodes":[],"categories_segments":[],"categories_sizes":[],"default_left":[0,0,0,0,0,0,0,0,0,0,0,0,0,0,0,0,0,0,0,0,0,0,0,0,0,0,0],"id":23,"left_children":[1,3,5,7,9,11,13,15,17,-1,-1,19,21,23,25,-1,-1,-1,-1,-1,-1,-1,-1,-1,-1,-1,-1],"loss_changes":[3.0189986E0,8.878703E0,7.0801945E0,2.670549E0,3.7218094E-1,3.450004E0,8.38977E0,3.8349686E0,2.238482E0,0E0,0E0,7.129574E-1,2.5984952E0,1.2450633E0,3.385252E0,0E0,0E0,0E0,0E0,0E0,0E0,0E0,0E0,0E0,0E0,0E0,0E0],"parents":[2147483647,0,0,1,1,2,2,3,3,4,4,5,5,6,6,7,7,8,8,11,11,12,12,13,13,14,14],"right_children":[2,4,6,8,10,12,14,16,18,-1,-1,20,22,24,26,-1,-1,-1,-1,-1,-1,-1,-1,-1,-1,-1,-1],"split_conditions":[6.46191E3,6.450886E3,6.67104E3,5.9194077E1,-2.545642E-3,6.554931E1,5.2876854E1,-3.233315E-3,4.4925045E-3,-1.694551E-2,-6.891401E-2,-9.421001E-4,8.152221E-4,4.6056606E1,-1.847233E-3,-3.7676163E-2,1.8565653E-2,9.696219E-3,-2.5057435E-2,1.5832786E-2,5.5655118E-2,2.8341979E-2,-2.7751401E-2,3.50805E-3,5.000722E-2,2.4285043E-2,-4.761556E-2],"split_indices":[6,6,6,4,0,4,4,0,3,0,0,0,0,4,0,0,0,0,0,0,0,0,0,0,0,0,0],"split_type":[0,0,0,0,0,0,0,0,0,0,0,0,0,0,0,0,0,0,0,0,0,0,0,0,0,0,0],"sum_hessian":[8.0773315E1,4.7736805E1,3.3036507E1,4.1867462E1,5.8693423E0,1.664712E1,1.6389389E1,2.2435072E1,1.943239E1,1.2190766E0,4.6502657E0,1.0362315E1,6.2848043E0,5.5738153E0,1.0815573E1,2.594728E0,1.9840343E1,6.2208953E0,1.3211495E1,2.446775E0,7.9155397E0,3.3557477E0,2.9290566E0,2.4641576E0,3.1096575E0,1.3036531E0,9.51192E0],"tree_param":{"num_deleted":"0","num_feature":"9","num_nodes":"27","size_leaf_vector":"1"}},{"base_weights":[3.4831946E-3,-3.3625197E-1,1.313558E-1,5.174258E-1,-7.8686637E-1,-7.970142E-2,4.3017614E-1,5.4252118E-2,1.12259366E-1,-1.0266613E0,1.6260491E-1,8.388574E-2,-1.0652667E0,7.149195E-1,-3.981625E-2,3.457236E-2,-1.8784663E-2,-5.6690216E-2,-1.0863323E-2,4.1812062E-2,-1.9205648E-2,-4.420211E-3,4.263518E-2,-7.088437E-2,-1.33079365E-2,5.033924E-2,-1.09750756E-4,-2.2135315E-2,3.302603E-2],"categories":[],"categories_nodes":[],"categories_segments":[],"categories_sizes":[],"default_left":[0,0,0,0,0,0,0,0,0,0,0,0,0,0,0,0,0,0,0,0,0,0,0,0,0,0,0,0,0],"id":24,"left_children":[1,3,5,7,9,11,13,-1,15,17,19,21,23,25,27,-1,-1,-1,-1,-1,-1,-1,-1,-1,-1,-1,-1,-1,-1],"loss_changes":[3.6767519E0,9.31135E0,3.911119E0,1.8560784E0,3.7066097E0,6.033638E0,3.454606E0,0E0,1.9932387E0,8.4190655E-1,1.7936362E0,4.386645E0,1.1213241E0,3.3500328E0,3.2849817E0,0E0,0E0,0E0,0E0,0E0,0E0,0E0,0E0,0E0,0E0,0E0,0E0,0E0,0E0],"parents":[2147483647,0,0,1,1,2,2,3,3,4,4,5,5,6,6,8,8,9,9,10,10,11,11,12,12,13,13,14,14],"right_children":[2,4,6,8,10,12,14,-1,16,18,20,22,24,26,28,-1,-1,-1,-1,-1,-1,-1,-1,-1,-1,-1,-1,-1,-1],"split_conditions":[1.8940615E1,6.38972E3,6.462305E3,1.7757511E1,1.6E1,6.451252E3,6.698748E3,5.4252118E-2,5.9194077E1,1.8546528E1,1.6286024E1,6.447438E3,6.45413E3,6.554931E1,1.1298584E-3,3.457236E-2,-1.8784663E-2,-5.6690216E-2,-1.0863323E-2,4.1812062E-2,-1.9205648E-2,-4.420211E-3,4.263518E-2,-7.088437E-2,-1.33079365E-2,5.033924E-2,-1.09750756E-4,-2.2135315E-2,3.302603E-2],"split_indices":[2,5,6,2,7,6,6,0,4,2,2,6,6,4,0,0,0,0,0,0,0,0,0,0,0,0,0,0,0],"split_type":[0,0,0,0,0,0,0,0,0,0,0,0,0,0,0,0,0,0,0,0,0,0,0,0,0,0,0,0,0],"sum_hessian":[8.261757E1,2.2147076E1,6.0470493E1,7.600276E0,1.45468E1,3.5869263E1,2.460123E1,2.4666348E0,5.1336412E0,1.1548785E1,2.998015E0,3.1547754E1,4.321508E0,1.4995268E1,9.605963E0,2.1566787E0,2.9769626E0,9.844784E0,1.7040014E0,1.1058633E0,1.8921516E0,2.6495255E1,5.0525007E0,2.4617472E0,1.8597609E0,1.0370529E1,4.6247387E0,6.331463E0,3.2745001E0],"tree_param":{"num_deleted":"0","num_feature":"9","num_nodes":"29","size_leaf_vector":"1"}},{"base_weights":[-5.8498915E-2,4.983185E-2,-9.587543E-2,-4.0721256E-1,4.0564656E-2,-8.3009124E-1,-8.355438E-2,2.7571276E-1,-2.5304976E-1,-8.848052E-3,-5.2916046E-2,2.6254324E-2,-1.6955081E-2,3.3088833E-2,4.53932E-3,1.7708166E-2,-2.2692101E-2],"categories":[],"categories_nodes":[],"categories_segments":[],"categories_sizes":[],"default_left":[0,0,0,0,0,0,0,0,0,0,0,0,0,0,0,0,0],"id":25,"left_children":[1,-1,3,5,7,9,11,13,15,-1,-1,-1,-1,-1,-1,-1,-1],"loss_changes":[3.2441597E0,0E0,3.330683E0,3.1967864E0,3.877877E0,1.3382325E0,2.4534721E0,2.1606658E0,3.2149153E0,0E0,0E0,0E0,0E0,0E0,0E0,0E0,0E0],"parents":[2147483647,0,0,2,2,3,3,4,4,5,5,6,6,7,7,8,8],"right_children":[2,-1,4,6,8,10,12,14,16,-1,-1,-1,-1,-1,-1,-1,-1],"split_conditions":[6.259825E3,4.983185E-2,4.6764705E-3,2E0,5.8999214E1,6.41858E3,3.5586387E-3,6.374342E3,4.9998662E-3,-8.848052E-3,-5.2916046E-2,2.6254324E-2,-1.6955081E-2,3.3088833E-2,4.53932E-3,1.7708166E-2,-2.2692101E-2],"split_indices":[5,0,3,8,4,5,3,6,3,0,0,0,0,0,0,0,0],"split_type":[0,0,0,0,0,0,0,0,0,0,0,0,0,0,0,0,0],"sum_hessian":[7.883829E1,1.8191463E0,7.701914E1,2.2863436E1,5.4155704E1,9.233978E0,1.3629457E1,3.010576E1,2.4049946E1,2.850888E0,6.38309E0,3.718439E0,9.911018E0,8.91521E0,2.119055E1,5.786684E0,1.8263262E1],"tree_param":{"num_deleted":"0","num_feature":"9","num_nodes":"17","size_leaf_vector":"1"}},{"base_weights":[2.402649E-3,-1.6632424E-1,2.8807008E-1,1.5639839E-1,-2.9862115E-1,4.1741207E-1,-4.244017E-1,-3.697408E-1,9.8291355E-1,-4.6315506E-1,2.5990078E-1,7.3587453E-1,6.2027317E-2,1.702509E-2,-8.91533E-1,-4.135844E-2,5.1155996E-2,1.117407E-2,5.5843383E-2,-6.976315E-3,-3.9701708E-2,2.8865164E-2,-2.624008E-2,4.840892E-2,-4.763823E-2,-6.0524847E-2,1.8820379E-2,-1.0241805E-2,-5.8994707E-2],"categories":[],"categories_nodes":[],"categories_segments":[],"categories_sizes":[],"default_left":[0,0,0,0,0,0,0,0,0,0,0,0,0,0,0,0,0,0,0,0,0,0,0,0,0,0,0,0,0],"id":26,"left_children":[1,3,5,7,9,11,13,15,17,19,21,23,25,-1,27,-1,-1,-1,-1,-1,-1,-1,-1,-1,-1,-1,-1,-1,-1],"loss_changes":[3.945249E0,2.244121E0,2.9777052E0,7.156171E0,3.5064654E0,2.9224358E0,2.1491628E0,7.390457E0,3.9629984E-1,2.975511E0,2.550853E0,6.3119555E0,5.8508663E0,0E0,4.4804454E-1,0E0,0E0,0E0,0E0,0E0,0E0,0E0,0E0,0E0,0E0,0E0,0E0,0E0,0E0],"parents":[2147483647,0,0,1,1,2,2,3,3,4,4,5,5,6,6,7,7,8,8,9,9,10,10,11,11,12,12,14,14],"right_children":[2,4,6,8,10,12,14,16,18,20,22,24,26,-1,28,-1,-1,-1,-1,-1,-1,-1,-1,-1,-1,-1,-1,-1,-1],"split_conditions":[2.1141062E1,4.2376216E-3,6.57151E1,1.8726788E1,5.727844E-3,6.6036787E-3,3E0,1.6E1,5.67875E1,5.957537E1,3E0,2.5754087E-3,6.886921E-3,1.702509E-2,2.1840532E1,-4.135844E-2,5.1155996E-2,1.117407E-2,5.5843383E-2,-6.976315E-3,-3.9701708E-2,2.8865164E-2,-2.624008E-2,4.840892E-2,-4.763823E-2,-6.0524847E-2,1.8820379E-2,-1.0241805E-2,-5.8994707E-2],"split_indices":[2,3,4,2,3,3,8,7,4,4,8,0,3,0,2,0,0,0,0,0,0,0,0,0,0,0,0,0,0],"split_type":[0,0,0,0,0,0,0,0,0,0,0,0,0,0,0,0,0,0,0,0,0,0,0,0,0,0,0,0,0],"sum_hessian":[7.985797E1,5.046754E1,2.9390429E1,1.4620467E1,3.5847073E1,2.5225187E1,4.1652412E0,9.271261E0,5.349206E0,2.7821838E1,8.025233E0,1.2739026E1,1.2486162E1,1.68205E0,2.483191E0,7.2849536E0,1.9863075E0,1.202149E0,4.1470566E0,1.4783733E1,1.3038105E1,5.9021773E0,2.1230557E0,1.15735235E1,1.1655023E0,1.9089279E0,1.0577234E1,1.2401855E0,1.2430056E0],"tree_param":{"num_deleted":"0","num_feature":"9","num_nodes":"29","size_leaf_vector":"1"}},{"base_weights":[-3.9165568E-2,1.6454576E-1,-3.0834454E-1,-4.6489805E-2,5.476732E-1,2.4811877E-2,-3.539465E-1,3.532051E-1,-5.1019025E-1,-3.5894997E-2,7.5290793E-1,-9.3669575E-1,-2.2639763E-1,-1.6487082E-2,3.4534734E-2,-3.1443756E-2,2.0760506E-2,5.8623165E-2,8.670387E-3,-6.329097E-2,-1.9380808E-2,-6.3316002E-3,-5.474195E-2],"categories":[],"categories_nodes":[],"categories_segments":[],"categories_sizes":[],"default_left":[0,0,0,0,0,0,0,0,0,0,0,0,0,0,0,0,0,0,0,0,0,0,0],"id":27,"left_children":[1,3,5,7,9,-1,11,13,15,-1,17,19,21,-1,-1,-1,-1,-1,-1,-1,-1,-1,-1],"loss_changes":[4.5157228E0,3.8256965E0,1.4753902E0,5.968181E0,4.8969398E0,0E0,2.323165E0,4.2297163E0,1.893878E0,0E0,3.424222E0,5.585995E-1,2.4001112E0,0E0,0E0,0E0,0E0,0E0,0E0,0E0,0E0,0E0,0E0],"parents":[2147483647,0,0,1,1,2,2,3,3,4,4,6,6,7,7,8,8,10,10,11,11,12,12],"right_children":[2,4,6,8,10,-1,12,14,16,-1,18,20,22,-1,-1,-1,-1,-1,-1,-1,-1,-1,-1],"split_conditions":[6.04291E1,6.46191E3,-1.5837151E-3,6.3908833E3,1.8412846E1,2.4811877E-2,-4.7888898E-4,6.284819E3,2.9542696E1,-3.5894997E-2,-6.168032E-5,8E0,6.734435E3,-1.6487082E-2,3.4534734E-2,-3.1443756E-2,2.0760506E-2,5.8623165E-2,8.670387E-3,-6.329097E-2,-1.9380808E-2,-6.3316002E-3,-5.474195E-2],"split_indices":[4,6,1,6,2,0,1,6,2,0,1,7,5,0,0,0,0,0,0,0,0,0,0],"split_type":[0,0,0,0,0,0,0,0,0,0,0,0,0,0,0,0,0,0,0,0,0,0,0],"sum_hessian":[8.042613E1,4.6001488E1,3.4424644E1,3.0229195E1,1.5772291E1,1.3164159E0,3.3108227E1,1.6363056E1,1.3866139E1,1.8522859E0,1.3920005E1,4.8061094E0,2.8302118E1,5.4193563E0,1.09437E1,1.2573933E1,1.2922072E0,7.4807477E0,6.439257E0,2.1887836E0,2.6173258E0,2.641357E1,1.8885478E0],"tree_param":{"num_deleted":"0","num_feature":"9","num_nodes":"23","size_leaf_vector":"1"}},{"base_weights":[-2.2485662E-2,-1.3594751E-1,3.3983064E-1,-6.9326855E-2,-7.7177435E-1,7.032588E-1,2.6171342E-2,-1.33376E-1,6.746733E-1,-7.615128E-2,-6.5574534E-2,5.531301E-2,4.8862282E-2,-5.77277E-1,4.6598288E-1,1.0430882E-2,-1.5054752E-2,-3.1139802E-3,4.661314E-2,-3.637303E-2,2.8236702E-2,-3.0157482E-2,3.892504E-2,-6.3356236E-2,9.918044E-3,4.4669624E-2,-1.2436846E-2],"categories":[],"categories_nodes":[],"categories_segments":[],"categories_sizes":[],"default_left":[0,0,0,0,0,0,0,0,0,0,0,0,0,0,0,0,0,0,0,0,0,0,0,0,0,0,0],"id":28,"left_children":[1,3,5,7,9,11,13,15,17,19,-1,21,-1,23,25,-1,-1,-1,-1,-1,-1,-1,-1,-1,-1,-1,-1],"loss_changes":[3.3856993E0,2.5971947E0,2.222506E0,2.841473E0,2.0912404E0,1.5557852E0,3.3451173E0,3.1601214E0,9.582038E-1,1.9182863E0,0E0,2.2576106E0,0E0,3.1048055E0,2.4392238E0,0E0,0E0,0E0,0E0,0E0,0E0,0E0,0E0,0E0,0E0,0E0,0E0],"parents":[2147483647,0,0,1,1,2,2,3,3,4,4,5,5,6,6,7,7,8,8,9,9,11,11,13,13,14,14],"right_children":[2,4,6,8,10,12,14,16,18,20,-1,22,-1,24,26,-1,-1,-1,-1,-1,-1,-1,-1,-1,-1,-1,-1],"split_conditions":[2.2422903E1,2.665089E-3,5.2261505E1,7.446606E1,6.527524E1,3.5742916E1,6.3943926E3,6.41858E3,1.8087334E1,3.0735375E-3,-6.5574534E-2,2.7205437E1,4.8862282E-2,2E0,3E0,1.0430882E-2,-1.5054752E-2,-3.1139802E-3,4.661314E-2,-3.637303E-2,2.8236702E-2,-3.0157482E-2,3.892504E-2,-6.3356236E-2,9.918044E-3,4.4669624E-2,-1.2436846E-2],"split_indices":[2,1,4,4,4,4,5,5,2,1,0,2,0,8,8,0,0,0,0,0,0,0,0,0,0,0,0],"split_type":[0,0,0,0,0,0,0,0,0,0,0,0,0,0,0,0,0,0,0,0,0,0,0,0,0,0,0],"sum_hessian":[8.023511E1,6.1576717E1,1.865839E1,5.6740585E1,4.83613E0,8.068054E0,1.0590336E1,5.2998783E1,3.7418041E0,2.611433E0,2.2246969E0,2.7549088E0,5.313145E0,4.332848E0,6.2574883E0,1.7358812E1,3.563997E1,1.1655201E0,2.5762842E0,1.2281848E0,1.3832481E0,1.5288632E0,1.2260456E0,1.9578729E0,2.3749752E0,3.7593617E0,2.4981263E0],"tree_param":{"num_deleted":"0","num_feature":"9","num_nodes":"27","size_leaf_vector":"1"}},{"base_weights":[-2.9082125E-2,4.979438E-1,-1.1624117E-1,6.282138E-2,5.73346E-2,-3.7306985E-1,3.676153E-2,4.8950943E-1,-5.7966536E-1,-7.315573E-1,1.2719354E-1,1.5802348E-1,-6.014818E-1,5.8672763E-4,4.5217734E-2,-4.595352E-2,4.1271537E-3,2.5881303E-3,-4.391926E-2,-2.8893707E-2,3.1120617E-2,2.0613795E-2,-1.471173E-2,-5.7241388E-2,-7.808966E-3],"categories":[],"categories_nodes":[],"categories_segments":[],"categories_sizes":[],"default_left":[0,0,0,0,0,0,0,0,0,0,0,0,0,0,0,0,0,0,0,0,0,0,0,0,0],"id":29,"left_children":[1,3,5,7,-1,9,11,13,15,17,19,21,23,-1,-1,-1,-1,-1,-1,-1,-1,-1,-1,-1,-1],"loss_changes":[3.704412E0,3.1614556E0,2.7223415E0,2.4533489E0,0E0,4.724151E0,3.5086496E0,1.0394498E0,8.8863575E-1,1.7926807E0,4.4210944E0,4.474324E0,1.5753765E0,0E0,0E0,0E0,0E0,0E0,0E0,0E0,0E0,0E0,0E0,0E0,0E0],"parents":[2147483647,0,0,1,1,2,2,3,3,5,5,6,6,7,7,8,8,9,9,10,10,11,11,12,12],"right_children":[2,4,6,8,-1,10,12,14,16,18,20,22,24,-1,-1,-1,-1,-1,-1,-1,-1,-1,-1,-1,-1],"split_conditions":[-1.5824616E-3,6.45413E3,2E0,6.401992E3,5.73346E-2,5.7003843E-3,6.721875E3,6.3336724E3,-2.9559773E-3,4E0,6.3943926E3,6.554931E1,6.729585E3,5.8672763E-4,4.5217734E-2,-4.595352E-2,4.1271537E-3,2.5881303E-3,-4.391926E-2,-2.8893707E-2,3.1120617E-2,2.0613795E-2,-1.471173E-2,-5.7241388E-2,-7.808966E-3],"split_indices":[0,6,8,6,0,3,5,5,0,7,5,4,5,0,0,0,0,0,0,0,0,0,0,0,0],"split_type":[0,0,0,0,0,0,0,0,0,0,0,0,0,0,0,0,0,0,0,0,0,0,0,0,0],"sum_hessian":[7.8384445E1,1.0454715E1,6.7929726E1,6.9141526E0,3.5405622E0,2.4823294E1,4.3106434E1,4.2979207E0,2.6162317E0,1.4191417E1,1.0631878E1,3.6856377E1,6.250056E0,2.4753551E0,1.8225656E0,1.4732517E0,1.14298E0,2.3423822E0,1.1849034E1,4.317678E0,6.3141994E0,2.3649439E1,1.3206941E1,2.1075644E0,4.1424913E0],"tree_param":{"num_deleted":"0","num_feature":"9","num_nodes":"25","size_leaf_vector":"1"}},{"base_weights":[-1.1358796E-2,1.1826907E-1,-4.4776955E-1,-3.0684168E-2,5.4811335E-1,3.196281E-2,-6.0875595E-1,8.721729E-2,-5.9841895E-1,9.0455496E-1,2.0194179E-1,-1.0886585E0,-1.760884E-1,1.0737878E-2,-3.637678E-2,-4.2537656E-2,9.955765E-3,-9.881564E-4,5.5145588E-2,-2.0463567E-2,4.0727343E-2,1.905231E-2,-7.804985E-2,1.4881241E-2,-4.0975496E-2],"categories":[],"categories_nodes":[],"categories_segments":[],"categories_sizes":[],"default_left":[0,0,0,0,0,0,0,0,0,0,0,0,0,0,0,0,0,0,0,0,0,0,0,0,0],"id":30,"left_children":[1,3,5,7,9,-1,11,13,15,17,19,21,23,-1,-1,-1,-1,-1,-1,-1,-1,-1,-1,-1,-1],"loss_changes":[4.451668E0,3.9057946E0,3.5418248E0,3.1349998E0,1.7526293E0,0E0,3.1728625E0,4.20978E0,1.7887919E0,1.38591E0,3.7947137E0,5.794119E0,3.2047985E0,0E0,0E0,0E0,0E0,0E0,0E0,0E0,0E0,0E0,0E0,0E0,0E0],"parents":[2147483647,0,0,1,1,2,2,3,3,4,4,6,6,7,7,8,8,9,9,10,10,11,11,12,12],"right_children":[2,4,6,8,10,-1,12,14,16,18,20,22,24,-1,-1,-1,-1,-1,-1,-1,-1,-1,-1,-1,-1],"split_conditions":[6.57151E1,1.2849637E-3,6.259825E3,7.929721E-4,2.0022248E-3,3.196281E-2,4.772607E-3,6.215293E1,1.6E1,5.0600197E1,3.0782658E-3,3.6752722E-3,8.152221E-4,1.0737878E-2,-3.637678E-2,-4.2537656E-2,9.955765E-3,-9.881564E-4,5.5145588E-2,-2.0463567E-2,4.0727343E-2,1.905231E-2,-7.804985E-2,1.4881241E-2,-4.0975496E-2],"split_indices":[4,0,5,0,0,0,3,4,7,4,0,3,0,0,0,0,0,0,0,0,0,0,0,0,0],"split_type":[0,0,0,0,0,0,0,0,0,0,0,0,0,0,0,0,0,0,0,0,0,0,0,0,0],"sum_hessian":[7.675557E1,5.9739914E1,1.7015657E1,4.5055515E1,1.46844E1,1.8116968E0,1.520396E1,3.800864E1,7.046876E0,6.4401555E0,8.244244E0,6.48966E0,8.7143E0,3.3500874E1,4.507766E0,5.30248E0,1.7443957E0,1.29694E0,5.1432157E0,4.2929573E0,3.9512863E0,1.625406E0,4.864254E0,5.328601E0,3.3856997E0],"tree_param":{"num_deleted":"0","num_feature":"9","num_nodes":"25","size_leaf_vector":"1"}},{"base_weights":[-1.39496215E-2,-3.3810613E-1,7.701743E-2,-6.3079655E-1,7.524823E-1,-1.7133024E-1,3.019277E-1,2.1361601E-1,-8.696382E-1,4.8009977E-2,6.7587807E-3,5.5432647E-2,-1.1674109E0,4.8533875E-1,-3.751724E-1,-1.883851E-2,3.0134892E-2,-5.70123E-4,-5.4780584E-2,5.510452E-2,-9.826182E-3,-7.363531E-2,-1.4152489E-2,-7.9598315E-3,3.4055762E-2,2.277167E-2,-4.519241E-2],"categories":[],"categories_nodes":[],"categories_segments":[],"categories_sizes":[],"default_left":[0,0,0,0,0,0,0,0,0,0,0,0,0,0,0,0,0,0,0,0,0,0,0,0,0,0,0],"id":31,"left_children":[1,3,5,7,9,11,13,15,17,-1,-1,19,21,23,25,-1,-1,-1,-1,-1,-1,-1,-1,-1,-1,-1,-1],"loss_changes":[2.314712E0,5.9628963E0,3.482477E0,3.029357E0,3.9515996E-1,6.802031E0,4.229809E0,1.1255887E0,2.1572762E0,0E0,0E0,6.8756304E0,1.0887737E0,3.3996515E0,3.7099164E0,0E0,0E0,0E0,0E0,0E0,0E0,0E0,0E0,0E0,0E0,0E0,0E0],"parents":[2147483647,0,0,1,1,2,2,3,3,4,4,5,5,6,6,7,7,8,8,11,11,12,12,13,13,14,14],"right_children":[2,4,6,8,10,12,14,16,18,-1,-1,20,22,24,26,-1,-1,-1,-1,-1,-1,-1,-1,-1,-1,-1,-1],"split_conditions":[1.8514862E1,1.6E1,6.447438E3,6.384225E3,6.4244575E3,6.401992E3,6.57151E1,2E0,1.5369072E1,4.8009977E-2,6.7587807E-3,4.8336994E1,5.526349E1,1E0,2.034782E1,-1.883851E-2,3.0134892E-2,-5.70123E-4,-5.4780584E-2,5.510452E-2,-9.826182E-3,-7.363531E-2,-1.4152489E-2,-7.9598315E-3,3.4055762E-2,2.277167E-2,-4.519241E-2],"split_indices":[2,7,6,5,5,6,4,8,2,0,0,4,4,8,2,0,0,0,0,0,0,0,0,0,0,0,0],"split_type":[0,0,0,0,0,0,0,0,0,0,0,0,0,0,0,0,0,0,0,0,0,0,0,0,0,0,0],"sum_hessian":[7.661482E1,1.6193455E1,6.0421364E1,1.3099446E1,3.0940094E0,2.8827757E1,3.1593607E1,2.911522E0,1.0187924E1,1.8994112E0,1.1945981E0,2.4251196E1,4.5765605E0,2.508253E1,6.511079E0,1.1691366E0,1.7423851E0,2.342331E0,7.8455935E0,4.0505548E0,2.0200642E1,2.9075513E0,1.6690091E0,5.887277E0,1.9195251E1,2.5862868E0,3.924792E0],"tree_param":{"num_deleted":"0","num_feature":"9","num_nodes":"27","size_leaf_vector":"1"}},{"base_weights":[1.2722314E-2,4.4095716E-1,-5.6090336E-2,1.9723337E-2,5.4998618E-2,-7.566181E-1,-7.4031847E-3,-5.624928E-1,5.551874E-1,-1.481967E-3,-5.3534836E-2,-1.17840536E-1,3.3931464E-1,-5.8937307E-2,3.8868103E-3,3.9926115E-2,-2.7862256E-3,1.5057939E-2,-1.2114638E-2,2.4080893E-2,-3.5204735E-2],"categories":[],"categories_nodes":[],"categories_segments":[],"categories_sizes":[],"default_left":[0,0,0,0,0,0,0,0,0,0,0,0,0,0,0,0,0,0,0,0,0],"id":32,"left_children":[1,3,5,7,-1,9,11,13,15,-1,-1,17,19,-1,-1,-1,-1,-1,-1,-1,-1],"loss_changes":[2.3887055E0,3.0926845E0,2.381962E0,2.7634645E0,0E0,1.0046923E0,2.5849147E0,1.7737794E0,7.2816014E-1,0E0,0E0,2.7401974E0,2.761373E0,0E0,0E0,0E0,0E0,0E0,0E0,0E0,0E0],"parents":[2147483647,0,0,1,1,2,2,3,3,5,5,6,6,7,7,8,8,11,11,12,12],"right_children":[2,4,6,8,-1,10,12,14,16,-1,-1,18,20,-1,-1,-1,-1,-1,-1,-1,-1],"split_conditions":[-1.5824616E-3,6.45413E3,-1.2788685E-3,-3.233315E-3,5.4998618E-2,-1.4720124E-3,2.223904E1,4.6852925E-3,2.171621E1,-1.481967E-3,-5.3534836E-2,4.2056963E-3,9.874225E-3,-5.8937307E-2,3.8868103E-3,3.9926115E-2,-2.7862256E-3,1.5057939E-2,-1.2114638E-2,2.4080893E-2,-3.5204735E-2],"split_indices":[0,6,0,0,0,0,2,3,2,0,0,3,3,0,0,0,0,0,0,0,0],"split_type":[0,0,0,0,0,0,0,0,0,0,0,0,0,0,0,0,0,0,0,0,0],"sum_hessian":[7.922173E1,1.0218968E1,6.900276E1,6.8624864E0,3.3564823E0,3.539194E0,6.546357E1,3.2635329E0,3.5989535E0,1.3979086E0,2.1412857E0,5.014985E1,1.5313719E1,1.234312E0,2.0292208E0,2.3541594E0,1.2447941E0,1.11593275E1,3.8990524E1,1.3949645E1,1.3640738E0],"tree_param":{"num_deleted":"0","num_feature":"9","num_nodes":"21","size_leaf_vector":"1"}},{"base_weights":[-4.1274253E-2,-3.9601955E-1,6.926181E-2,-6.466901E-1,5.82323E-1,2.2447294E-1,-1.5245527E-1,5.022745E-3,-7.744022E-1,5.0169796E-2,-1.4310981E-2,5.2970342E-2,6.462345E-1,2.887287E-1,-4.2671302E-1,-1.5740968E-2,-5.023557E-2,1.1859479E-2,-2.3602448E-2,4.6002712E-2,5.85987E-3,-4.052787E-2,3.5873037E-2,-4.1319665E-2,-6.045822E-4],"categories":[],"categories_nodes":[],"categories_segments":[],"categories_sizes":[],"default_left":[0,0,0,0,0,0,0,0,0,0,0,0,0,0,0,0,0,0,0,0,0,0,0,0,0],"id":33,"left_children":[1,3,5,7,9,11,13,-1,15,-1,-1,17,19,21,23,-1,-1,-1,-1,-1,-1,-1,-1,-1,-1],"loss_changes":[3.0470402E0,4.899645E0,2.083987E0,1.5239115E0,1.8553588E0,2.5293388E0,3.1629958E0,0E0,1.0658178E0,0E0,0E0,2.654213E0,1.3633976E0,5.4014983E0,2.6241758E0,0E0,0E0,0E0,0E0,0E0,0E0,0E0,0E0,0E0,0E0],"parents":[2147483647,0,0,1,1,2,2,3,3,4,4,5,5,6,6,8,8,11,11,12,12,13,13,14,14],"right_children":[2,4,6,8,10,12,14,-1,16,-1,-1,18,20,22,24,-1,-1,-1,-1,-1,-1,-1,-1,-1,-1],"split_conditions":[1.8546528E1,1.6E1,6.04291E1,1.5373898E1,4.830826E-3,5.5579155E1,8E0,5.022745E-3,2E0,5.0169796E-2,-1.4310981E-2,5.2321697E1,2.1272429E1,-3.8584712E-5,2.0742588E1,-1.5740968E-2,-5.023557E-2,1.1859479E-2,-2.3602448E-2,4.6002712E-2,5.85987E-3,-4.052787E-2,3.5873037E-2,-4.1319665E-2,-6.045822E-4],"split_indices":[2,7,4,2,3,4,7,0,8,0,0,4,2,0,2,0,0,0,0,0,0,0,0,0,0],"split_type":[0,0,0,0,0,0,0,0,0,0,0,0,0,0,0,0,0,0,0,0,0,0,0,0,0],"sum_hessian":[7.6007034E1,1.7443285E1,5.856375E1,1.4155391E1,3.2878942E0,3.4441116E1,2.4122637E1,2.0975676E0,1.2057823E1,2.1097941E0,1.1781003E0,2.5284977E1,9.156138E0,9.226955E0,1.4895681E1,4.8154736E0,7.2423496E0,1.9123228E1,6.1617484E0,5.5463443E0,3.6097944E0,2.3390207E0,6.8879347E0,7.0788217E0,7.8168597E0],"tree_param":{"num_deleted":"0","num_feature":"9","num_nodes":"25","size_leaf_vector":"1"}},{"base_weights":[2.8485358E-2,-1.3048996E-1,2.973215E-1,7.7341944E-3,-1.0412632E0,4.0283355E-1,-3.9379213E-2,-3.6433238E-1,2.1679762E-1,-6.26711E-2,-3.159099E-3,-2.2754839E-1,5.008424E-1,1.2211401E-2,-2.5037086E-2,3.2799534E-2,-8.248974E-4,1.0704492E-2,-3.8974673E-2,3.962649E-2,6.342016E-3],"categories":[],"categories_nodes":[],"categories_segments":[],"categories_sizes":[],"default_left":[0,0,0,0,0,0,0,0,0,0,0,0,0,0,0,0,0,0,0,0,0],"id":34,"left_children":[1,3,5,7,9,11,-1,13,15,-1,-1,17,19,-1,-1,-1,-1,-1,-1,-1,-1],"loss_changes":[3.215001E0,5.9747744E0,3.513457E0,3.3571281E0,1.2182846E0,1.7270145E0,0E0,1.4118464E0,2.8396978E0,0E0,0E0,1.1908225E0,2.3985128E0,0E0,0E0,0E0,0E0,0E0,0E0,0E0,0E0],"parents":[2147483647,0,0,1,1,2,2,3,3,4,4,5,5,7,7,8,8,11,11,12,12],"right_children":[2,4,6,8,10,12,-1,14,16,-1,-1,18,20,-1,-1,-1,-1,-1,-1,-1,-1],"split_conditions":[6.462305E3,6.450886E3,6.7796826E3,2E0,6.489955E3,1.8253988E1,-3.9379213E-2,-1.4720124E-3,3E0,-6.26711E-2,-3.159099E-3,6.6672E3,2.0995853E1,1.2211401E-2,-2.5037086E-2,3.2799534E-2,-8.248974E-4,1.0704492E-2,-3.8974673E-2,3.962649E-2,6.342016E-3],"split_indices":[6,6,5,8,5,2,0,0,8,0,0,5,2,0,0,0,0,0,0,0,0],"split_type":[0,0,0,0,0,0,0,0,0,0,0,0,0,0,0,0,0,0,0,0,0],"sum_hessian":[7.331748E1,4.639599E1,2.6921495E1,4.1143345E1,5.2526417E0,2.5108292E1,1.8132042E0,1.4534269E1,2.6609077E1,4.085032E0,1.1676095E0,3.20061E0,2.190768E1,2.5166008E0,1.2017669E1,8.602502E0,1.8006575E1,2.1180067E0,1.0826033E0,1.1679606E1,1.0228074E1],"tree_param":{"num_deleted":"0","num_feature":"9","num_nodes":"21","size_leaf_vector":"1"}},{"base_weights":[-2.1269066E-2,7.070842E-1,-6.815487E-2,5.044899E-2,3.686744E-3,-1.0814351E0,2.2245578E-2,-6.1807777E-3,-6.363263E-2,6.346796E-2,-3.7081737E-2,-7.4866945E-3,9.270287E-3],"categories":[],"categories_nodes":[],"categories_segments":[],"categories_sizes":[],"default_left":[0,0,0,0,0,0,0,0,0,0,0,0,0],"id":35,"left_children":[1,3,5,-1,-1,7,9,-1,-1,11,-1,-1,-1],"loss_changes":[2.696651E0,8.392544E-1,6.782071E0,0E0,0E0,9.5314217E-1,2.2107894E0,0E0,0E0,1.7466164E0,0E0,0E0,0E0],"parents":[2147483647,0,0,1,1,2,2,5,5,6,6,9,9],"right_children":[2,4,6,-1,-1,8,10,-1,-1,12,-1,-1,-1],"split_conditions":[6.2818823E3,4.8480197E-3,6.284819E3,5.044899E-2,3.686744E-3,-7.3257246E-4,6.778715E3,-6.1807777E-3,-6.363263E-2,4.7111954E-3,-3.7081737E-2,-7.4866945E-3,9.270287E-3],"split_indices":[5,3,6,0,0,0,5,0,0,3,0,0,0],"split_type":[0,0,0,0,0,0,0,0,0,0,0,0,0],"sum_hessian":[7.655502E1,3.778377E0,7.277664E1,2.157084E0,1.6212931E0,5.0630646E0,6.771358E1,1.1165692E0,3.9464955E0,6.5116516E1,2.5970628E0,2.3609167E1,4.150735E1],"tree_param":{"num_deleted":"0","num_feature":"9","num_nodes":"13","size_leaf_vector":"1"}},{"base_weights":[7.4743265E-3,1.75624E-1,-2.1036197E-1,-2.4572201E-1,3.0559292E-1,-6.0256395E-2,-5.751285E-1,5.1096153E-1,-8.6152744E-1,6.31775E-2,7.445351E-1,-2.9063097E-1,6.909563E-1,-4.6751447E-2,-1.880765E-1,-1.803797E-5,3.8208183E-2,-9.249274E-3,-4.8816495E-2,9.636186E-3,-3.4125496E-2,-8.7470105E-3,4.302514E-2,1.8890455E-2,-2.3323484E-2,5.1875956E-2,5.601629E-3,1.3948018E-2,-1.9771773E-2],"categories":[],"categories_nodes":[],"categories_segments":[],"categories_sizes":[],"default_left":[0,0,0,0,0,0,0,0,0,0,0,0,0,0,0,0,0,0,0,0,0,0,0,0,0,0,0,0,0],"id":36,"left_children":[1,3,5,7,9,11,13,15,17,19,21,23,25,-1,27,-1,-1,-1,-1,-1,-1,-1,-1,-1,-1,-1,-1,-1,-1],"loss_changes":[2.824232E0,2.4566941E0,1.8053212E0,5.4758615E0,3.5370834E0,4.5142817E0,1.1725788E0,7.0930564E-1,3.1106043E-1,2.3332753E0,1.4184923E0,2.5009966E0,1.1168165E0,0E0,6.832314E-1,0E0,0E0,0E0,0E0,0E0,0E0,0E0,0E0,0E0,0E0,0E0,0E0,0E0,0E0],"parents":[2147483647,0,0,1,1,2,2,3,3,4,4,5,5,6,6,7,7,8,8,9,9,10,10,11,11,12,12,14,14],"right_children":[2,4,6,8,10,12,14,16,18,20,22,24,26,-1,28,-1,-1,-1,-1,-1,-1,-1,-1,-1,-1,-1,-1,-1,-1],"split_conditions":[6.04291E1,1.904451E1,6.6381E3,6.4273477E3,6.462305E3,6.452929E3,1.9746113E1,6.3380825E3,-1.4607571E-3,6.451252E3,3.933535E1,1.7757511E1,2.018662E1,-4.6751447E-2,2.4591738E-4,-1.803797E-5,3.8208183E-2,-9.249274E-3,-4.8816495E-2,9.636186E-3,-3.4125496E-2,-8.7470105E-3,4.302514E-2,1.8890455E-2,-2.3323484E-2,5.1875956E-2,5.601629E-3,1.3948018E-2,-1.9771773E-2],"split_indices":[4,2,5,5,6,6,2,5,0,6,4,2,2,0,0,0,0,0,0,0,0,0,0,0,0,0,0,0,0],"split_type":[0,0,0,0,0,0,0,0,0,0,0,0,0,0,0,0,0,0,0,0,0,0,0,0,0,0,0,0,0],"sum_hessian":[7.509489E1,4.2490158E1,3.2604733E1,9.806823E0,3.268334E1,2.3924656E1,8.680076E0,4.476494E0,5.3303285E0,2.1792103E1,1.0891234E1,1.8778856E1,5.145798E0,3.7641807E0,4.9158955E0,1.8132826E0,2.663211E0,1.1521186E0,4.1782103E0,1.9198372E1,2.5937314E0,1.1628436E0,9.728391E0,3.671867E0,1.510699E1,2.723356E0,2.4224424E0,1.4053372E0,3.5105581E0],"tree_param":{"num_deleted":"0","num_feature":"9","num_nodes":"29","size_leaf_vector":"1"}},{"base_weights":[-1.896593E-2,4.4313025E-2,-4.8866782E-2,-5.927369E-1,2.2564236E-2,-1.4355904E-1,-6.774551E-2,-3.103619E-1,1.2092801E-1,1.8976603E-2,-4.2362694E-2,3.2987203E-2,-3.5038892E-2,3.602186E-2,2.1856718E-3],"categories":[],"categories_nodes":[],"categories_segments":[],"categories_sizes":[],"default_left":[0,0,0,0,0,0,0,0,0,0,0,0,0,0,0],"id":37,"left_children":[1,-1,3,5,7,9,-1,11,13,-1,-1,-1,-1,-1,-1],"loss_changes":[2.1218061E0,0E0,2.938061E0,2.8100922E0,2.2482316E0,2.7659192E0,0E0,6.3997498E0,2.4140587E0,0E0,0E0,0E0,0E0,0E0,0E0],"parents":[2147483647,0,0,2,2,3,3,4,4,5,5,7,7,8,8],"right_children":[2,-1,4,6,8,10,-1,12,14,-1,-1,-1,-1,-1,-1],"split_conditions":[6.259825E3,4.4313025E-2,6.2928076E3,6.273693E3,1.8546528E1,5.957537E1,-6.774551E-2,6.391525E3,4.2376216E-3,1.8976603E-2,-4.2362694E-2,3.2987203E-2,-3.5038892E-2,3.602186E-2,2.1856718E-3],"split_indices":[5,0,5,6,2,4,0,5,3,0,0,0,0,0,0],"split_type":[0,0,0,0,0,0,0,0,0,0,0,0,0,0,0],"sum_hessian":[7.579072E1,1.507653E0,7.4283066E1,7.77637E0,6.650669E1,5.640539E0,2.1358306E0,1.4676558E1,5.1830135E1,3.4996986E0,2.1408405E0,4.0136323E0,1.0662926E1,4.9633536E0,4.6866783E1],"tree_param":{"num_deleted":"0","num_feature":"9","num_nodes":"15","size_leaf_vector":"1"}},{"base_weights":[2.3549356E-2,2.0277016E-1,-2.645521E-1,2.5990218E-1,-3.8716093E-2,-4.6131185E-1,1.8668877E-1,4.966352E-1,9.838894E-2,-5.351392E-1,2.2564E-2,-3.6026475E-1,5.2205086E-2,1.2562763E-3,3.7024457E-2,-3.1526163E-2,1.3827333E-2,-5.7931356E-3,-3.6011044E-2,9.793641E-3,-3.8764503E-2],"categories":[],"categories_nodes":[],"categories_segments":[],"categories_sizes":[],"default_left":[0,0,0,0,0,0,0,0,0,0,0,0,0,0,0,0,0,0,0,0,0],"id":38,"left_children":[1,3,5,7,-1,9,11,13,15,17,-1,19,-1,-1,-1,-1,-1,-1,-1,-1,-1],"loss_changes":[3.977321E0,2.8480399E0,2.7121198E0,1.6925085E0,0E0,1.6485467E0,4.9216485E0,2.0767283E0,3.8520117E0,1.4513769E0,0E0,1.689322E0,0E0,0E0,0E0,0E0,0E0,0E0,0E0,0E0,0E0],"parents":[2147483647,0,0,1,1,2,2,3,3,5,5,6,6,7,7,8,8,9,9,11,11],"right_children":[2,4,6,8,-1,10,12,14,16,18,-1,20,-1,-1,-1,-1,-1,-1,-1,-1,-1],"split_conditions":[6.215293E1,6.7796826E3,6.9259964E1,6.418955E3,-3.8716093E-2,4.0190304E-3,5.5951676E-3,6.29399E3,1.8514862E1,4.4303117E-3,2.2564E-2,7.15427E1,5.2205086E-2,1.2562763E-3,3.7024457E-2,-3.1526163E-2,1.3827333E-2,-5.7931356E-3,-3.6011044E-2,9.793641E-3,-3.8764503E-2],"split_indices":[4,5,4,5,0,0,3,5,2,3,0,4,0,0,0,0,0,0,0,0,0],"split_type":[0,0,0,0,0,0,0,0,0,0,0,0,0,0,0,0,0,0,0,0,0],"sum_hessian":[7.4990524E1,4.641382E1,2.8576706E1,4.454331E1,1.8705084E0,1.9884096E1,8.69261E0,1.7223543E1,2.7319765E1,1.8778545E1,1.1055512E0,5.6611323E0,3.0314775E0,6.2471843E0,1.0976359E1,4.8671675E0,2.2452597E1,6.2487926E0,1.2529752E1,2.6449382E0,3.016194E0],"tree_param":{"num_deleted":"0","num_feature":"9","num_nodes":"21","size_leaf_vector":"1"}},{"base_weights":[-3.2505244E-3,-1.3673925E-1,2.2645997E-1,1.3529505E-1,-6.571834E-1,-6.7447674E-1,4.8765287E-1,5.3573567E-2,-3.5920016E-2,-5.523121E-2,-3.63821E-1,-8.963383E-1,1.1950539E-2,6.1522324E-2,1.0828039E-1,-1.3647558E-2,1.5991526E-2,-5.6049984E-2,1.4607323E-3,-1.8255431E-3,-5.5820134E-2,1.9208552E-2,-1.5114141E-2],"categories":[],"categories_nodes":[],"categories_segments":[],"categories_sizes":[],"default_left":[0,0,0,0,0,0,0,0,0,0,0,0,0,0,0,0,0,0,0,0,0,0,0],"id":39,"left_children":[1,3,5,7,9,11,13,-1,15,-1,17,19,-1,-1,21,-1,-1,-1,-1,-1,-1,-1,-1],"loss_changes":[2.2623E0,6.6930685E0,6.711038E0,5.0816827E0,1.7223439E0,1.5346603E0,5.955248E0,0E0,2.4118063E0,0E0,3.3853753E0,9.909625E-1,0E0,0E0,1.8602841E0,0E0,0E0,0E0,0E0,0E0,0E0,0E0,0E0],"parents":[2147483647,0,0,1,1,2,2,3,3,4,4,5,5,6,6,8,8,10,10,11,11,14,14],"right_children":[2,4,6,8,10,12,14,-1,16,-1,18,20,-1,-1,22,-1,-1,-1,-1,-1,-1,-1,-1],"split_conditions":[6.462305E3,6.401992E3,1.8412846E1,4.8336994E1,1.9692242E1,5.8952286E-3,5.2642433E1,5.3573567E-2,6.364555E3,-5.523121E-2,6.42939E3,4.688056E-3,1.1950539E-2,6.1522324E-2,6.67104E3,-1.3647558E-2,1.5991526E-2,-5.6049984E-2,1.4607323E-3,-1.8255431E-3,-5.5820134E-2,1.9208552E-2,-1.5114141E-2],"split_indices":[6,6,2,4,2,3,4,0,5,0,5,3,0,0,6,0,0,0,0,0,0,0,0],"split_type":[0,0,0,0,0,0,0,0,0,0,0,0,0,0,0,0,0,0,0,0,0,0,0],"sum_hessian":[7.176779E1,4.5646534E1,2.6121258E1,3.0463442E1,1.5183092E1,5.5152225E0,2.0606035E1,3.897036E0,2.6566404E1,4.917483E0,1.026561E1,4.4525833E0,1.0626394E0,6.207895E0,1.439814E1,1.6083176E1,1.0483229E1,2.8749306E0,7.390679E0,1.1449574E0,3.307626E0,8.649873E0,5.7482667E0],"tree_param":{"num_deleted":"0","num_feature":"9","num_nodes":"23","size_leaf_vector":"1"}},{"base_weights":[-1.03113325E-2,-1.244499E-1,1.8233484E-1,6.955907E-2,-7.147855E-1,-7.8146994E-1,3.5417044E-1,2.2888519E-1,-2.8930897E-1,-5.590427E-2,-3.644084E-1,-5.161577E-2,-1.0571732E-2,7.9734594E-1,8.681185E-2,3.0549166E-3,5.4810274E-2,-5.6839652E-2,9.477443E-3,2.5043542E-2,-3.621626E-2,5.0584495E-2,-6.1901407E-3,4.6314057E-2,-5.315592E-3],"categories":[],"categories_nodes":[],"categories_segments":[],"categories_sizes":[],"default_left":[0,0,0,0,0,0,0,0,0,0,0,0,0,0,0,0,0,0,0,0,0,0,0,0,0],"id":40,"left_children":[1,3,5,7,9,11,13,15,17,-1,19,-1,-1,21,23,-1,-1,-1,-1,-1,-1,-1,-1,-1,-1],"loss_changes":[1.6926739E0,5.5799766E0,5.023679E0,2.19629E0,1.2928233E0,4.4646597E-1,2.894531E0,3.7687716E0,5.0431466E0,0E0,2.8299804E0,0E0,0E0,1.9594536E0,2.8097181E0,0E0,0E0,0E0,0E0,0E0,0E0,0E0,0E0,0E0,0E0],"parents":[2147483647,0,0,1,1,2,2,3,3,4,4,5,5,6,6,7,7,8,8,10,10,13,13,14,14],"right_children":[2,4,6,8,10,12,14,16,18,-1,20,-1,-1,22,24,-1,-1,-1,-1,-1,-1,-1,-1,-1,-1],"split_conditions":[6.46191E3,6.438535E3,1.8033895E1,6.4688157E-3,1.9255941E1,7.364584E-5,6.6732524E3,2.2121536E1,6.9101155E-3,-5.590427E-2,4.4390624E-3,-5.161577E-2,-1.0571732E-2,7.857611E-3,-1.6599762E-3,3.0549166E-3,5.4810274E-2,-5.6839652E-2,9.477443E-3,2.5043542E-2,-3.621626E-2,5.0584495E-2,-6.1901407E-3,4.6314057E-2,-5.315592E-3],"split_indices":[6,5,2,3,2,0,5,2,3,0,3,0,0,3,0,0,0,0,0,0,0,0,0,0,0],"split_type":[0,0,0,0,0,0,0,0,0,0,0,0,0,0,0,0,0,0,0,0,0,0,0,0,0],"sum_hessian":[7.494849E1,4.7286366E1,2.766212E1,3.6253967E1,1.1032398E1,3.6487813E0,2.401334E1,2.535801E1,1.0895957E1,4.1102376E0,6.922161E0,1.9706324E0,1.6781487E0,8.289801E0,1.5723539E1,2.2144505E1,3.213505E0,3.4377856E0,7.4581714E0,1.9184259E0,5.003735E0,6.645219E0,1.6445812E0,2.2307248E0,1.3492815E1],"tree_param":{"num_deleted":"0","num_feature":"9","num_nodes":"25","size_leaf_vector":"1"}},{"base_weights":[-3.555577E-2,4.6294846E-2,-7.195641E-2,3.49297E-1,-1.2759307E-1,-2.1977624E-1,7.314152E-1,-3.338489E-2,-4.1806856E-1,-3.560824E-2,1.3479975E-2,3.468103E-3,5.0795257E-2,-7.8817895E-3,4.4172283E-2,-5.4232564E-2,-4.1688266E-3],"categories":[],"categories_nodes":[],"categories_segments":[],"categories_sizes":[],"default_left":[0,0,0,0,0,0,0,0,0,0,0,0,0,0,0,0,0],"id":41,"left_children":[1,-1,3,5,7,9,11,13,15,-1,-1,-1,-1,-1,-1,-1,-1],"loss_changes":[2.6022432E0,0E0,1.7024254E0,2.0134609E0,1.715968E0,1.2020371E0,9.331212E-1,5.7008705E0,3.3441336E0,0E0,0E0,0E0,0E0,0E0,0E0,0E0,0E0],"parents":[2147483647,0,0,2,2,3,3,4,4,5,5,6,6,7,7,8,8],"right_children":[2,-1,4,6,8,10,12,14,16,-1,-1,-1,-1,-1,-1,-1,-1],"split_conditions":[6.259825E3,4.6294846E-2,-2.3981773E-3,6.428765E3,6.6381E3,-4.28959E-3,1.9200426E1,6.50282E3,1.9024855E1,-3.560824E-2,1.3479975E-2,3.468103E-3,5.0795257E-2,-7.8817895E-3,4.4172283E-2,-5.4232564E-2,-4.1688266E-3],"split_indices":[5,0,0,5,5,0,2,5,2,0,0,0,0,0,0,0,0],"split_type":[0,0,0,0,0,0,0,0,0,0,0,0,0,0,0,0,0],"sum_hessian":[7.145144E1,1.7150639E0,6.9736374E1,7.5200524E0,6.2216324E1,3.1916718E0,4.3283806E0,4.782157E1,1.43947525E1,1.3640115E0,1.8276603E0,1.6747599E0,2.6536207E0,4.2843403E1,4.9781685E0,4.0626707E0,1.0332082E1],"tree_param":{"num_deleted":"0","num_feature":"9","num_nodes":"17","size_leaf_vector":"1"}},{"base_weights":[2.2612678E-2,8.3771065E-2,-2.817896E-1,8.0693257E-1,2.142848E-2,4.100838E-2,-4.706356E-1,5.2301016E-2,4.7453013E-3,-2.871484E-1,1.6221327E-1,-5.7366528E-2,-1.37883E-1,1.01494165E-2,-3.157782E-2,1.2842684E-2,-1.7843591E-2,-4.067234E-2,4.0607364E-3],"categories":[],"categories_nodes":[],"categories_segments":[],"categories_sizes":[],"default_left":[0,0,0,0,0,0,0,0,0,0,0,0,0,0,0,0,0,0,0],"id":42,"left_children":[1,3,5,7,9,-1,11,-1,-1,13,15,-1,17,-1,-1,-1,-1,-1,-1],"loss_changes":[1.4483052E0,2.8904097E0,3.09802E0,7.674861E-1,2.670708E0,0E0,2.4900587E0,0E0,0E0,3.3837333E0,2.1607952E0,0E0,1.4012638E0,0E0,0E0,0E0,0E0,0E0,0E0],"parents":[2147483647,0,0,1,1,2,2,3,3,4,4,6,6,9,9,10,10,12,12],"right_children":[2,4,6,8,10,-1,12,-1,-1,14,16,-1,18,-1,-1,-1,-1,-1,-1],"split_conditions":[2E1,6.2830874E3,1.8677391E1,4.8480197E-3,1.8940615E1,4.100838E-2,4.8574167E-3,5.2301016E-2,4.7453013E-3,6.425225E3,6.671394E1,-5.7366528E-2,4.5406208E1,1.01494165E-2,-3.157782E-2,1.2842684E-2,-1.7843591E-2,-4.067234E-2,4.0607364E-3],"split_indices":[7,5,2,3,2,0,3,0,0,5,4,0,4,0,0,0,0,0,0],"split_type":[0,0,0,0,0,0,0,0,0,0,0,0,0,0,0,0,0,0,0],"sum_hessian":[7.552782E1,6.3495537E1,1.2032279E1,4.0914946E0,5.940404E1,1.2712445E0,1.0761035E1,2.7118285E0,1.3796661E0,1.8285543E1,4.11185E1,2.7402954E0,8.02074E0,7.715712E0,1.0569831E1,3.520504E1,5.9134583E0,1.299907E0,6.7208323E0],"tree_param":{"num_deleted":"0","num_feature":"9","num_nodes":"19","size_leaf_vector":"1"}},{"base_weights":[-2.6064616E-2,-1.9810137E-1,2.6206487E-1,-2.3479855E-2,-6.6023827E-1,-2.2464915E-1,4.0758815E-1,8.4193146E-1,-1.983431E-1,-5.6204896E-2,-2.3768319E-1,6.5646505E-1,-8.131739E-1,5.982641E-1,-1.4403947E-1,5.3171344E-2,3.2941645E-4,-4.218401E-3,-6.612029E-2,3.4060992E-2,-2.6730154E-2,2.4979797E-3,4.6302732E-2,-1.027847E-2,-4.9238015E-2,4.2042885E-2,1.1716197E-2,2.7728913E-2,-3.7000116E-2],"categories":[],"categories_nodes":[],"categories_segments":[],"categories_sizes":[],"default_left":[0,0,0,0,0,0,0,0,0,0,0,0,0,0,0,0,0,0,0,0,0,0,0,0,0,0,0,0,0],"id":43,"left_children":[1,3,5,7,9,11,13,15,17,-1,19,21,23,25,27,-1,-1,-1,-1,-1,-1,-1,-1,-1,-1,-1,-1,-1,-1],"loss_changes":[3.7703197E0,3.8208897E0,2.1084275E0,5.545117E0,2.2809281E0,4.266873E0,2.4292629E0,1.133596E0,3.7798996E0,0E0,2.566303E0,5.1557267E-1,2.9411292E-1,1.2816725E0,3.1283786E0,0E0,0E0,0E0,0E0,0E0,0E0,0E0,0E0,0E0,0E0,0E0,0E0,0E0,0E0],"parents":[2147483647,0,0,1,1,2,2,3,3,4,4,5,5,6,6,7,7,8,8,10,10,11,11,12,12,13,13,14,14],"right_children":[2,4,6,8,10,12,14,16,18,-1,20,22,24,26,28,-1,-1,-1,-1,-1,-1,-1,-1,-1,-1,-1,-1,-1,-1],"split_conditions":[6.462305E3,6.438535E3,1.9024855E1,4.8336994E1,1.9692242E1,6.6672E3,6.57151E1,4E0,8.203304E-3,-5.6204896E-2,2.018662E1,1.6888966E1,5.2642433E1,6.698748E3,2.0992708E1,5.3171344E-2,3.2941645E-4,-4.218401E-3,-6.612029E-2,3.4060992E-2,-2.6730154E-2,2.4979797E-3,4.6302732E-2,-1.027847E-2,-4.9238015E-2,4.2042885E-2,1.1716197E-2,2.7728913E-2,-3.7000116E-2],"split_indices":[6,5,2,4,2,5,4,8,3,0,2,2,4,6,2,0,0,0,0,0,0,0,0,0,0,0,0,0,0],"split_type":[0,0,0,0,0,0,0,0,0,0,0,0,0,0,0,0,0,0,0,0,0,0,0,0,0,0,0,0,0],"sum_hessian":[7.4014915E1,4.6539505E1,2.7475414E1,3.4539375E1,1.2000128E1,6.1989174E0,2.1276497E1,5.164597E0,2.9374779E1,4.929038E0,7.0710897E0,2.43616E0,3.7627573E0,1.5748364E1,5.528133E0,3.866368E0,1.2982289E0,2.7646591E1,1.7281882E0,1.4107705E0,5.660319E0,1.1143911E0,1.321769E0,1.3126357E0,2.4501214E0,8.663236E0,7.085129E0,2.5768552E0,2.9512777E0],"tree_param":{"num_deleted":"0","num_feature":"9","num_nodes":"29","size_leaf_vector":"1"}},{"base_weights":[-4.6386525E-2,1.5784955E-1,-1.3368309E-1,-3.412526E-1,4.5571315E-1,-3.878671E-1,9.764096E-2,2.1316287E-1,-9.50344E-1,6.005334E-1,-1.3889513E-2,-4.652618E-1,3.4529652E-2,6.689413E-1,-2.0025313E-1,3.818364E-2,-2.4213638E-2,-3.14687E-3,-6.1320137E-2,1.237298E-2,3.9209023E-2,-4.252652E-2,-1.1700595E-2,4.272972E-2,-1.0444622E-3,-3.802723E-2,6.026956E-3],"categories":[],"categories_nodes":[],"categories_segments":[],"categories_sizes":[],"default_left":[0,0,0,0,0,0,0,0,0,0,0,0,0,0,0,0,0,0,0,0,0,0,0,0,0,0,0],"id":44,"left_children":[1,3,5,7,9,11,13,15,17,19,-1,21,-1,23,25,-1,-1,-1,-1,-1,-1,-1,-1,-1,-1,-1,-1],"loss_changes":[1.3423048E0,3.52249E0,3.122198E0,3.2541108E0,1.7189646E0,2.4241726E0,4.943711E0,2.4997106E0,1.0225458E0,6.176748E-1,0E0,1.9485135E0,0E0,1.287827E0,3.5687373E0,0E0,0E0,0E0,0E0,0E0,0E0,0E0,0E0,0E0,0E0,0E0,0E0],"parents":[2147483647,0,0,1,1,2,2,3,3,4,4,5,5,6,6,7,7,8,8,9,9,11,11,13,13,14,14],"right_children":[2,4,6,8,10,12,14,16,18,20,-1,22,-1,24,26,-1,-1,-1,-1,-1,-1,-1,-1,-1,-1,-1,-1],"split_conditions":[6.371447E3,6.284819E3,6.46191E3,6.2830874E3,2.4283482E-3,2.9542696E1,6.6381E3,4.8480197E-3,8E0,-1.1284134E-4,-1.3889513E-2,2E0,3.4529652E-2,4E0,1.9024855E1,3.818364E-2,-2.4213638E-2,-3.14687E-3,-6.1320137E-2,1.237298E-2,3.9209023E-2,-4.252652E-2,-1.1700595E-2,4.272972E-2,-1.0444622E-3,-3.802723E-2,6.026956E-3],"split_indices":[6,6,6,5,0,2,5,3,7,0,0,8,0,8,2,0,0,0,0,0,0,0,0,0,0,0,0],"split_type":[0,0,0,0,0,0,0,0,0,0,0,0,0,0,0,0,0,0,0,0,0,0,0,0,0,0,0],"sum_hessian":[7.3103714E1,2.1648176E1,5.1455536E1,8.0365E0,1.3611677E1,2.4193954E1,2.7261581E1,4.547366E0,3.4891338E0,1.151874E1,2.0929377E0,2.3104471E1,1.0894842E0,8.916321E0,1.834526E1,2.488296E0,2.0590699E0,1.1192443E0,2.3698893E0,4.7445316E0,6.7742076E0,7.661775E0,1.5442696E1,6.8373485E0,2.0789726E0,6.18019E0,1.2165071E1],"tree_param":{"num_deleted":"0","num_feature":"9","num_nodes":"27","size_leaf_vector":"1"}},{"base_weights":[7.925087E-3,4.6260107E-1,-6.2050026E-2,-3.6324825E-2,9.1337144E-1,-1.0333422E0,5.701277E-2,2.2442041E-1,-3.1097203E-2,6.2034624E-3,5.3749252E-2,-3.8663584E-3,-5.9753668E-2,3.7481987E-1,-4.319178E-2,3.2180287E-2,-1.2336537E-2,-1.1741821E-2,2.8193444E-2,3.3758262E-3,-2.5207957E-2],"categories":[],"categories_nodes":[],"categories_segments":[],"categories_sizes":[],"default_left":[0,0,0,0,0,0,0,0,0,0,0,0,0,0,0,0,0,0,0,0,0],"id":45,"left_children":[1,3,5,7,9,11,13,15,-1,-1,-1,-1,-1,17,19,-1,-1,-1,-1,-1,-1],"loss_changes":[2.4330885E0,2.326626E0,7.7347136E0,1.0255282E0,5.548992E-1,1.0363083E0,1.9292846E0,1.0967991E0,0E0,0E0,0E0,0E0,0E0,1.804081E0,2.410632E0,0E0,0E0,0E0,0E0,0E0,0E0],"parents":[2147483647,0,0,1,1,2,2,3,3,4,4,5,5,6,6,7,7,13,13,14,14],"right_children":[2,4,6,8,10,12,14,16,-1,-1,-1,-1,-1,18,20,-1,-1,-1,-1,-1,-1],"split_conditions":[-1.5824616E-3,6.42939E3,-9.394376E-4,2E1,1.9092173E1,6.3380825E3,5.2321697E1,2.0492496E1,-3.1097203E-2,6.2034624E-3,5.3749252E-2,-3.8663584E-3,-5.9753668E-2,1.9134714E1,6.67104E3,3.2180287E-2,-1.2336537E-2,-1.1741821E-2,2.8193444E-2,3.3758262E-3,-2.5207957E-2],"split_indices":[0,5,0,7,2,5,4,2,0,0,0,0,0,2,6,0,0,0,0,0,0],"split_type":[0,0,0,0,0,0,0,0,0,0,0,0,0,0,0,0,0,0,0,0,0],"sum_hessian":[7.457153E1,9.19759E0,6.537395E1,4.8020053E0,4.3955846E0,6.3000817E0,5.9073864E1,3.7493842E0,1.0526212E0,1.0474839E0,3.3481007E0,1.1254593E0,5.174622E0,1.350406E1,4.55698E1,1.7904154E0,1.9589688E0,3.139007E0,1.0365053E1,3.743319E1,8.136615E0],"tree_param":{"num_deleted":"0","num_feature":"9","num_nodes":"21","size_leaf_vector":"1"}},{"base_weights":[-8.058741E-2,3.3764043E-1,-1.3832104E-1,-1.6175197E-1,7.1375364E-1,-4.0873006E-1,-1.435852E-2,2.5670892E-1,-3.965415E-2,4.524496E-3,4.3124184E-2,-1.1566513E-1,-6.953827E-1,8.005358E-2,-4.8628047E-1,3.518089E-2,-1.0688375E-2,3.115817E-2,-1.9146306E-2,-5.184215E-2,-2.2989833E-3,2.0072578E-2,-7.177496E-3,-3.9601024E-2,6.9517926E-3],"categories":[],"categories_nodes":[],"categories_segments":[],"categories_sizes":[],"default_left":[0,0,0,0,0,0,0,0,0,0,0,0,0,0,0,0,0,0,0,0,0,0,0,0,0],"id":46,"left_children":[1,3,5,7,9,11,13,15,-1,-1,-1,17,19,21,23,-1,-1,-1,-1,-1,-1,-1,-1,-1,-1],"loss_changes":[1.8480928E0,1.8697807E0,2.2153585E0,1.4790097E0,4.3294072E-1,1.6663008E0,2.1094992E0,9.197069E-1,0E0,0E0,0E0,2.505619E0,2.2389011E0,2.9023247E0,1.6182945E0,0E0,0E0,0E0,0E0,0E0,0E0,0E0,0E0,0E0,0E0],"parents":[2147483647,0,0,1,1,2,2,3,3,4,4,5,5,6,6,7,7,11,11,12,12,13,13,14,14],"right_children":[2,4,6,8,10,12,14,16,-1,-1,-1,18,20,22,24,-1,-1,-1,-1,-1,-1,-1,-1,-1,-1],"split_conditions":[-2.3981773E-3,6.42939E3,-2.0877311E-4,6.4133423E3,4.6852925E-3,4.9998662E-3,6.7117876E3,4.8059772E1,-3.965415E-2,4.524496E-3,4.3124184E-2,-1.4956509E-3,6.44933E3,7.6834136E-4,1.1298584E-3,3.518089E-2,-1.0688375E-2,3.115817E-2,-1.9146306E-2,-5.184215E-2,-2.2989833E-3,2.0072578E-2,-7.177496E-3,-3.9601024E-2,6.9517926E-3],"split_indices":[0,5,0,5,3,3,5,4,0,0,0,0,5,0,0,0,0,0,0,0,0,0,0,0,0],"split_type":[0,0,0,0,0,0,0,0,0,0,0,0,0,0,0,0,0,0,0,0,0,0,0,0,0],"sum_hessian":[7.360466E1,8.340081E0,6.526458E1,3.8277035E0,4.5123773E0,1.9792488E1,4.547209E1,2.6587842E0,1.1689193E0,1.1792141E0,3.3331633E0,1.0480769E1,9.311718E0,3.8583496E1,6.8885975E0,1.1094073E0,1.5493767E0,2.4303982E0,8.050371E0,5.711805E0,3.5999131E0,1.5503731E1,2.3079763E1,4.4474735E0,2.441124E0],"tree_param":{"num_deleted":"0","num_feature":"9","num_nodes":"25","size_leaf_vector":"1"}},{"base_weights":[-1.0224673E-2,3.7071055E-1,-7.8877166E-2,-4.9087593E-1,6.1867785E-1,-5.54789E-2,-2.5147613E-2,3.9132475E-3,-4.0577043E-2,7.6858336E-1,7.5432144E-2,5.3516563E-2,-4.8725823E-1,4.4824388E-2,1.2013224E-2,-1.1087398E-2,1.7658552E-2,-1.1873859E-2,1.1600934E-2,-3.259298E-2,1.6750922E-2],"categories":[],"categories_nodes":[],"categories_segments":[],"categories_sizes":[],"default_left":[0,0,0,0,0,0,0,0,0,0,0,0,0,0,0,0,0,0,0,0,0],"id":47,"left_children":[1,3,5,7,9,-1,11,-1,-1,13,15,17,19,-1,-1,-1,-1,-1,-1,-1,-1],"loss_changes":[2.0489187E0,2.8606503E0,3.6415017E0,6.5342087E-1,7.348757E-1,0E0,2.3525758E0,0E0,0E0,2.9286957E-1,3.4362525E-1,2.942675E0,1.491842E0,0E0,0E0,0E0,0E0,0E0,0E0,0E0,0E0],"parents":[2147483647,0,0,1,1,2,2,3,3,4,4,6,6,9,9,10,10,11,11,12,12],"right_children":[2,4,6,8,10,-1,12,-1,-1,14,16,18,20,-1,-1,-1,-1,-1,-1,-1,-1],"split_conditions":[-1.4720124E-3,3.782845E1,-1.2788685E-3,3E0,4E0,-5.54789E-2,6.7117876E3,3.9132475E-3,-4.0577043E-2,2.1700499E1,1.2E1,2E0,1.4518767E-3,4.4824388E-2,1.2013224E-2,-1.1087398E-2,1.7658552E-2,-1.1873859E-2,1.1600934E-2,-3.259298E-2,1.6750922E-2],"split_indices":[0,4,0,8,8,0,5,0,0,2,7,8,0,0,0,0,0,0,0,0,0],"split_type":[0,0,0,0,0,0,0,0,0,0,0,0,0,0,0,0,0,0,0,0,0],"sum_hessian":[7.622798E1,1.0968233E1,6.525975E1,2.2322977E0,8.735936E0,2.2597384E0,6.300001E1,1.0768863E0,1.1554115E0,6.521552E0,2.2143836E0,5.4591244E1,8.408769E0,4.6893954E0,1.8321568E0,1.1671407E0,1.047243E0,2.0629951E1,3.3961292E1,7.178953E0,1.2298149E0],"tree_param":{"num_deleted":"0","num_feature":"9","num_nodes":"21","size_leaf_vector":"1"}},{"base_weights":[5.2291058E-2,8.235378E-2,-3.6749095E-2,1.5685337E-2,6.0955185E-1,6.4089425E-2,-7.3703706E-1,2.3805703E-1,5.319634E-2,1.4224768E-3,4.6820424E-2,-5.4705366E-3,-4.649455E-2,5.1727176E-2,-1.8384514E-2],"categories":[],"categories_nodes":[],"categories_segments":[],"categories_sizes":[],"default_left":[0,0,0,0,0,0,0,0,0,0,0,0,0,0,0],"id":48,"left_children":[1,3,-1,5,7,9,11,13,-1,-1,-1,-1,-1,-1,-1],"loss_changes":[1.8300345E0,2.5531926E0,0E0,2.4430182E0,1.1239586E0,1.922734E0,3.888278E-1,3.1677089E0,0E0,0E0,0E0,0E0,0E0,0E0,0E0],"parents":[2147483647,0,0,1,1,3,3,4,4,5,5,6,6,7,7],"right_children":[2,4,-1,6,8,10,12,14,-1,-1,-1,-1,-1,-1,-1],"split_conditions":[6.7796826E3,6.706779E3,-3.6749095E-2,6.7102173E3,5.4684863E-3,6.692665E3,-3.463344E-4,6.71881E3,5.319634E-2,1.4224768E-3,4.6820424E-2,-5.4705366E-3,-4.649455E-2,5.1727176E-2,-1.8384514E-2],"split_indices":[5,6,0,5,3,5,0,5,0,0,0,0,0,0,0],"split_type":[0,0,0,0,0,0,0,0,0,0,0,0,0,0,0],"sum_hessian":[7.376504E1,7.1914314E1,1.8507183E0,6.475525E1,7.15907E0,6.1702312E1,3.052933E0,4.777187E0,2.3818831E0,6.0272408E1,1.4299048E0,1.0859919E0,1.9669411E0,1.7578893E0,3.0192974E0],"tree_param":{"num_deleted":"0","num_feature":"9","num_nodes":"15","size_leaf_vector":"1"}},{"base_weights":[1.9722309E-2,-2.2997454E-2,6.280138E-1,4.6656936E-2,-5.9336746E-1,4.5427136E-2,-2.6045037E-3,-1.9947469E-1,1.9756255E-1,-8.824399E-1,5.283628E-2,1.9047683E-2,-2.3991618E-2,1.7487219E-2,-1.7595248E-2,-8.5706515E-3,-6.402436E-2,3.926457E-2,-3.4807976E-2],"categories":[],"categories_nodes":[],"categories_segments":[],"categories_sizes":[],"default_left":[0,0,0,0,0,0,0,0,0,0,0,0,0,0,0,0,0,0,0],"id":49,"left_children":[1,3,5,7,9,-1,-1,11,13,15,17,-1,-1,-1,-1,-1,-1,-1,-1],"loss_changes":[1.991188E0,2.88984E0,1.0064303E0,2.4584732E0,1.5248322E0,0E0,0E0,4.291955E0,3.5411909E0,1.3439212E0,2.4060977E0,0E0,0E0,0E0,0E0,0E0,0E0,0E0,0E0],"parents":[2147483647,0,0,1,1,2,2,3,3,4,4,7,7,8,8,9,9,10,10],"right_children":[2,4,6,8,10,-1,-1,12,14,16,18,-1,-1,-1,-1,-1,-1,-1,-1],"split_conditions":[8.005096E-3,2.665089E-3,5.2261505E1,1.9329998E1,4.0109754E-3,4.5427136E-2,-2.6045037E-3,6.391525E3,6.4688157E-3,2.1068396E1,6.758488E1,1.9047683E-2,-2.3991618E-2,1.7487219E-2,-1.7595248E-2,-8.5706515E-3,-6.402436E-2,3.926457E-2,-3.4807976E-2],"split_indices":[3,1,4,2,1,0,0,5,3,2,4,0,0,0,0,0,0,0,0],"split_type":[0,0,0,0,0,0,0,0,0,0,0,0,0,0,0,0,0,0,0],"sum_hessian":[7.506942E1,7.104237E1,4.027048E0,6.412904E1,6.91333E0,2.6132486E0,1.4137995E0,2.4251787E1,3.9877254E1,4.523994E0,2.389336E0,7.7819324E0,1.6469856E1,3.151286E1,8.364393E0,2.1371193E0,2.3868747E0,1.1835067E0,1.2058295E0],"tree_param":{"num_deleted":"0","num_feature":"9","num_nodes":"19","size_leaf_vector":"1"}},{"base_weights":[-6.5051116E-2,9.941947E-2,-2.9310805E-1,2.4217202E-1,-1.7889498E-1,-7.9364336E-1,-1.158568E-1,4.2387422E-2,6.279997E-1,-3.6005282E-1,5.140154E-1,1.6428761E-1,-1.1718494E0,6.222751E-1,-2.483473E-1,3.0658433E-2,-4.8101093E-3,-2.3264638E-3,4.1645367E-2,-5.0036628E-2,-8.512926E-3,-7.884727E-4,3.9437797E-2,-1.4901736E-3,1.4024409E-2,-6.8186186E-2,-1.7273474E-2,-8.338115E-3,4.9407315E-2,-5.0266232E-2,-5.8391197E-3],"categories":[],"categories_nodes":[],"categories_segments":[],"categories_sizes":[],"default_left":[0,0,0,0,0,0,0,0,0,0,0,0,0,0,0,0,0,0,0,0,0,0,0,0,0,0,0,0,0,0,0],"id":50,"left_children":[1,3,5,7,9,11,13,15,17,19,21,23,25,27,29,-1,-1,-1,-1,-1,-1,-1,-1,-1,-1,-1,-1,-1,-1,-1,-1],"loss_changes":[2.7429726E0,1.7430978E0,2.6201587E0,2.1859045E0,2.0779681E0,3.0268817E0,2.4767694E0,1.6397649E0,1.3822033E0,1.3547362E0,5.273067E-1,7.808396E-2,4.3771982E-1,1.2903329E0,1.9587744E0,0E0,0E0,0E0,0E0,0E0,0E0,0E0,0E0,0E0,0E0,0E0,0E0,0E0,0E0,0E0,0E0],"parents":[2147483647,0,0,1,1,2,2,3,3,4,4,5,5,6,6,7,7,8,8,9,9,10,10,11,11,12,12,13,13,14,14],"right_children":[2,4,6,8,10,12,14,16,18,20,22,24,26,28,30,-1,-1,-1,-1,-1,-1,-1,-1,-1,-1,-1,-1,-1,-1,-1,-1],"split_conditions":[6.04291E1,3E0,6.3579873E3,2E0,5.765187E1,4.688056E-3,6.370798E3,4.70064E1,1.8514862E1,4E0,1.918783E1,1.8727772E1,5.517121E-3,1.6286024E1,1.7229494E1,3.0658433E-2,-4.8101093E-3,-2.3264638E-3,4.1645367E-2,-5.0036628E-2,-8.512926E-3,-7.884727E-4,3.9437797E-2,-1.4901736E-3,1.4024409E-2,-6.8186186E-2,-1.7273474E-2,-8.338115E-3,4.9407315E-2,-5.0266232E-2,-5.8391197E-3],"split_indices":[4,8,5,8,4,3,6,4,2,7,2,2,3,2,2,0,0,0,0,0,0,0,0,0,0,0,0,0,0,0,0],"split_type":[0,0,0,0,0,0,0,0,0,0,0,0,0,0,0,0,0,0,0,0,0,0,0,0,0,0,0,0,0,0,0],"sum_hessian":[7.135216E1,4.1783035E1,2.9569122E1,2.7703346E1,1.407969E1,6.8233447E0,2.2745777E1,1.8983437E1,8.719911E0,1.1542373E1,2.5373175E0,2.0915134E0,4.731831E0,2.8988628E0,1.9846914E1,3.0397756E0,1.5943662E1,2.2118185E0,6.508092E0,1.6613861E0,9.880986E0,1.1883714E0,1.3489462E0,1.0616856E0,1.0298278E0,3.31248E0,1.4193512E0,1.0907522E0,1.8081106E0,1.9553349E0,1.7891579E1],"tree_param":{"num_deleted":"0","num_feature":"9","num_nodes":"31","size_leaf_vector":"1"}},{"base_weights":[-6.3892834E-2,2.5569834E-2,-3.3427456E-1,-2.1840902E-2,4.8446756E-2,2.131107E-2,-4.225003E-1,4.761838E-2,-6.227404E-2,-5.898819E-2,-2.2129083E-1,-1.2986461E-5,-3.2134105E-2,3.2431956E-2,-2.0280082E-2],"categories":[],"categories_nodes":[],"categories_segments":[],"categories_sizes":[],"default_left":[0,0,0,0,0,0,0,0,0,0,0,0,0,0,0],"id":51,"left_children":[1,3,5,7,-1,-1,9,-1,11,-1,13,-1,-1,-1,-1],"loss_changes":[1.8075006E0,2.5620184E0,1.4254124E0,2.228505E0,0E0,0E0,2.3495297E0,0E0,1.9367731E0,0E0,2.6308818E0,0E0,0E0,0E0,0E0],"parents":[2147483647,0,0,1,1,2,2,3,3,6,6,8,8,10,10],"right_children":[2,4,6,8,-1,-1,10,-1,12,-1,14,-1,-1,-1,-1],"split_conditions":[6.554931E1,6.458432E1,6.259825E3,6.2818823E3,4.8446756E-2,2.131107E-2,6.3579873E3,4.761838E-2,6.329468E1,-5.898819E-2,6.391525E3,-1.2986461E-5,-3.2134105E-2,3.2431956E-2,-2.0280082E-2],"split_indices":[4,4,5,5,0,0,5,0,4,0,5,0,0,0,0],"split_type":[0,0,0,0,0,0,0,0,0,0,0,0,0,0,0],"sum_hessian":[7.33705E1,5.580983E1,1.7560669E1,5.4069313E1,1.7405152E0,1.4272139E0,1.6133455E1,1.2558695E0,5.2813442E1,2.3658986E0,1.3767556E1,4.861913E1,4.1943145E0,1.9665158E0,1.1801041E1],"tree_param":{"num_deleted":"0","num_feature":"9","num_nodes":"15","size_leaf_vector":"1"}},{"base_weights":[6.1415005E-3,1.6804333E-1,-2.1652773E-1,4.585981E-1,-8.041731E-3,5.785007E-2,-4.8162875E-1,-5.030123E-2,6.763442E-1,-6.976452E-1,2.3721068E-1,-4.7809955E-2,2.2159518E-1,-7.3736954E-1,1.008343E-1,1.722198E-2,-3.786796E-2,4.631326E-2,1.0869265E-2,-4.8865907E-2,1.7845942E-2,-2.220956E-2,2.7579129E-2,2.470701E-2,-9.6469335E-3,-6.0023308E-2,9.858928E-3,2.90701E-2,-2.962997E-2],"categories":[],"categories_nodes":[],"categories_segments":[],"categories_sizes":[],"default_left":[0,0,0,0,0,0,0,0,0,0,0,0,0,0,0,0,0,0,0,0,0,0,0,0,0,0,0,0,0],"id":52,"left_children":[1,3,5,7,9,11,13,15,17,19,21,-1,23,25,27,-1,-1,-1,-1,-1,-1,-1,-1,-1,-1,-1,-1,-1,-1],"loss_changes":[2.6184862E0,2.1542492E0,2.2529392E0,1.7935479E0,4.758199E0,2.856154E0,2.407867E0,1.8486804E0,1.082139E0,2.5247667E0,4.695863E0,0E0,1.7361116E0,4.9999995E0,2.2304585E0,0E0,0E0,0E0,0E0,0E0,0E0,0E0,0E0,0E0,0E0,0E0,0E0,0E0,0E0],"parents":[2147483647,0,0,1,1,2,2,3,3,4,4,5,5,6,6,7,7,8,8,9,9,10,10,12,12,13,13,14,14],"right_children":[2,4,6,8,10,12,14,16,18,20,22,-1,24,26,28,-1,-1,-1,-1,-1,-1,-1,-1,-1,-1,-1,-1,-1,-1],"split_conditions":[6.04291E1,6.3908833E3,4.9998662E-3,6.284819E3,6.447438E3,1E0,6.90435E1,6.269204E3,6.1640516E-3,2.9542696E1,1.9359968E1,-4.7809955E-2,2.0231024E1,1.4518767E-3,6.9389684E-4,1.722198E-2,-3.786796E-2,4.631326E-2,1.0869265E-2,-4.8865907E-2,1.7845942E-2,-2.220956E-2,2.7579129E-2,2.470701E-2,-9.6469335E-3,-6.0023308E-2,9.858928E-3,2.90701E-2,-2.962997E-2],"split_indices":[4,6,3,6,6,8,4,6,3,2,2,0,2,0,0,0,0,0,0,0,0,0,0,0,0,0,0,0,0],"split_type":[0,0,0,0,0,0,0,0,0,0,0,0,0,0,0,0,0,0,0,0,0,0,0,0,0,0,0,0,0],"sum_hessian":[7.062442E1,4.1034058E1,2.9590363E1,1.4878652E1,2.6155407E1,1.4924934E1,1.4665427E1,4.6889625E0,1.0189689E1,6.377757E0,1.977765E1,1.4021388E0,1.3522796E1,1.0006114E1,4.6593137E0,3.3381653E0,1.3507972E0,5.9380193E0,4.25167E0,5.098794E0,1.2789631E0,6.113555E0,1.3664095E1,8.042818E0,5.4799776E0,6.500419E0,3.5056944E0,2.8474896E0,1.8118242E0],"tree_param":{"num_deleted":"0","num_feature":"9","num_nodes":"29","size_leaf_vector":"1"}},{"base_weights":[1.1243577E-3,4.2125818E-1,-5.5460446E-2,-2.5407302E-1,6.8107086E-1,-6.5666E-1,1.9067436E-2,-4.1096978E-2,2.3748718E-2,8.455335E-1,-6.435969E-3,-1.7836909E-1,-8.5656554E-1,1.0251827E-1,-3.3972713E-1,1.1523184E-2,4.644716E-2,1.726624E-2,-3.0830955E-2,-5.2780062E-2,-1.2323782E-2,1.619721E-2,-8.009665E-3,-2.9392332E-2,2.351985E-2],"categories":[],"categories_nodes":[],"categories_segments":[],"categories_sizes":[],"default_left":[0,0,0,0,0,0,0,0,0,0,0,0,0,0,0,0,0,0,0,0,0,0,0,0,0],"id":53,"left_children":[1,3,5,7,9,11,13,-1,-1,15,-1,17,19,21,23,-1,-1,-1,-1,-1,-1,-1,-1,-1,-1],"loss_changes":[1.7878691E0,1.7392442E0,2.9829984E0,1.7186464E0,1.0035381E0,5.490351E-1,1.8300134E0,0E0,0E0,7.916117E-2,0E0,9.9937135E-1,3.3647728E-1,2.926166E0,2.5972333E0,0E0,0E0,0E0,0E0,0E0,0E0,0E0,0E0,0E0,0E0],"parents":[2147483647,0,0,1,1,2,2,3,3,4,4,5,5,6,6,9,9,11,11,12,12,13,13,14,14],"right_children":[2,4,6,8,10,12,14,-1,-1,16,-1,18,20,22,24,-1,-1,-1,-1,-1,-1,-1,-1,-1,-1],"split_conditions":[-2.3981773E-3,4.665508E-3,-1.089838E-3,-3.233315E-3,2E1,-1.5824616E-3,6.690369E3,-4.1096978E-2,2.3748718E-2,-6.5348647E-3,-6.435969E-3,4.792694E-3,-1.2347584E-3,8.3625776E-4,2.1267927E1,1.1523184E-2,4.644716E-2,1.726624E-2,-3.0830955E-2,-5.2780062E-2,-1.2323782E-2,1.619721E-2,-8.009665E-3,-2.9392332E-2,2.351985E-2],"split_indices":[0,3,0,0,7,0,6,0,0,0,0,3,0,0,2,0,0,0,0,0,0,0,0,0,0],"split_type":[0,0,0,0,0,0,0,0,0,0,0,0,0,0,0,0,0,0,0,0,0,0,0,0,0],"sum_hessian":[7.322251E1,7.9262857E0,6.529623E1,2.2083116E0,5.717974E0,6.340215E0,5.8956013E1,1.169755E0,1.0385565E0,4.7160406E0,1.0019336E0,2.4266105E0,3.9136047E0,4.8410618E1,1.0545394E1,1.0125381E0,3.7035027E0,1.2021359E0,1.2244744E0,2.4002943E0,1.5133106E0,2.614298E1,2.226764E1,8.2829275E0,2.2624664E0],"tree_param":{"num_deleted":"0","num_feature":"9","num_nodes":"25","size_leaf_vector":"1"}},{"base_weights":[4.86569E-2,-6.5601796E-2,2.5152826E-1,2.2906925E-1,-3.4473658E-1,6.2174284E-1,3.904816E-3,-3.024806E-1,4.6894357E-1,3.5783295E-2,-4.366391E-1,8.561476E-1,-1.6887687E-1,4.489567E-1,-4.147262E-1,-2.5556192E-3,-4.7334004E-2,-7.584994E-3,3.713147E-2,-3.8385943E-2,-4.5015538E-4,4.9100425E-2,2.3289004E-3,-1.6446287E-2,3.956727E-3,3.590655E-2,-3.6781249E-3,-4.0060695E-2,2.5674473E-3],"categories":[],"categories_nodes":[],"categories_segments":[],"categories_sizes":[],"default_left":[0,0,0,0,0,0,0,0,0,0,0,0,0,0,0,0,0,0,0,0,0,0,0,0,0,0,0,0,0],"id":54,"left_children":[1,3,5,7,9,11,13,15,17,-1,19,21,23,25,27,-1,-1,-1,-1,-1,-1,-1,-1,-1,-1,-1,-1,-1,-1],"loss_changes":[1.7105595E0,3.98971E0,2.430416E0,3.1675158E0,2.730851E0,2.114563E0,3.3363986E0,1.2449043E0,2.9566648E0,0E0,3.3142295E0,8.064704E-1,1.5567403E-1,1.2730467E0,1.704217E0,0E0,0E0,0E0,0E0,0E0,0E0,0E0,0E0,0E0,0E0,0E0,0E0,0E0,0E0],"parents":[2147483647,0,0,1,1,2,2,3,3,4,4,5,5,6,6,7,7,8,8,10,10,11,11,12,12,13,13,14,14],"right_children":[2,4,6,8,10,12,14,16,18,-1,20,22,24,26,28,-1,-1,-1,-1,-1,-1,-1,-1,-1,-1,-1,-1,-1,-1],"split_conditions":[6.462305E3,6.374342E3,5.0085736E-3,-4.902077E-4,6.3423325E3,6.721875E3,6.6381E3,-6.2486215E-4,6.284819E3,3.5783295E-2,6.447438E3,2.2238363E-3,4.694226E-3,8.681823E-4,6.7246523E3,-2.5556192E-3,-4.7334004E-2,-7.584994E-3,3.713147E-2,-3.8385943E-2,-4.5015538E-4,4.9100425E-2,2.3289004E-3,-1.6446287E-2,3.956727E-3,3.590655E-2,-3.6781249E-3,-4.0060695E-2,2.5674473E-3],"split_indices":[6,6,3,0,5,5,5,0,6,0,6,0,3,0,5,0,0,0,0,0,0,0,0,0,0,0,0,0,0],"split_type":[0,0,0,0,0,0,0,0,0,0,0,0,0,0,0,0,0,0,0,0,0,0,0,0,0,0,0,0,0],"sum_hessian":[7.208335E1,4.654531E1,2.553804E1,2.2729782E1,2.381553E1,9.629867E0,1.5908174E1,6.9866676E0,1.57431135E1,1.3580984E0,2.2457432E1,7.363761E0,2.2661064E0,7.675652E0,8.232522E0,5.80204E0,1.1846279E0,4.954163E0,1.078895E1,1.2209478E1,1.0247953E1,6.188635E0,1.175126E0,1.179007E0,1.0870993E0,4.818865E0,2.8567872E0,4.1074214E0,4.1251006E0],"tree_param":{"num_deleted":"0","num_feature":"9","num_nodes":"29","size_leaf_vector":"1"}},{"base_weights":[7.3024556E-3,-3.9626035E-1,4.8799932E-2,3.034589E-1,-8.0146164E-1,-1.4028533E-1,1.7754537E-1,4.1624777E-2,-1.5890999E-2,1.10982135E-2,-5.8885265E-2,3.110013E-2,-2.2063537E-1,4.025017E-1,-1.22670285E-1,-3.3175442E-2,-1.2022978E-4,2.5497435E-2,-3.0493189E-2,5.481673E-3,-2.2905542E-2],"categories":[],"categories_nodes":[],"categories_segments":[],