{"learner":{"attributes":{"scikit_learn":"{\"_estimator_type\": \"classifier\"}"},"feature_names":[],"feature_types":[],"gradient_booster":{"model":{"cats":{"enc":[],"feature_segments":[],"sorted_idx":[]},"gbtree_model_param":{"num_parallel_tree":"1","num_trees":"200"},"iteration_indptr":[0,1,2,3,4,5,6,7,8,9,10,11,12,13,14,15,16,17,18,19,20,21,22,23,24,25,26,27,28,29,30,31,32,33,34,35,36,37,38,39,40,41,42,43,44,45,46,47,48,49,50,51,52,53,54,55,56,57,58,59,60,61,62,63,64,65,66,67,68,69,70,71,72,73,74,75,76,77,78,79,80,81,82,83,84,85,86,87,88,89,90,91,92,93,94,95,96,97,98,99,100,101,102,103,104,105,106,107,108,109,110,111,112,113,114,115,116,117,118,119,120,121,122,123,124,125,126,127,128,129,130,131,132,133,134,135,136,137,138,139,140,141,142,143,144,145,146,147,148,149,150,151,152,153,154,155,156,157,158,159,160,161,162,163,164,165,166,167,168,169,170,171,172,173,174,175,176,177,178,179,180,181,182,183,184,185,186,187,188,189,190,191,192,193,194,195,196,197,198,199,200],"tree_info":[0,0,0,0,0,0,0,0,0,0,0,0,0,0,0,0,0,0,0,0,0,0,0,0,0,0,0,0,0,0,0,0,0,0,0,0,0,0,0,0,0,0,0,0,0,0,0,0,0,0,0,0,0,0,0,0,0,0,0,0,0,0,0,0,0,0,0,0,0,0,0,0,0,0,0,0,0,0,0,0,0,0,0,0,0,0,0,0,0,0,0,0,0,0,0,0,0,0,0,0,0,0,0,0,0,0,0,0,0,0,0,0,0,0,0,0,0,0,0,0,0,0,0,0,0,0,0,0,0,0,0,0,0,0,0,0,0,0,0,0,0,0,0,0,0,0,0,0,0,0,0,0,0,0,0,0,0,0,0,0,0,0,0,0,0,0,0,0,0,0,0,0,0,0,0,0,0,0,0,0,0,0,0,0,0,0,0,0,0,0,0,0,0,0,0,0,0,0,0,0],"trees":[{"base_weights":[2.3638258E-4,-1.5037665E-1,2.9444888E-1,-2.1395405E-1,4.88387E-1,-1.3789534E-2,5.081615E-1,-1.4972007E-1,-7.7331984E-1,7.8093064E-1,-6.174379E-1,-1.5373702E-1,8.2134E-1,6.1016786E-1,-6.284679E-1,-9.775311E-3,5.3876836E-2,-5.0820754E-4,-6.121072E-2,4.9866073E-2,-3.5976257E-2,3.7549444E-2,-7.92102E-2,2.6464978E-2,-1.5020917E-2,-9.445893E-3,6.957169E-2,-1.8258005E-2,3.6267307E-2,-7.323457E-2,2.9769573E-2],"categories":[],"categories_nodes":[],"categories_segments":[],"categories_sizes":[],"default_left":[0,0,0,0,0,0,0,0,0,0,0,0,0,0,0,0,0,0,0,0,0,0,0,0,0,0,0,0,0,0,0],"id":0,"left_children":[1,3,5,7,9,11,13,15,17,19,21,23,25,27,29,-1,-1,-1,-1,-1,-1,-1,-1,-1,-1,-1,-1,-1,-1,-1,-1],"loss_changes":[1.5246105E1,9.346186E0,7.6810455E0,7.345582E0,7.2448077E0,5.81482E0,8.362995E0,1.0747221E1,7.2653933E0,6.2283783E0,7.714162E0,4.41994E0,4.377018E0,7.4164524E0,7.1767526E0,0E0,0E0,0E0,0E0,0E0,0E0,0E0,0E0,0E0,0E0,0E0,0E0,0E0,0E0,0E0,0E0],"parents":[2147483647,0,0,1,1,2,2,3,3,4,4,5,5,6,6,7,7,8,8,9,9,10,10,11,11,12,12,13,13,14,14],"right_children":[2,4,6,8,10,12,14,16,18,20,22,24,26,28,30,-1,-1,-1,-1,-1,-1,-1,-1,-1,-1,-1,-1,-1,-1,-1,-1],"split_conditions":[1.6E1,6.723682E3,4.465286E-3,9.6477335E-3,1.3E1,1.0859842E1,7.322096E1,1.3577639E1,6.37699E3,6.656867E1,-5.401318E-5,4.356904E1,6.362717E3,1E0,7.796585E1,-9.775311E-3,5.3876836E-2,-5.0820754E-4,-6.121072E-2,4.9866073E-2,-3.5976257E-2,3.7549444E-2,-7.92102E-2,2.6464978E-2,-1.5020917E-2,-9.445893E-3,6.957169E-2,-1.8258005E-2,3.6267307E-2,-7.323457E-2,2.9769573E-2],"split_indices":[7,6,3,3,7,2,4,2,6,4,0,4,6,8,4,0,0,0,0,0,0,0,0,0,0,0,0,0,0,0,0],"split_type":[0,0,0,0,0,0,0,0,0,0,0,0,0,0,0,0,0,0,0,0,0,0,0,0,0,0,0,0,0,0,0],"sum_hessian":[3.420616E2,2.2656667E2,1.1549494E2,2.0666223E2,1.9904448E1,4.767238E1,6.782256E1,1.8651204E2,2.015018E1,1.5972705E1,3.9317427E0,4.1529034E1,6.1433477E0,6.2662148E1,5.1604123E0,1.8061443E2,5.897614E0,7.8634853E0,1.22866955E1,1.4252567E1,1.7201374E0,1.7201374E0,2.2116053E0,6.8805494E0,3.4648483E1,2.4573393E0,3.6860087E0,6.389082E0,5.6273067E1,2.948807E0,2.2116053E0],"tree_param":{"num_deleted":"0","num_feature":"9","num_nodes":"31","size_leaf_vector":"1"}},{"base_weights":[2.2682292E-2,1.07014075E-1,-3.0832934E-1,1.2165477E0,7.173836E-2,1.2702277E-1,-4.8668078E-1,1.2620503E-2,6.902699E-2,-4.094924E-2,3.4266344E-1,5.575915E-2,-1.0443444E-1,-1.3597021E0,-3.2007575E-1,-5.1747942E-3,3.524214E-2,-4.7975047E-3,2.7820721E-2,4.1109316E-2,-1.6686024E-2,-8.192989E-2,4.157496E-3,2.505284E-2,-2.2966629E-2],"categories":[],"categories_nodes":[],"categories_segments":[],"categories_sizes":[],"default_left":[0,0,0,0,0,0,0,0,0,0,0,0,0,0,0,0,0,0,0,0,0,0,0,0,0],"id":1,"left_children":[1,3,5,7,9,11,13,-1,-1,15,17,-1,19,21,23,-1,-1,-1,-1,-1,-1,-1,-1,-1,-1],"loss_changes":[9.8750515E0,1.0939524E1,5.6402593E0,1.0142088E0,8.3826275E0,5.07326E0,7.0078363E0,0E0,0E0,9.14498E0,7.612591E0,0E0,4.199315E0,3.3123465E0,5.293478E0,0E0,0E0,0E0,0E0,0E0,0E0,0E0,0E0,0E0,0E0],"parents":[2147483647,0,0,1,1,2,2,3,3,4,4,5,5,6,6,9,9,10,10,12,12,13,13,14,14],"right_children":[2,4,6,8,10,12,14,-1,-1,16,18,-1,20,22,24,-1,-1,-1,-1,-1,-1,-1,-1,-1,-1],"split_conditions":[6.6358986E1,6.204419E3,3.638448E-3,3.1048416E-3,1.7E1,6E0,8.264842E0,1.2620503E-2,6.902699E-2,6.736065E3,4.1296408E-3,5.575915E-2,6.732649E1,9.181325E-3,4.3156226E-3,-5.1747942E-3,3.524214E-2,-4.7975047E-3,2.7820721E-2,4.1109316E-2,-1.6686024E-2,-8.192989E-2,4.157496E-3,2.505284E-2,-2.2966629E-2],"split_indices":[4,6,3,3,7,7,2,0,0,6,3,0,4,3,3,0,0,0,0,0,0,0,0,0,0],"split_type":[0,0,0,0,0,0,0,0,0,0,0,0,0,0,0,0,0,0,0,0,0,0,0,0,0],"sum_hessian":[3.515748E2,2.8072998E2,7.0844826E1,7.618455E0,2.731115E2,2.0672201E1,5.0172623E1,1.4765743E0,6.1418805E0,1.9348352E2,7.962799E1,3.1985478E0,1.7473654E1,6.892778E0,4.3279846E1,1.7930698E2,1.4176543E1,2.6271145E1,5.3356842E1,2.9531486E0,1.4520505E1,5.662567E0,1.2302107E0,5.8988724E0,3.7380974E1],"tree_param":{"num_deleted":"0","num_feature":"9","num_nodes":"25","size_leaf_vector":"1"}},{"base_weights":[-6.5813046E-3,5.427724E-2,-4.304584E-1,-2.3227869E-1,1.8762201E-1,-7.4971014E-1,9.098114E-2,8.761553E-1,-3.350526E-1,-9.7093984E-2,3.237155E-1,-1.4544587E0,-3.2286334E-1,8.457959E-1,-5.5818194E-1,5.79983E-2,5.928717E-3,-1.0973938E-2,-5.2722752E-2,-7.4376207E-4,-5.5614587E-2,1.2034019E-2,5.7596512E-2,-7.864731E-2,-1.671713E-2,1.599195E-2,-4.5658555E-2,6.0124673E-2,-1.8451579E-2,-1.4992114E-4,-8.1341825E-2],"categories":[],"categories_nodes":[],"categories_segments":[],"categories_sizes":[],"default_left":[0,0,0,0,0,0,0,0,0,0,0,0,0,0,0,0,0,0,0,0,0,0,0,0,0,0,0,0,0,0,0],"id":2,"left_children":[1,3,5,7,9,11,13,15,17,19,21,23,25,27,29,-1,-1,-1,-1,-1,-1,-1,-1,-1,-1,-1,-1,-1,-1,-1,-1],"loss_changes":[9.097574E0,1.1831027E1,7.438777E0,1.1504262E1,8.210163E0,7.824054E0,9.147699E0,1.7173386E0,7.316659E0,5.7455015E0,9.5598955E0,8.164711E-1,7.2940483E0,4.1634603E0,6.000078E0,0E0,0E0,0E0,0E0,0E0,0E0,0E0,0E0,0E0,0E0,0E0,0E0,0E0,0E0,0E0,0E0],"parents":[2147483647,0,0,1,1,2,2,3,3,4,4,5,5,6,6,7,7,8,8,9,9,10,10,11,11,12,12,13,13,14,14],"right_children":[2,4,6,8,10,12,14,16,18,20,22,24,26,28,30,-1,-1,-1,-1,-1,-1,-1,-1,-1,-1,-1,-1,-1,-1,-1,-1],"split_conditions":[8.938942E-3,8.425412E0,6.42791E3,6.264386E3,6.329013E3,1.2197358E1,4.841496E1,3.2536485E-3,4.844487E-3,8.285399E-3,8.215481E-3,6.745075E1,6.391991E3,6.686112E3,1.31516075E1,5.79983E-2,5.928717E-3,-1.0973938E-2,-5.2722752E-2,-7.4376207E-4,-5.5614587E-2,1.2034019E-2,5.7596512E-2,-7.864731E-2,-1.671713E-2,1.599195E-2,-4.5658555E-2,6.0124673E-2,-1.8451579E-2,-1.4992114E-4,-8.1341825E-2],"split_indices":[3,2,6,6,6,2,4,3,3,3,3,4,6,6,2,0,0,0,0,0,0,0,0,0,0,0,0,0,0,0,0],"split_type":[0,0,0,0,0,0,0,0,0,0,0,0,0,0,0,0,0,0,0,0,0,0,0,0,0,0,0,0,0,0,0],"sum_hessian":[3.507607E2,3.074852E2,4.327552E1,9.741019E1,2.10075E2,2.6570154E1,1.6705364E1,7.62697E0,8.978322E1,6.8032776E1,1.4204222E2,9.114365E0,1.745579E1,7.584075E0,9.12129E0,5.1619987E0,2.464971E0,7.848025E1,1.130297E1,6.387438E1,4.1584E0,1.3027202E2,1.1770204E1,7.876869E0,1.2374959E0,8.576374E0,8.8794155E0,5.8705254E0,1.7135497E0,6.662709E0,2.4585805E0],"tree_param":{"num_deleted":"0","num_feature":"9","num_nodes":"31","size_leaf_vector":"1"}},{"base_weights":[-2.264714E-2,-1.2639126E-1,2.2992757E-1,1.9164234E-1,-2.52422E-1,-8.558939E-1,2.757479E-1,1.0691332E0,5.6345627E-2,1.16981916E-1,-3.876364E-1,-1.6523717E-2,-5.3377535E-2,1.0628445E0,2.0426904E-1,-8.510506E-4,6.985171E-2,-3.1333987E-3,5.6988817E-2,5.059578E-2,-8.272412E-3,-5.2958746E-3,-2.860471E-2,1.0400781E-3,6.698057E-2,-3.2421473E-2,1.7227342E-2],"categories":[],"categories_nodes":[],"categories_segments":[],"categories_sizes":[],"default_left":[0,0,0,0,0,0,0,0,0,0,0,0,0,0,0,0,0,0,0,0,0,0,0,0,0,0,0],"id":3,"left_children":[1,3,5,7,9,11,13,15,17,19,21,-1,-1,23,25,-1,-1,-1,-1,-1,-1,-1,-1,-1,-1,-1,-1],"loss_changes":[9.352631E0,1.0183736E1,5.407964E0,8.5274515E0,9.112584E0,1.423862E-1,5.437128E0,3.4454823E0,8.2886095E0,1.2656122E1,6.8570614E0,0E0,0E0,2.3165722E0,1.1392009E1,0E0,0E0,0E0,0E0,0E0,0E0,0E0,0E0,0E0,0E0,0E0,0E0],"parents":[2147483647,0,0,1,1,2,2,3,3,4,4,5,5,6,6,7,7,8,8,9,9,10,10,13,13,14,14],"right_children":[2,4,6,8,10,12,14,16,18,20,22,-1,-1,24,26,-1,-1,-1,-1,-1,-1,-1,-1,-1,-1,-1,-1],"split_conditions":[1.7E1,4.841496E1,2.561515E-3,6.28794E3,3.6523635E-3,2.279741E-3,3.1777215E-3,3.9390875E-3,6.7206025E3,6.341399E3,-3.2011525E-5,-1.6523717E-2,-5.3377535E-2,1.8E1,3.5390253E-3,-8.510506E-4,6.985171E-2,-3.1333987E-3,5.6988817E-2,5.059578E-2,-8.272412E-3,-5.2958746E-3,-2.860471E-2,1.0400781E-3,6.698057E-2,-3.2421473E-2,1.7227342E-2],"split_indices":[7,4,3,5,3,3,3,3,5,5,0,0,0,7,3,0,0,0,0,0,0,0,0,0,0,0,0],"split_type":[0,0,0,0,0,0,0,0,0,0,0,0,0,0,0,0,0,0,0,0,0,0,0,0,0,0,0],"sum_hessian":[3.5481882E2,2.5186557E2,1.0295325E2,7.1334694E1,1.8053087E2,3.452751E0,9.9500496E1,8.607446E0,6.272725E1,4.8410065E1,1.321208E2,1.7269979E0,1.7257531E0,7.129037E0,9.237146E1,2.215805E0,6.3916407E0,5.7367638E1,5.3596106E0,1.0993184E1,3.741688E1,5.2900734E1,7.922008E1,1.7217419E0,5.4072948E0,1.2537571E1,7.9833885E1],"tree_param":{"num_deleted":"0","num_feature":"9","num_nodes":"27","size_leaf_vector":"1"}},{"base_weights":[3.0908613E-2,-6.6251546E-2,3.7827855E-1,-7.616868E-3,-4.9793854E-1,4.889193E-2,5.945535E-1,-5.2657563E-2,1.0534292E0,-9.0099E-2,-9.055341E-1,-3.4343654E-1,3.054293E-1,-3.0667132E-2,6.706382E-1,4.506412E-2,-3.812362E-3,6.350329E-2,5.934948E-3,1.7096138E-2,-4.1190486E-2,-5.974068E-2,1.4556541E-2,1.9634655E-2,-5.4216173E-2,2.3294205E-2,-4.885013E-2,3.8879104E-2,-2.1262986E-3],"categories":[],"categories_nodes":[],"categories_segments":[],"categories_sizes":[],"default_left":[0,0,0,0,0,0,0,0,0,0,0,0,0,0,0,0,0,0,0,0,0,0,0,0,0,0,0,0,0],"id":4,"left_children":[1,3,5,7,9,11,13,15,17,19,21,23,25,-1,27,-1,-1,-1,-1,-1,-1,-1,-1,-1,-1,-1,-1,-1,-1],"loss_changes":[1.1682424E1,6.849534E0,5.3595276E0,1.14961405E1,5.2981606E0,3.2320566E0,4.5994587E0,5.257886E0,1.832881E0,5.7612753E0,5.9127617E0,7.3821707E0,4.4298134E0,0E0,3.3392105E0,0E0,0E0,0E0,0E0,0E0,0E0,0E0,0E0,0E0,0E0,0E0,0E0,0E0,0E0],"parents":[2147483647,0,0,1,1,2,2,3,3,4,4,5,5,6,6,7,7,8,8,9,9,10,10,11,11,12,12,14,14],"right_children":[2,4,6,8,10,12,14,16,18,20,22,24,26,-1,28,-1,-1,-1,-1,-1,-1,-1,-1,-1,-1,-1,-1,-1,-1],"split_conditions":[1.9E1,8.938942E-3,2E0,8.317009E-3,9E0,6.40089E3,2.7012196E-3,-2.6068492E-3,8.7242415E-3,6.427775E3,1.6E1,6.311046E3,6.7791924E3,-3.0667132E-2,9.290464E-3,4.506412E-2,-3.812362E-3,6.350329E-2,5.934948E-3,1.7096138E-2,-4.1190486E-2,-5.974068E-2,1.4556541E-2,1.9634655E-2,-5.4216173E-2,2.3294205E-2,-4.885013E-2,3.8879104E-2,-2.1262986E-3],"split_indices":[7,3,8,3,7,6,3,0,3,5,7,5,5,0,3,0,0,0,0,0,0,0,0,0,0,0,0,0,0],"split_type":[0,0,0,0,0,0,0,0,0,0,0,0,0,0,0,0,0,0,0,0,0,0,0,0,0,0,0,0,0],"sum_hessian":[3.44398E2,2.6975595E2,7.4642075E1,2.3839337E2,3.1362574E1,3.007061E1,4.457146E1,2.2959749E2,8.795887E0,1.6286938E1,1.5075637E1,1.1754874E1,1.8315737E1,2.2227345E0,4.234873E1,4.6427608E0,2.2495473E2,6.849638E0,1.9462492E0,1.0587068E1,5.6998696E0,1.2141999E1,2.9336374E0,6.132108E0,5.6227655E0,1.6844866E1,1.4708706E0,3.6747814E1,5.6009126E0],"tree_param":{"num_deleted":"0","num_feature":"9","num_nodes":"29","size_leaf_vector":"1"}},{"base_weights":[2.8900238E-2,8.491843E-2,-3.4267688E-1,-7.9842314E-2,3.4739593E-1,-7.425788E-1,1.2790303E-1,7.320196E-1,-1.2477199E-1,6.866982E-2,2.957557E-1,-1.5261316E-1,-1.0189201E0,8.234769E-1,-2.7891E-1,5.8823306E-2,-1.2780219E-2,-8.293294E-3,4.249099E-2,-1.9115657E-2,1.6830698E-2,2.6818162E-2,-3.580257E-2,1.4986612E-2,-5.833575E-2,5.1193018E-2,1.7655658E-3,-3.2633286E-2,3.615063E-2],"categories":[],"categories_nodes":[],"categories_segments":[],"categories_sizes":[],"default_left":[0,0,0,0,0,0,0,0,0,0,0,0,0,0,0,0,0,0,0,0,0,0,0,0,0,0,0,0,0],"id":5,"left_children":[1,3,5,7,9,11,13,15,17,-1,19,21,23,25,27,-1,-1,-1,-1,-1,-1,-1,-1,-1,-1,-1,-1,-1,-1],"loss_changes":[7.28108E0,1.3155432E1,8.721727E0,6.923675E0,5.8061438E0,3.9086857E0,6.4303255E0,4.67608E0,7.2833977E0,0E0,3.2567587E0,3.927569E0,3.6239853E0,1.2809458E0,5.9292364E0,0E0,0E0,0E0,0E0,0E0,0E0,0E0,0E0,0E0,0E0,0E0,0E0,0E0,0E0],"parents":[2147483647,0,0,1,1,2,2,3,3,4,4,5,5,6,6,7,7,8,8,10,10,11,11,12,12,13,13,14,14],"right_children":[2,4,6,8,10,12,14,16,18,-1,20,22,24,26,28,-1,-1,-1,-1,-1,-1,-1,-1,-1,-1,-1,-1,-1,-1],"split_conditions":[8.7242415E-3,9.872895E0,1.0295516E-2,6.196195E3,-2.6068492E-3,7E0,6.323445E3,8.729495E0,6.143566E-3,6.866982E-2,3.4668641E-3,4E0,8.264842E0,1.2231126E-2,6.4959927E3,5.8823306E-2,-1.2780219E-2,-8.293294E-3,4.249099E-2,-1.9115657E-2,1.6830698E-2,2.6818162E-2,-3.580257E-2,1.4986612E-2,-5.833575E-2,5.1193018E-2,1.7655658E-3,-3.2633286E-2,3.615063E-2],"split_indices":[3,2,3,5,0,7,5,2,3,0,3,8,2,3,5,0,0,0,0,0,0,0,0,0,0,0,0,0,0],"split_type":[0,0,0,0,0,0,0,0,0,0,0,0,0,0,0,0,0,0,0,0,0,0,0,0,0,0,0,0,0],"sum_hessian":[3.4740033E2,3.025587E2,4.4841656E1,1.86307E2,1.1625167E2,2.3928795E1,2.0912859E1,8.967902E0,1.7733911E2,4.3442183E0,1.1190745E2,8.128144E0,1.5800652E1,7.3394923E0,1.3573367E1,6.0528255E0,2.9150765E0,1.7096033E2,6.378773E0,5.885001E0,1.06022446E2,3.67832E0,4.4498243E0,1.4888502E0,1.4311801E1,5.6133184E0,1.7261738E0,1.0139523E1,3.4338448E0],"tree_param":{"num_deleted":"0","num_feature":"9","num_nodes":"29","size_leaf_vector":"1"}},{"base_weights":[3.4486618E-2,-3.9862726E-2,3.157196E-1,2.6983315E-1,-1.0459115E-1,3.8751364E-1,-6.927936E-1,1.120321E0,1.467774E-2,-1.5599924E-1,4.7470942E-1,-1.8336797E-1,5.6201214E-1,9.096E-3,-1.0818367E0,1.1030602E-2,7.4881606E-2,2.4757579E-2,-1.1285207E-2,-7.5876266E-2,-6.702607E-3,6.074025E-2,-2.971833E-2,3.0760577E-2,-2.8291527E-2,4.4037707E-2,3.7166488E-3,-6.705781E-2,-1.558775E-2],"categories":[],"categories_nodes":[],"categories_segments":[],"categories_sizes":[],"default_left":[0,0,0,0,0,0,0,0,0,0,0,0,0,0,0,0,0,0,0,0,0,0,0,0,0,0,0,0,0],"id":6,"left_children":[1,3,5,7,9,11,13,15,17,19,21,23,25,-1,27,-1,-1,-1,-1,-1,-1,-1,-1,-1,-1,-1,-1,-1,-1],"loss_changes":[7.2414937E0,5.52735E0,5.5106125E0,1.0335405E1,6.852769E0,6.8999834E0,1.9562345E0,3.402213E0,4.4668727E0,6.066334E0,1.5597229E1,5.457003E0,8.095768E0,0E0,3.2526588E-1,0E0,0E0,0E0,0E0,0E0,0E0,0E0,0E0,0E0,0E0,0E0,0E0,0E0,0E0],"parents":[2147483647,0,0,1,1,2,2,3,3,4,4,5,5,6,6,7,7,8,8,9,9,10,10,11,11,12,12,14,14],"right_children":[2,4,6,8,10,12,14,16,18,20,22,24,26,-1,28,-1,-1,-1,-1,-1,-1,-1,-1,-1,-1,-1,-1,-1,-1],"split_conditions":[1.9E1,6.2935425E3,7.322096E1,4.7602463E1,6.736065E3,3.5390253E-3,4.208601E-3,7E0,3.8150926E-3,6.282565E3,5.5913086E1,3.1538021E-3,2.2E1,9.096E-3,5.4705376E-3,1.1030602E-2,7.4881606E-2,2.4757579E-2,-1.1285207E-2,-7.5876266E-2,-6.702607E-3,6.074025E-2,-2.971833E-2,3.0760577E-2,-2.8291527E-2,4.4037707E-2,3.7166488E-3,-6.705781E-2,-1.558775E-2],"split_indices":[7,5,4,4,6,3,3,7,3,6,4,3,7,0,3,0,0,0,0,0,0,0,0,0,0,0,0,0,0],"split_type":[0,0,0,0,0,0,0,0,0,0,0,0,0,0,0,0,0,0,0,0,0,0,0,0,0,0,0,0,0],"sum_hessian":[3.4472382E2,2.733237E2,7.1400116E1,4.6702927E1,2.2662079E2,6.722991E1,4.1702037E0,9.995392E0,3.6707535E1,2.0882043E2,1.7800358E1,1.57270775E1,5.150283E1,1.4476775E0,2.7225263E0,3.421477E0,6.573915E0,1.188734E1,2.4820196E1,2.231648E0,2.0658878E2,1.0438041E1,7.3623176E0,4.8959045E0,1.0831173E1,3.0658653E1,2.084418E1,1.4819229E0,1.2406033E0],"tree_param":{"num_deleted":"0","num_feature":"9","num_nodes":"29","size_leaf_vector":"1"}},{"base_weights":[-1.322446E-2,-2.4334753E-1,9.435291E-2,8.057863E-1,-3.6526603E-1,1.9178309E-1,-4.038299E-1,9.5144016E-1,2.674711E-1,-5.749412E-1,-5.3619064E-2,-5.7758145E-2,2.9982784E-1,1.5789129E-1,-6.01852E-1,5.4961365E-2,-1.5560447E-4,4.7617737E-2,-1.9670613E-2,-1.9979974E-2,-6.3354835E-2,2.7231632E-2,-1.9957693E-2,1.1950018E-2,-1.6292205E-2,5.5777997E-2,1.1919032E-2,-3.7198123E-2,2.7288852E-2,-5.2512486E-2,6.766214E-4],"categories":[],"categories_nodes":[],"categories_segments":[],"categories_sizes":[],"default_left":[0,0,0,0,0,0,0,0,0,0,0,0,0,0,0,0,0,0,0,0,0,0,0,0,0,0,0,0,0,0,0],"id":7,"left_children":[1,3,5,7,9,11,13,15,17,19,21,23,25,27,29,-1,-1,-1,-1,-1,-1,-1,-1,-1,-1,-1,-1,-1,-1,-1,-1],"loss_changes":[8.637083E0,1.4508222E1,1.162151E1,6.770921E-1,6.5195847E0,5.399082E0,4.4583745E0,1.2674103E0,2.1495137E0,6.7540283E0,8.779787E0,4.9427915E0,6.7243347E0,4.259768E0,8.07449E0,0E0,0E0,0E0,0E0,0E0,0E0,0E0,0E0,0E0,0E0,0E0,0E0,0E0,0E0,0E0,0E0],"parents":[2147483647,0,0,1,1,2,2,3,3,4,4,5,5,6,6,7,7,8,8,9,9,10,10,11,11,12,12,13,13,14,14],"right_children":[2,4,6,8,10,12,14,16,18,20,22,24,26,28,30,-1,-1,-1,-1,-1,-1,-1,-1,-1,-1,-1,-1,-1,-1,-1,-1],"split_conditions":[8.639654E0,6.2935425E3,8.938942E-3,8.2363E0,6.50868E3,6.3208906E3,6.3313423E3,7.677848E1,5.8067467E1,6.478124E3,6.659592E3,5.1192003E-3,6.3532573E3,1.1154374E1,6.426975E3,5.4961365E-2,-1.5560447E-4,4.7617737E-2,-1.9670613E-2,-1.9979974E-2,-6.3354835E-2,2.7231632E-2,-1.9957693E-2,1.1950018E-2,-1.6292205E-2,5.5777997E-2,1.1919032E-2,-3.7198123E-2,2.7288852E-2,-5.2512486E-2,6.766214E-4],"split_indices":[2,5,3,2,5,6,5,4,4,6,6,3,5,2,6,0,0,0,0,0,0,0,0,0,0,0,0,0,0,0,0],"split_type":[0,0,0,0,0,0,0,0,0,0,0,0,0,0,0,0,0,0,0,0,0,0,0,0,0,0,0,0,0,0,0],"sum_hessian":[3.4696054E2,1.1012522E2,2.3683533E2,1.0881181E1,9.924404E1,1.9860832E2,3.822702E1,7.959981E0,2.9211998E0,5.882314E1,4.04209E1,6.0150208E1,1.384581E2,1.0016443E1,2.8210577E1,6.7615676E0,1.1984136E0,1.2179677E0,1.7032319E0,4.8192097E1,1.06310425E1,1.4587758E1,2.5833141E1,2.8599932E1,3.1550278E1,8.49741E0,1.299607E2,2.7363348E0,7.2801085E0,1.5910669E1,1.2299908E1],"tree_param":{"num_deleted":"0","num_feature":"9","num_nodes":"31","size_leaf_vector":"1"}},{"base_weights":[-1.1225162E-2,-1.21852845E-1,2.5285745E-1,1.4010118E-1,-2.3370807E-1,-3.4764487E-1,3.9021188E-1,-5.375272E-1,2.9002395E-1,4.8860905E-1,-2.9865038E-1,3.1201398E-1,-7.562434E-1,-9.660104E-1,4.5559117E-1,3.306074E-2,-5.4211624E-2,-3.3642083E-2,2.070034E-2,5.5877745E-2,-4.642244E-3,-6.234041E-2,-1.2542433E-2,5.2601237E-2,-4.4874802E-2,1.9275552E-2,-6.5979496E-2,-5.6812435E-2,-1.5447497E-2,2.712658E-2,-4.9054543E-3],"categories":[],"categories_nodes":[],"categories_segments":[],"categories_sizes":[],"default_left":[0,0,0,0,0,0,0,0,0,0,0,0,0,0,0,0,0,0,0,0,0,0,0,0,0,0,0,0,0,0,0],"id":8,"left_children":[1,3,5,7,9,11,13,15,17,19,21,23,25,27,29,-1,-1,-1,-1,-1,-1,-1,-1,-1,-1,-1,-1,-1,-1,-1,-1],"loss_changes":[1.0259456E1,7.2825437E0,8.688374E0,7.74101E0,8.2969675E0,5.581259E0,7.9646225E0,9.811096E0,7.6544876E0,5.484479E0,6.941271E0,8.367104E0,8.573343E0,1.21352196E-1,3.9831753E0,0E0,0E0,0E0,0E0,0E0,0E0,0E0,0E0,0E0,0E0,0E0,0E0,0E0,0E0,0E0,0E0],"parents":[2147483647,0,0,1,1,2,2,3,3,4,4,5,5,6,6,7,7,8,8,9,9,10,10,11,11,12,12,13,13,14,14],"right_children":[2,4,6,8,10,12,14,16,18,20,22,24,26,28,30,-1,-1,-1,-1,-1,-1,-1,-1,-1,-1,-1,-1,-1,-1,-1,-1],"split_conditions":[1.7E1,4.841496E1,1E0,7.6845417E0,6.231365E3,4.9963352E1,2.561515E-3,4.2235626E1,3.1549856E1,8.729495E0,6.2633823E3,4.4947537E-3,6.3457974E3,2.4489104E-3,2.3E1,3.306074E-2,-5.4211624E-2,-3.3642083E-2,2.070034E-2,5.5877745E-2,-4.642244E-3,-6.234041E-2,-1.2542433E-2,5.2601237E-2,-4.4874802E-2,1.9275552E-2,-6.5979496E-2,-5.6812435E-2,-1.5447497E-2,2.712658E-2,-4.9054543E-3],"split_indices":[7,4,8,2,5,4,3,4,4,2,5,3,5,3,7,0,0,0,0,0,0,0,0,0,0,0,0,0,0,0,0],"split_type":[0,0,0,0,0,0,0,0,0,0,0,0,0,0,0,0,0,0,0,0,0,0,0,0,0,0,0,0,0,0,0],"sum_hessian":[3.49118E2,2.4642564E2,1.02692375E2,7.366257E1,1.7276308E2,1.8831516E1,8.3860855E1,1.28766575E1,6.0785908E1,1.3713359E1,1.5904973E2,7.2932935E0,1.1538223E1,3.2232196E0,8.0637634E1,3.9675941E0,8.909063E0,6.4291844E0,5.4356724E1,6.1447344E0,7.5686245E0,6.4298277E0,1.5261989E2,4.605643E0,2.6876507E0,3.9163976E0,7.6218257E0,1.9807378E0,1.242482E0,6.971185E1,1.0925783E1],"tree_param":{"num_deleted":"0","num_feature":"9","num_nodes":"31","size_leaf_vector":"1"}},{"base_weights":[2.3787627E-4,-2.6647162E-1,7.138245E-2,-7.2705984E-2,-6.9593686E-1,2.3040403E-2,6.2691915E-1,-2.850405E-1,6.4407235E-1,-3.5311013E-1,-1.2267121E0,-1.0260976E-1,2.3099141E-1,8.376598E-1,-3.6477294E-2,-2.235964E-2,3.894984E-2,4.417781E-2,-4.0448677E-2,-5.370934E-2,8.367218E-3,-2.077071E-2,-7.949791E-2,-2.4759541E-3,-5.209571E-2,-5.255665E-3,1.7079182E-2,5.438138E-2,5.600251E-3],"categories":[],"categories_nodes":[],"categories_segments":[],"categories_sizes":[],"default_left":[0,0,0,0,0,0,0,0,0,0,0,0,0,0,0,0,0,0,0,0,0,0,0,0,0,0,0,0,0],"id":9,"left_children":[1,3,5,7,9,11,13,15,17,19,21,23,25,27,-1,-1,-1,-1,-1,-1,-1,-1,-1,-1,-1,-1,-1,-1,-1],"loss_changes":[6.5592804E0,6.006916E0,7.314118E0,7.987927E0,3.663764E0,6.6102886E0,6.8449287E0,7.29335E0,4.8994484E0,5.8404827E0,1.8242378E0,7.8189363E0,3.576497E0,3.3863058E0,0E0,0E0,0E0,0E0,0E0,0E0,0E0,0E0,0E0,0E0,0E0,0E0,0E0,0E0,0E0],"parents":[2147483647,0,0,1,1,2,2,3,3,4,4,5,5,6,6,7,7,8,8,9,9,10,10,11,11,12,12,13,13],"right_children":[2,4,6,8,10,12,14,16,18,20,22,24,26,28,-1,-1,-1,-1,-1,-1,-1,-1,-1,-1,-1,-1,-1,-1,-1],"split_conditions":[7.904842E0,6.659592E3,6.723682E3,4.2895024E-4,1.4E1,1.6E1,6.732649E1,6.5250527E3,7.677848E1,6.7109E3,-2.9819593E-4,6.7109E3,4.4219204E1,6.7794023E3,-3.6477294E-2,-2.235964E-2,3.894984E-2,4.417781E-2,-4.0448677E-2,-5.370934E-2,8.367218E-3,-2.077071E-2,-7.949791E-2,-2.4759541E-3,-5.209571E-2,-5.255665E-3,1.7079182E-2,5.438138E-2,5.600251E-3],"split_indices":[2,6,6,0,7,7,4,5,4,5,0,5,4,5,0,0,0,0,0,0,0,0,0,0,0,0,0,0,0],"split_type":[0,0,0,0,0,0,0,0,0,0,0,0,0,0,0,0,0,0,0,0,0,0,0,0,0,0,0,0,0],"sum_hessian":[3.436789E2,7.179301E1,2.7188586E2,5.0277954E1,2.1515055E1,2.5107881E2,2.0807062E1,3.9252377E1,1.1025579E1,1.4083694E1,7.43136E0,1.568263E2,9.4252525E1,1.8340195E1,2.466867E0,3.4564667E1,4.687708E0,9.801991E0,1.2235878E0,5.45793E0,8.625765E0,2.9612107E0,4.470149E0,1.4943288E2,7.393416E0,2.3347097E1,7.0905426E1,1.3270168E1,5.0700264E0],"tree_param":{"num_deleted":"0","num_feature":"9","num_nodes":"29","size_leaf_vector":"1"}},{"base_weights":[1.9279033E-3,-1.149716E-1,2.8451142E-1,-1.6254386E-1,5.271129E-1,-1.7217855E-1,4.1809022E-1,-7.02663E-1,-1.17054686E-1,1.1296074E0,-3.906564E-1,4.4772482E-1,-6.652565E-1,-6.793212E-1,4.991772E-1,4.4648558E-2,-4.790626E-2,7.720946E-3,-9.131323E-3,6.333151E-2,6.6426373E-3,5.460914E-2,-5.001361E-2,-3.1824593E-2,5.3523254E-2,2.6767557E-2,-5.045865E-2,2.5317287E-2,-5.4679867E-2,3.274903E-2,1.7233789E-3],"categories":[],"categories_nodes":[],"categories_segments":[],"categories_sizes":[],"default_left":[0,0,0,0,0,0,0,0,0,0,0,0,0,0,0,0,0,0,0,0,0,0,0,0,0,0,0,0,0,0,0],"id":10,"left_children":[1,3,5,7,9,11,13,15,17,19,21,23,25,27,29,-1,-1,-1,-1,-1,-1,-1,-1,-1,-1,-1,-1,-1,-1,-1,-1],"loss_changes":[1.1640113E1,7.699677E0,6.3621607E0,5.6384807E0,1.0079283E1,7.646676E0,7.46404E0,8.1466E0,3.8723507E0,1.3039484E0,8.008463E0,8.276575E0,6.235645E0,3.4678385E0,5.41749E0,0E0,0E0,0E0,0E0,0E0,0E0,0E0,0E0,0E0,0E0,0E0,0E0,0E0,0E0,0E0,0E0],"parents":[2147483647,0,0,1,1,2,2,3,3,4,4,5,5,6,6,7,7,8,8,9,9,10,10,11,11,12,12,13,13,14,14],"right_children":[2,4,6,8,10,12,14,16,18,20,22,24,26,28,30,-1,-1,-1,-1,-1,-1,-1,-1,-1,-1,-1,-1,-1,-1,-1,-1],"split_conditions":[1.7E1,6.7662075E3,3.5390253E-3,6.6760917E0,5.5913086E1,3.1703962E-3,8.425412E0,4.2235626E1,6.2935425E3,4.9160916E-4,6.771445E3,2.561515E-3,8.297998E0,4.2705444E1,7.2886883E-3,4.4648558E-2,-4.790626E-2,7.720946E-3,-9.131323E-3,6.333151E-2,6.6426373E-3,5.460914E-2,-5.001361E-2,-3.1824593E-2,5.3523254E-2,2.6767557E-2,-5.045865E-2,2.5317287E-2,-5.4679867E-2,3.274903E-2,1.7233789E-3],"split_indices":[7,5,3,2,4,3,2,4,5,1,5,3,2,4,3,0,0,0,0,0,0,0,0,0,0,0,0,0,0,0,0],"split_type":[0,0,0,0,0,0,0,0,0,0,0,0,0,0,0,0,0,0,0,0,0,0,0,0,0,0,0,0,0,0,0],"sum_hessian":[3.5037878E2,2.4826807E2,1.021107E2,2.3183797E2,1.6430107E1,2.3042425E1,7.9068275E1,1.6886623E1,2.1495134E2,9.779362E0,6.6507454E0,1.0249107E1,1.2793318E1,4.932695E0,7.413558E1,1.9860582E0,1.4900564E1,4.155491E1,1.7339644E2,8.359446E0,1.4199164E0,1.7070054E0,4.94374E0,3.7310724E0,6.5180345E0,2.724722E0,1.0068596E1,1.2196856E0,3.7130094E0,5.521439E1,1.8921194E1],"tree_param":{"num_deleted":"0","num_feature":"9","num_nodes":"31","size_leaf_vector":"1"}},{"base_weights":[-2.6574664E-2,-1.2450791E-1,2.0672812E-1,5.0439394E-1,-1.5750441E-1,-2.0790212E-1,3.2935804E-1,5.3417154E-2,-6.577837E-2,7.585458E-2,-2.5328848E-1,3.6050192E-1,-6.5335304E-1,4.2201424E-1,-6.906744E-1,-5.091097E-2,2.7266819E-2,3.3936955E-2,-5.0918474E-3,-2.7800484E-2,-8.000727E-3,-4.51334E-2,4.8570048E-2,-9.439831E-3,-6.524488E-2,1.2971671E-2,4.288787E-2,-6.833814E-2,2.85424E-2],"categories":[],"categories_nodes":[],"categories_segments":[],"categories_sizes":[],"default_left":[0,0,0,0,0,0,0,0,0,0,0,0,0,0,0,0,0,0,0,0,0,0,0,0,0,0,0,0,0],"id":11,"left_children":[1,3,5,7,9,11,13,-1,15,17,19,21,23,25,27,-1,-1,-1,-1,-1,-1,-1,-1,-1,-1,-1,-1,-1,-1],"loss_changes":[8.090968E0,5.2518005E0,5.39419E0,4.142189E0,5.329798E0,6.444013E0,7.967908E0,0E0,4.768732E0,7.558417E0,4.6738176E0,9.687626E0,4.022213E0,5.096307E0,6.872294E0,0E0,0E0,0E0,0E0,0E0,0E0,0E0,0E0,0E0,0E0,0E0,0E0,0E0,0E0],"parents":[2147483647,0,0,1,1,2,2,3,3,4,4,5,5,6,6,8,8,9,9,10,10,11,11,12,12,13,13,14,14],"right_children":[2,4,6,8,10,12,14,-1,16,18,20,22,24,26,28,-1,-1,-1,-1,-1,-1,-1,-1,-1,-1,-1,-1,-1,-1],"split_conditions":[1.7E1,6.2091123E3,3.5390253E-3,6.732649E1,4.8123985E1,3.1777215E-3,7.322096E1,5.3417154E-2,7.1284195E1,6.31235E3,6.3208906E3,2.561515E-3,6.17047E1,6.501595E3,7.910405E1,-5.091097E-2,2.7266819E-2,3.3936955E-2,-5.0918474E-3,-2.7800484E-2,-8.000727E-3,-4.51334E-2,4.8570048E-2,-9.439831E-3,-6.524488E-2,1.2971671E-2,4.288787E-2,-6.833814E-2,2.85424E-2],"split_indices":[7,5,3,4,4,3,4,0,4,5,6,3,4,5,4,0,0,0,0,0,0,0,0,0,0,0,0,0,0],"split_type":[0,0,0,0,0,0,0,0,0,0,0,0,0,0,0,0,0,0,0,0,0,0,0,0,0,0,0,0,0],"sum_hessian":[3.5199344E2,2.482515E2,1.03741936E2,1.1663468E1,2.3658803E2,2.3520437E1,8.02215E1,5.4244776E0,6.2389913E0,6.891014E1,1.6767789E2,1.041781E1,1.3102627E1,7.407872E1,6.1427794E0,2.1781347E0,4.0608563E0,1.5044915E1,5.3865227E1,3.8326843E1,1.2935104E2,3.240255E0,7.1775556E0,8.401827E0,4.7008E0,5.5111397E1,1.8967321E1,3.9450717E0,2.1977077E0],"tree_param":{"num_deleted":"0","num_feature":"9","num_nodes":"29","size_leaf_vector":"1"}},{"base_weights":[-1.1498524E-2,-1.6390555E-1,8.738998E-2,3.0634487E-1,-2.707429E-1,-4.825079E-2,4.173282E-1,6.24812E-1,-5.4332626E-1,5.9113327E-2,-3.7704587E-1,5.071862E-3,-9.499179E-1,6.488328E-1,-2.8969502E-2,3.9397236E-2,-3.9695095E-2,-6.0484823E-2,1.0863226E-2,-5.749004E-3,6.32108E-2,-5.3875234E-2,-1.2224854E-2,2.8894732E-2,-3.0328275E-3,-3.6383406E-4,-5.756684E-2,4.2522483E-2,8.331426E-3,-3.383463E-2,1.3544629E-2],"categories":[],"categories_nodes":[],"categories_segments":[],"categories_sizes":[],"default_left":[0,0,0,0,0,0,0,0,0,0,0,0,0,0,0,0,0,0,0,0,0,0,0,0,0,0,0,0,0,0,0],"id":12,"left_children":[1,3,5,7,9,11,13,15,17,19,21,23,25,27,29,-1,-1,-1,-1,-1,-1,-1,-1,-1,-1,-1,-1,-1,-1,-1,-1],"loss_changes":[5.2901635E0,7.021178E0,9.550646E0,7.384635E0,3.9868774E0,7.3038E0,6.439746E0,5.1161575E0,4.1315136E0,6.1081505E0,7.688142E0,5.4691663E0,1.6020308E0,3.8407173E0,4.4919434E0,0E0,0E0,0E0,0E0,0E0,0E0,0E0,0E0,0E0,0E0,0E0,0E0,0E0,0E0,0E0,0E0],"parents":[2147483647,0,0,1,1,2,2,3,3,4,4,5,5,6,6,7,7,8,8,9,9,10,10,11,11,12,12,13,13,14,14],"right_children":[2,4,6,8,10,12,14,16,18,20,22,24,26,28,30,-1,-1,-1,-1,-1,-1,-1,-1,-1,-1,-1,-1,-1,-1,-1,-1],"split_conditions":[2E0,5E0,1.7E1,5.028254E-4,4.528358E1,9.6477335E-3,6.3948933E1,1.2231126E-2,5.4243123E-3,4.4219204E1,3.3356345E-3,4.0929024E1,4E0,7.4874614E-3,7.948431E-6,3.9397236E-2,-3.9695095E-2,-6.0484823E-2,1.0863226E-2,-5.749004E-3,6.32108E-2,-5.3875234E-2,-1.2224854E-2,2.8894732E-2,-3.0328275E-3,-3.6383406E-4,-5.756684E-2,4.2522483E-2,8.331426E-3,-3.383463E-2,1.3544629E-2],"split_indices":[8,7,7,0,4,3,4,3,3,4,3,4,7,3,0,0,0,0,0,0,0,0,0,0,0,0,0,0,0,0,0],"split_type":[0,0,0,0,0,0,0,0,0,0,0,0,0,0,0,0,0,0,0,0,0,0,0,0,0,0,0,0,0,0,0],"sum_hessian":[3.4905865E2,1.3710103E2,2.1195764E2,2.5036057E1,1.12064964E2,1.5081139E2,6.114625E1,1.840302E1,6.633036E0,2.742125E1,8.4643715E1,1.4332956E2,7.481827E0,3.996283E1,2.1183422E1,1.690391E1,1.4991112E0,3.2207751E0,3.412261E0,2.475032E1,2.6709301E0,1.2334181E1,7.230953E1,1.3951361E1,1.293782E2,1.4996387E0,5.9821877E0,2.7641735E1,1.23210945E1,6.305792E0,1.4877629E1],"tree_param":{"num_deleted":"0","num_feature":"9","num_nodes":"31","size_leaf_vector":"1"}},{"base_weights":[4.657958E-3,-1.5631759E-1,1.1072657E-1,-2.9097694E-1,1.4815979E-1,-1.4379117E-2,4.1831088E-1,-2.3370856E-1,-8.2929033E-1,6.3534766E-1,-2.748228E-1,6.0231495E-1,-8.351196E-2,5.973621E-1,4.172794E-2,-1.8404618E-2,4.2963168E-3,-5.501909E-2,1.5537234E-2,5.1748198E-2,1.50582045E-2,1.44953225E-2,-3.5471097E-2,4.4168368E-2,-2.1636471E-2,-1.5870074E-3,-3.969018E-2,3.7267584E-2,6.4893663E-3,-3.5214644E-2,1.4013317E-2],"categories":[],"categories_nodes":[],"categories_segments":[],"categories_sizes":[],"default_left":[0,0,0,0,0,0,0,0,0,0,0,0,0,0,0,0,0,0,0,0,0,0,0,0,0,0,0,0,0,0,0],"id":13,"left_children":[1,3,5,7,9,11,13,15,17,19,21,23,25,27,29,-1,-1,-1,-1,-1,-1,-1,-1,-1,-1,-1,-1,-1,-1,-1,-1],"loss_changes":[5.9699802E0,5.7376537E0,8.115461E0,2.7853327E0,9.087687E0,6.4784384E0,4.0858593E0,3.8432097E0,3.092431E0,2.4129658E0,6.059126E0,4.838952E0,4.9926867E0,2.7572422E0,3.8848145E0,0E0,0E0,0E0,0E0,0E0,0E0,0E0,0E0,0E0,0E0,0E0,0E0,0E0,0E0,0E0,0E0],"parents":[2147483647,0,0,1,1,2,2,3,3,4,4,5,5,6,6,7,7,8,8,9,9,10,10,11,11,12,12,13,13,14,14],"right_children":[2,4,6,8,10,12,14,16,18,20,22,24,26,28,30,-1,-1,-1,-1,-1,-1,-1,-1,-1,-1,-1,-1,-1,-1,-1,-1],"split_conditions":[2E0,6.4959927E3,1.7E1,7.039836E1,6.7050576E3,6.264386E3,6.3948933E1,5.8494876E-3,7.796585E1,9E0,5.1967476E1,4.7501074E-3,9.6477335E-3,9.702205E-4,6.656867E1,-1.8404618E-2,4.2963168E-3,-5.501909E-2,1.5537234E-2,5.1748198E-2,1.50582045E-2,1.44953225E-2,-3.5471097E-2,4.4168368E-2,-2.1636471E-2,-1.5870074E-3,-3.969018E-2,3.7267584E-2,6.4893663E-3,-3.5214644E-2,1.4013317E-2],"split_indices":[8,5,7,4,5,6,4,3,4,7,4,3,3,0,4,0,0,0,0,0,0,0,0,0,0,0,0,0,0,0,0],"split_type":[0,0,0,0,0,0,0,0,0,0,0,0,0,0,0,0,0,0,0,0,0,0,0,0,0,0,0,0,0,0,0],"sum_hessian":[3.4763028E2,1.3788885E2,2.0974144E2,9.563659E1,4.2252262E1,1.4977554E2,5.9965893E1,8.773687E1,7.8997207E0,1.9402527E1,2.2849737E1,1.43202715E1,1.3545528E2,4.024474E1,1.9721151E1,6.1661133E1,2.6075735E1,6.410206E0,1.4895151E0,7.881202E0,1.1521325E1,1.008194E1,1.2767797E1,1.1377426E1,2.9428456E0,1.27226654E2,8.228624E0,3.0118134E1,1.0126607E1,4.30497E0,1.5416182E1],"tree_param":{"num_deleted":"0","num_feature":"9","num_nodes":"31","size_leaf_vector":"1"}},{"base_weights":[-2.0603254E-2,-1.6861255E-1,7.5574994E-2,-7.738571E-1,-7.8729734E-2,-3.9316416E-2,3.079781E-1,-4.449335E-2,-1.2891526E0,-2.1249804E-1,3.3511817E-1,9.562172E-3,-8.456105E-1,-2.3859023E-1,4.637963E-1,1.7290287E-2,-3.478493E-2,-7.393579E-2,4.0856316E-3,-5.56369E-3,-3.5780236E-2,3.9215036E-2,3.3328745E-3,1.9396568E-2,-3.844088E-3,-6.0419835E-2,-4.2591407E-4,4.4833098E-2,-3.8028803E-2,3.241066E-2,4.9260943E-3],"categories":[],"categories_nodes":[],"categories_segments":[],"categories_sizes":[],"default_left":[0,0,0,0,0,0,0,0,0,0,0,0,0,0,0,0,0,0,0,0,0,0,0,0,0,0,0,0,0,0,0],"id":14,"left_children":[1,3,5,7,9,11,13,15,17,19,21,23,25,27,29,-1,-1,-1,-1,-1,-1,-1,-1,-1,-1,-1,-1,-1,-1,-1,-1],"loss_changes":[5.0048738E0,7.4700813E0,5.706189E0,6.6276455E0,6.8056097E0,5.6670985E0,6.128526E0,2.3754675E0,2.8201313E0,4.633347E0,3.5778303E0,4.490278E0,2.4855008E0,1.0362362E1,3.6629953E0,0E0,0E0,0E0,0E0,0E0,0E0,0E0,0E0,0E0,0E0,0E0,0E0,0E0,0E0,0E0,0E0],"parents":[2147483647,0,0,1,1,2,2,3,3,4,4,5,5,6,6,7,7,8,8,9,9,10,10,11,11,12,12,13,13,14,14],"right_children":[2,4,6,8,10,12,14,16,18,20,22,24,26,28,30,-1,-1,-1,-1,-1,-1,-1,-1,-1,-1,-1,-1,-1,-1,-1,-1],"split_conditions":[2E0,3.3356345E-3,1.6E1,4.8808754E1,6.503271E3,9.6477335E-3,3.4960937E-3,3.1240701E-3,9.884548E-4,6.467878E3,-1.3238215E-4,-5.167081E-4,1.0468617E-2,5.4229446E1,8.983543E-4,1.7290287E-2,-3.478493E-2,-7.393579E-2,4.0856316E-3,-5.56369E-3,-3.5780236E-2,3.9215036E-2,3.3328745E-3,1.9396568E-2,-3.844088E-3,-6.0419835E-2,-4.2591407E-4,4.4833098E-2,-3.8028803E-2,3.241066E-2,4.9260943E-3],"split_indices":[8,3,7,4,6,3,3,3,0,6,0,0,3,4,0,0,0,0,0,0,0,0,0,0,0,0,0,0,0,0,0],"split_type":[0,0,0,0,0,0,0,0,0,0,0,0,0,0,0,0,0,0,0,0,0,0,0,0,0,0,0,0,0,0,0],"sum_hessian":[3.4968738E2,1.3743488E2,2.122525E2,1.6786938E1,1.20647934E2,1.4259145E2,6.966106E1,7.3996334E0,9.387304E0,9.154449E1,2.9103449E1,1.353731E2,7.2183514E0,1.5335841E1,5.4325214E1,4.9198833E0,2.47975E0,8.177805E0,1.2094994E0,7.722759E1,1.4316893E1,1.0168412E1,1.8935038E1,2.4527481E1,1.1084561E2,4.7264132E0,2.4919379E0,4.6042967E0,1.07315445E1,3.558483E1,1.8740385E1],"tree_param":{"num_deleted":"0","num_feature":"9","num_nodes":"31","size_leaf_vector":"1"}},{"base_weights":[-4.2068455E-2,-2.1762678E-1,2.9782042E-2,6.8127924E-1,-3.247322E-1,9.3483254E-2,-2.6021096E-1,9.0067554E-1,-1.6116409E-2,-2.162002E-1,-8.4578353E-1,-1.5433383E-1,2.1168971E-1,-5.02874E-1,2.903741E-1,2.147014E-2,6.369727E-2,-2.880985E-2,2.566146E-4,-6.430232E-2,1.3694026E-2,2.2261876E-3,-2.5807232E-2,-1.2814755E-2,1.5098604E-2,-6.79076E-2,-1.831258E-2,-2.5354257E-2,2.2009091E-2],"categories":[],"categories_nodes":[],"categories_segments":[],"categories_sizes":[],"default_left":[0,0,0,0,0,0,0,0,0,0,0,0,0,0,0,0,0,0,0,0,0,0,0,0,0,0,0,0,0],"id":15,"left_children":[1,3,5,7,9,11,13,15,-1,17,19,21,23,25,27,-1,-1,-1,-1,-1,-1,-1,-1,-1,-1,-1,-1,-1,-1],"loss_changes":[4.3991866E0,9.969735E0,4.60538E0,2.735022E0,4.9718065E0,6.010326E0,6.148638E0,1.1020751E0,0E0,6.1208096E0,7.928746E0,4.8060765E0,5.9325542E0,3.1891704E0,1.9408556E0,0E0,0E0,0E0,0E0,0E0,0E0,0E0,0E0,0E0,0E0,0E0,0E0,0E0,0E0],"parents":[2147483647,0,0,1,1,2,2,3,3,4,4,5,5,6,6,7,7,9,9,10,10,11,11,12,12,13,13,14,14],"right_children":[2,4,6,8,10,12,14,16,-1,18,20,22,24,26,28,-1,-1,-1,-1,-1,-1,-1,-1,-1,-1,-1,-1,-1,-1],"split_conditions":[8.425412E0,6.2935425E3,8.7242415E-3,8.2363E0,4.897642E-3,8E0,5.697694E-4,7.408111E0,-1.6116409E-2,3.3356345E-3,5.872716E-3,5E0,3.5888052E-3,9.181325E-3,1.2197358E1,2.147014E-2,6.369727E-2,-2.880985E-2,2.566146E-4,-6.430232E-2,1.3694026E-2,2.2261876E-3,-2.5807232E-2,-1.2814755E-2,1.5098604E-2,-6.79076E-2,-1.831258E-2,-2.5354257E-2,2.2009091E-2],"split_indices":[2,5,3,2,3,7,0,2,0,3,3,7,3,3,2,0,0,0,0,0,0,0,0,0,0,0,0,0,0],"split_type":[0,0,0,0,0,0,0,0,0,0,0,0,0,0,0,0,0,0,0,0,0,0,0,0,0,0,0,0,0],"sum_hessian":[3.4724173E2,1.0025397E2,2.4698778E2,1.01028385E1,9.015113E1,2.0306026E2,4.3927525E1,8.3746395E0,1.728199E0,7.578126E1,1.4369873E1,6.547914E1,1.3758112E2,3.054977E1,1.3377751E1,4.6518354E0,3.7228045E0,2.8242153E1,4.7539104E1,1.0207561E1,4.162312E0,4.2820942E1,2.2658197E1,2.1952103E1,1.1562901E2,2.9763618E0,2.757341E1,1.7384888E0,1.1639263E1],"tree_param":{"num_deleted":"0","num_feature":"9","num_nodes":"29","size_leaf_vector":"1"}},{"base_weights":[-2.0146437E-2,3.8587493E-1,-7.017909E-2,5.560548E-1,-2.4695212E-1,7.4499555E-2,-1.6102037E-1,-7.6943725E-2,7.553097E-1,-9.353348E-1,4.6487425E-2,-4.427758E-2,4.0536773E-1,-6.981768E-2,-6.0463524E-1,5.837909E-2,-3.1889245E-2,1.4258712E-2,6.734174E-2,-6.53583E-2,1.1131547E-3,7.003275E-3,-1.6070282E-2,4.649905E-2,1.2807398E-2,-8.1676375E-3,1.7016483E-2,-6.752077E-2,-1.7416658E-2],"categories":[],"categories_nodes":[],"categories_segments":[],"categories_sizes":[],"default_left":[0,0,0,0,0,0,0,0,0,0,0,0,0,0,0,0,0,0,0,0,0,0,0,0,0,0,0,0,0],"id":16,"left_children":[1,3,5,7,9,11,13,15,17,19,-1,21,23,25,27,-1,-1,-1,-1,-1,-1,-1,-1,-1,-1,-1,-1,-1,-1],"loss_changes":[7.2525783E0,4.356276E0,4.184958E0,3.9908466E0,8.155605E0,4.8576446E0,7.861862E0,6.588619E0,6.2367907E0,2.227241E0,0E0,4.72045E0,2.316083E0,6.315554E0,5.8726406E0,0E0,0E0,0E0,0E0,0E0,0E0,0E0,0E0,0E0,0E0,0E0,0E0,0E0,0E0],"parents":[2147483647,0,0,1,1,2,2,3,3,4,4,5,5,6,6,7,7,8,8,9,9,11,11,12,12,13,13,14,14],"right_children":[2,4,6,8,10,12,14,16,18,20,-1,22,24,26,28,-1,-1,-1,-1,-1,-1,-1,-1,-1,-1,-1,-1,-1,-1],"split_conditions":[3.9697197E1,8.799491E-3,-7.506099E-5,8.829294E0,1.1076813E-2,6.5444E3,6.6969927E3,6.431945E3,6.4654976E3,6.413155E3,4.6487425E-2,6.416205E3,6.67461E3,6.509775E3,6.710335E3,5.837909E-2,-3.1889245E-2,1.4258712E-2,6.734174E-2,-6.53583E-2,1.1131547E-3,7.003275E-3,-1.6070282E-2,4.649905E-2,1.2807398E-2,-8.1676375E-3,1.7016483E-2,-6.752077E-2,-1.7416658E-2],"split_indices":[4,3,0,2,3,5,5,6,5,5,0,5,5,5,6,0,0,0,0,0,0,0,0,0,0,0,0,0,0],"split_type":[0,0,0,0,0,0,0,0,0,0,0,0,0,0,0,0,0,0,0,0,0,0,0,0,0,0,0,0,0],"sum_hessian":[3.546848E2,3.817526E1,3.1650958E2,3.0180449E1,7.9948106E0,1.22148796E2,1.9436078E2,7.3726516E0,2.2807798E1,5.173423E0,2.821388E0,9.051966E1,3.1629137E1,1.6217635E2,3.218442E1,1.9542545E0,5.418397E0,1.3533593E1,9.274205E0,3.4635098E0,1.709913E0,5.465694E1,3.586272E1,5.84556E0,2.5783577E1,1.3254977E2,2.962657E1,7.1399546E0,2.5044466E1],"tree_param":{"num_deleted":"0","num_feature":"9","num_nodes":"29","size_leaf_vector":"1"}},{"base_weights":[-4.4396822E-3,-4.3448266E-1,3.2019395E-2,2.768721E-1,-8.188219E-1,7.96232E-2,-2.890983E-1,6.7381674E-1,-4.6666062E-1,-5.246853E-1,-1.2149949E0,4.8962355E-2,6.870034E-1,-3.472612E-1,4.619383E-2,5.82149E-2,-2.7314177E-2,2.6815465E-2,-5.275107E-2,-5.293389E-2,1.0579263E-2,-8.189961E-2,-1.1048549E-2,3.2977106E-3,-3.3423603E-2,-5.163585E-4,4.9377427E-2,3.780275E-2,-2.0739462E-2],"categories":[],"categories_nodes":[],"categories_segments":[],"categories_sizes":[],"default_left":[0,0,0,0,0,0,0,0,0,0,0,0,0,0,0,0,0,0,0,0,0,0,0,0,0,0,0,0,0],"id":17,"left_children":[1,3,5,7,9,11,13,15,17,19,21,23,25,27,-1,-1,-1,-1,-1,-1,-1,-1,-1,-1,-1,-1,-1,-1,-1],"loss_changes":[5.5334964E0,7.7676215E0,4.9980707E0,3.3904805E0,1.4786263E0,5.2593627E0,3.3004334E0,4.9471445E0,3.0550697E0,5.013499E0,2.5719223E0,3.3555303E0,2.8565865E0,3.3704033E0,0E0,0E0,0E0,0E0,0E0,0E0,0E0,0E0,0E0,0E0,0E0,0E0,0E0,0E0,0E0],"parents":[2147483647,0,0,1,1,2,2,3,3,4,4,5,5,6,6,7,7,8,8,9,9,10,10,11,11,12,12,13,13],"right_children":[2,4,6,8,10,12,14,16,18,20,22,24,26,28,-1,-1,-1,-1,-1,-1,-1,-1,-1,-1,-1,-1,-1,-1,-1],"split_conditions":[7.0216775E0,6.4286177E3,8.938942E-3,2.3704172E-4,3.6071397E-3,1.4006042E1,3.511019E-3,5.338418E-3,6.3405933E3,3.3356345E-3,6.7246826E3,6.7838027E3,6.326373E3,8.178665E0,4.619383E-2,5.82149E-2,-2.7314177E-2,2.6815465E-2,-5.275107E-2,-5.293389E-2,1.0579263E-2,-8.189961E-2,-1.1048549E-2,3.2977106E-3,-3.3423603E-2,-5.163585E-4,4.9377427E-2,3.780275E-2,-2.0739462E-2],"split_indices":[2,5,3,0,3,2,0,3,5,3,5,5,6,2,0,0,0,0,0,0,0,0,0,0,0,0,0,0,0],"split_type":[0,0,0,0,0,0,0,0,0,0,0,0,0,0,0,0,0,0,0,0,0,0,0,0,0,0,0,0,0],"sum_hessian":[3.5103738E2,2.6581823E1,3.2445557E2,9.422252E0,1.7159573E1,2.8322168E2,4.12339E1,6.2039537E0,3.218298E0,1.1181966E1,5.977607E0,2.7064023E2,1.2581437E1,4.0028233E1,1.2056674E0,4.457693E0,1.7462603E0,1.2226069E0,1.9956912E0,6.2274857E0,4.9544797E0,3.7387695E0,2.238837E0,2.6526572E2,5.374535E0,4.0801754E0,8.501262E0,1.720555E0,3.830768E1],"tree_param":{"num_deleted":"0","num_feature":"9","num_nodes":"29","size_leaf_vector":"1"}},{"base_weights":[-1.8577527E-2,1.6323246E-1,-9.8538734E-2,-1.9896929E-1,2.9607436E-1,-6.798759E-2,-1.0184063E0,2.9362583E-1,-4.2185357E-1,1.1567675E-1,6.3237625E-1,-1.6646959E-1,2.0372815E-1,1.0288977E-2,-7.366427E-2,6.45391E-2,-1.6646668E-2,-4.843911E-2,-9.140988E-3,2.0151751E-2,-1.80143E-2,6.0271837E-2,1.4675374E-2,-1.0473139E-2,3.71502E-2,-2.1835035E-2,1.6917579E-2],"categories":[],"categories_nodes":[],"categories_segments":[],"categories_sizes":[],"default_left":[0,0,0,0,0,0,0,0,0,0,0,0,0,0,0,0,0,0,0,0,0,0,0,0,0,0,0],"id":18,"left_children":[1,3,5,7,9,11,13,15,17,19,21,23,25,-1,-1,-1,-1,-1,-1,-1,-1,-1,-1,-1,-1,-1,-1],"loss_changes":[5.026571E0,5.142563E0,6.6754403E0,3.3023324E0,4.641067E0,6.2782955E0,4.559337E0,6.43262E0,2.4822793E0,7.2299147E0,4.871065E0,6.8742733E0,5.538727E0,0E0,0E0,0E0,0E0,0E0,0E0,0E0,0E0,0E0,0E0,0E0,0E0,0E0,0E0],"parents":[2147483647,0,0,1,1,2,2,3,3,4,4,5,5,6,6,7,7,8,8,9,9,10,10,11,11,12,12],"right_children":[2,4,6,8,10,12,14,16,18,20,22,24,26,-1,-1,-1,-1,-1,-1,-1,-1,-1,-1,-1,-1,-1,-1],"split_conditions":[4.8239056E1,8.570824E0,6.7801274E3,6.4258E3,6.472845E3,1.7E1,7.457693E0,4.2235626E1,3.9001778E1,1.7E1,3.9274506E1,6.736065E3,8.799488E0,1.0288977E-2,-7.366427E-2,6.45391E-2,-1.6646668E-2,-4.843911E-2,-9.140988E-3,2.0151751E-2,-1.80143E-2,6.0271837E-2,1.4675374E-2,-1.0473139E-2,3.71502E-2,-2.1835035E-2,1.6917579E-2],"split_indices":[4,2,5,6,5,7,2,4,4,7,4,6,2,0,0,0,0,0,0,0,0,0,0,0,0,0,0],"split_type":[0,0,0,0,0,0,0,0,0,0,0,0,0,0,0,0,0,0,0,0,0,0,0,0,0,0,0],"sum_hessian":[3.436536E2,1.0465507E2,2.3899852E2,2.7949959E1,7.670511E1,2.3235532E2,6.6432E0,8.608026E0,1.9341934E1,5.0799458E1,2.5905653E1,1.708272E2,6.1528114E1,1.9480795E0,4.695121E0,2.9125888E0,5.6954365E0,4.953961E0,1.4387973E1,3.1771137E1,1.9028318E1,8.676167E0,1.7229486E1,1.6385121E2,6.9759836E0,1.0297431E1,5.1230682E1],"tree_param":{"num_deleted":"0","num_feature":"9","num_nodes":"27","size_leaf_vector":"1"}},{"base_weights":[-2.736673E-2,-3.650726E-1,6.887576E-4,5.201235E-2,-5.6790376E-1,-3.275384E-2,3.359648E-1,-1.2097676E0,-2.0349199E-1,8.580452E-3,-5.32138E-1,7.512573E-1,-4.1518635E-1,1.0577739E-2,-7.671948E-2,1.7405557E-2,-3.8107987E-2,-2.2136392E-3,1.574812E-2,-4.5251366E-2,1.7084243E-3,4.421052E-2,-1.199463E-2,1.2528354E-2,-5.6725312E-2],"categories":[],"categories_nodes":[],"categories_segments":[],"categories_sizes":[],"default_left":[0,0,0,0,0,0,0,0,0,0,0,0,0,0,0,0,0,0,0,0,0,0,0,0,0],"id":19,"left_children":[1,3,5,-1,7,9,11,13,15,17,19,21,23,-1,-1,-1,-1,-1,-1,-1,-1,-1,-1,-1,-1],"loss_changes":[3.2792368E0,8.158104E0,3.6050262E0,0E0,5.331594E0,6.0396943E0,9.408731E0,4.215782E0,5.3231936E0,4.402479E0,4.7539473E0,2.7336473E0,5.5647354E0,0E0,0E0,0E0,0E0,0E0,0E0,0E0,0E0,0E0,0E0,0E0,0E0],"parents":[2147483647,0,0,1,1,2,2,4,4,5,5,6,6,7,7,8,8,9,9,10,10,11,11,12,12],"right_children":[2,4,6,-1,8,10,12,14,16,18,20,22,24,-1,-1,-1,-1,-1,-1,-1,-1,-1,-1,-1,-1],"split_conditions":[7.0216775E0,4.2235626E1,6.726124E3,5.201235E-2,3.3248742E-3,6.6986426E3,5.5913086E1,6.4099624E3,1.2E1,6.509775E3,5.875982E1,2.2E1,6.7801274E3,1.0577739E-2,-7.671948E-2,1.7405557E-2,-3.8107987E-2,-2.2136392E-3,1.574812E-2,-4.5251366E-2,1.7084243E-3,4.421052E-2,-1.199463E-2,1.2528354E-2,-5.6725312E-2],"split_indices":[2,4,6,0,3,5,4,5,7,5,4,7,5,0,0,0,0,0,0,0,0,0,0,0,0],"split_type":[0,0,0,0,0,0,0,0,0,0,0,0,0,0,0,0,0,0,0,0,0,0,0,0,0],"sum_hessian":[3.450852E2,2.5548122E1,3.1953708E2,2.7015746E0,2.2846548E1,2.9137567E2,2.8161385E1,7.433545E0,1.5413003E1,2.7000967E2,2.1366024E1,1.813491E1,1.0026475E1,1.4468727E0,5.9866724E0,7.945182E0,7.467821E0,2.3101355E2,3.899611E1,1.2522414E1,8.843611E0,1.6085138E1,2.0497708E0,5.545552E0,4.480923E0],"tree_param":{"num_deleted":"0","num_feature":"9","num_nodes":"25","size_leaf_vector":"1"}},{"base_weights":[1.6201623E-2,3.1582043E-1,-2.1624004E-2,1.10116616E-1,6.834897E-1,3.3628244E-6,-5.639603E-1,3.3319047E-1,-4.3857533E-1,8.3286226E-2,6.359888E-2,5.319802E-1,-2.6354428E-2,-8.0512464E-1,4.428663E-2,3.284101E-2,4.5868005E-3,-1.2822045E-3,-5.667094E-2,2.1670988E-2,-2.4945771E-2,4.0018927E-2,-1.0046276E-2,-1.542865E-2,1.2845469E-3,-5.3314283E-3,-5.822608E-2],"categories":[],"categories_nodes":[],"categories_segments":[],"categories_sizes":[],"default_left":[0,0,0,0,0,0,0,0,0,0,0,0,0,0,0,0,0,0,0,0,0,0,0,0,0,0,0],"id":20,"left_children":[1,3,5,7,9,11,13,15,17,19,-1,21,23,25,-1,-1,-1,-1,-1,-1,-1,-1,-1,-1,-1,-1,-1],"loss_changes":[3.9465528E0,2.876677E0,3.631322E0,3.3554459E0,4.772169E0,4.202609E0,4.8639464E0,1.4408247E0,2.2693253E0,1.82814E0,0E0,2.9441147E0,4.2024574E0,2.562693E0,0E0,0E0,0E0,0E0,0E0,0E0,0E0,0E0,0E0,0E0,0E0,0E0,0E0],"parents":[2147483647,0,0,1,1,2,2,3,3,4,4,5,5,6,6,7,7,8,8,9,9,11,11,12,12,13,13],"right_children":[2,4,6,8,10,12,14,16,18,20,-1,22,24,26,-1,-1,-1,-1,-1,-1,-1,-1,-1,-1,-1,-1,-1],"split_conditions":[3.9697197E1,1.8E1,1.2231126E-2,1.2E1,6.4534326E3,6.196195E3,6.5066123E3,5.1614763E-3,-6.953566E-4,2.2E1,6.359888E-2,6.637254E-4,3.3248742E-3,-3.4046505E-4,4.428663E-2,3.284101E-2,4.5868005E-3,-1.2822045E-3,-5.667094E-2,2.1670988E-2,-2.4945771E-2,4.0018927E-2,-1.0046276E-2,-1.542865E-2,1.2845469E-3,-5.3314283E-3,-5.822608E-2],"split_indices":[4,7,3,7,5,5,5,3,0,7,0,0,3,0,0,0,0,0,0,0,0,0,0,0,0,0,0],"split_type":[0,0,0,0,0,0,0,0,0,0,0,0,0,0,0,0,0,0,0,0,0,0,0,0,0,0,0],"sum_hessian":[3.466246E2,3.803085E1,3.0859375E2,2.5220158E1,1.2810691E1,2.977212E2,1.0872576E1,1.8209667E1,7.0104904E0,6.9073524E0,5.9033384E0,1.3149195E1,2.84572E2,9.703045E0,1.1695305E0,7.045747E0,1.1163921E1,5.0476704E0,1.9628204E0,4.472913E0,2.4344397E0,9.557183E0,3.592011E0,4.354082E1,2.4103117E2,3.736928E0,5.966117E0],"tree_param":{"num_deleted":"0","num_feature":"9","num_nodes":"27","size_leaf_vector":"1"}},{"base_weights":[2.9749252E-2,6.776906E-2,-3.1953612E-1,-2.3398275E-2,2.83046E-1,3.157222E-1,-5.6117034E-1,4.7187503E-2,-4.5474967E-1,5.0583534E-2,4.9580914E-1,5.679173E-1,-4.0967334E-2,-8.641832E-1,-1.0269391E-1,1.3592601E-2,-4.137108E-3,-5.2711662E-2,-6.396621E-3,1.1767014E-2,-2.2903545E-2,2.9188707E-2,-3.1532664E-2,-1.5925664E-2,3.970736E-2,-6.493508E-2,-4.865298E-3,2.1034654E-2,-3.55125E-2],"categories":[],"categories_nodes":[],"categories_segments":[],"categories_sizes":[],"default_left":[0,0,0,0,0,0,0,0,0,0,0,0,0,0,0,0,0,0,0,0,0,0,0,0,0,0,0,0,0],"id":21,"left_children":[1,3,5,7,9,11,13,15,17,19,21,23,-1,25,27,-1,-1,-1,-1,-1,-1,-1,-1,-1,-1,-1,-1,-1,-1],"loss_changes":[4.5781775E0,6.0958686E0,5.374249E0,6.6858063E0,4.543938E0,3.3191884E0,3.3687449E0,5.5397186E0,5.914131E0,4.361166E0,5.1362934E0,2.0071974E0,0E0,4.821788E0,3.8087893E0,0E0,0E0,0E0,0E0,0E0,0E0,0E0,0E0,0E0,0E0,0E0,0E0,0E0,0E0],"parents":[2147483647,0,0,1,1,2,2,3,3,4,4,5,5,6,6,7,7,8,8,9,9,10,10,11,11,13,13,14,14],"right_children":[2,4,6,8,10,12,14,16,18,20,22,24,-1,26,28,-1,-1,-1,-1,-1,-1,-1,-1,-1,-1,-1,-1,-1,-1],"split_conditions":[9.440322E-3,5.6034694E-3,6.3313423E3,5.139523E-3,6.4002476E3,1.2899978E-3,6.42791E3,5.1822212E1,6.300699E3,8.285399E-3,8.0684296E1,1.0295516E-2,-4.0967334E-2,6.2622326E1,4.8541904E1,1.3592601E-2,-4.137108E-3,-5.2711662E-2,-6.396621E-3,1.1767014E-2,-2.2903545E-2,2.9188707E-2,-3.1532664E-2,-1.5925664E-2,3.970736E-2,-6.493508E-2,-4.865298E-3,2.1034654E-2,-3.55125E-2],"split_indices":[3,3,5,3,5,0,6,4,6,3,4,3,0,4,4,0,0,0,0,0,0,0,0,0,0,0,0,0,0],"split_type":[0,0,0,0,0,0,0,0,0,0,0,0,0,0,0,0,0,0,0,0,0,0,0,0,0,0,0,0,0],"sum_hessian":[3.421178E2,3.0926068E2,3.2857132E1,2.1788159E2,9.137907E1,8.969536E0,2.3887596E1,1.8800699E2,2.9874613E1,4.4259457E1,4.711961E1,7.747763E0,1.2217728E0,1.384943E1,1.0038166E1,6.848889E1,1.195181E2,9.755064E0,2.0119549E1,3.2860855E1,1.1398604E1,4.415345E1,2.966161E0,1.4923618E0,6.2554016E0,8.397724E0,5.451706E0,5.5578494E0,4.480316E0],"tree_param":{"num_deleted":"0","num_feature":"9","num_nodes":"29","size_leaf_vector":"1"}},{"base_weights":[2.0486135E-3,-8.208141E-3,4.7243427E-2,1.09721646E-1,-1.05268314E-1,7.857018E-1,6.3842565E-2,-4.7159474E-2,-4.0444484E-1,4.9741533E-2,-1.7877962E-2,4.4469986E-4,3.697101E-2,-1.0246904E-2,5.771049E-3,-3.3028416E-2,4.1948907E-2],"categories":[],"categories_nodes":[],"categories_segments":[],"categories_sizes":[],"default_left":[0,0,0,0,0,0,0,0,0,0,0,0,0,0,0,0,0],"id":22,"left_children":[1,3,-1,5,7,9,11,13,15,-1,-1,-1,-1,-1,-1,-1,-1],"loss_changes":[3.257328E0,3.827884E0,0E0,4.633266E0,3.1692843E0,2.629321E0,5.283451E0,3.9920545E0,1.0011488E1,0E0,0E0,0E0,0E0,0E0,0E0,0E0,0E0],"parents":[2147483647,0,0,1,1,3,3,4,4,5,5,6,6,7,7,8,8],"right_children":[2,4,-1,6,8,10,12,14,16,-1,-1,-1,-1,-1,-1,-1,-1],"split_conditions":[3.511019E-3,-3.2011525E-5,4.7243427E-2,6.2454624E3,6.6969927E3,-1.3238215E-4,6.75591E3,6.410895E3,1.0807056E-3,4.9741533E-2,-1.7877962E-2,4.4469986E-4,3.697101E-2,-1.0246904E-2,5.771049E-3,-3.3028416E-2,4.1948907E-2],"split_indices":[0,0,0,5,5,0,5,5,0,0,0,0,0,0,0,0,0],"split_type":[0,0,0,0,0,0,0,0,0,0,0,0,0,0,0,0,0],"sum_hessian":[3.3503735E2,3.3241238E2,2.6249557E0,1.5001324E2,1.8239914E2,8.509481E0,1.4150377E2,1.5370312E2,2.8696016E1,7.303359E0,1.2061222E0,1.3179712E2,9.706644E0,7.787127E1,7.5831856E1,2.4183407E1,4.5126104E0],"tree_param":{"num_deleted":"0","num_feature":"9","num_nodes":"17","size_leaf_vector":"1"}},{"base_weights":[6.5666325E-2,1.066396E-1,-2.0618978E-1,8.1579216E-2,8.975391E-1,1.9885415E-1,-4.325697E-1,5.3765386E-2,6.392462E-2,-1.1361792E-2,1.136774E0,-3.302523E-1,9.296054E-1,-8.617503E-1,5.570452E-2,4.0617962E-3,-2.431039E-2,6.75404E-2,-1.1619956E-3,4.879267E-2,-4.1397173E-2,6.27816E-2,-2.0486828E-2,1.0482187E-2,-5.1405903E-2,1.3863161E-2,-4.5761783E-2],"categories":[],"categories_nodes":[],"categories_segments":[],"categories_sizes":[],"default_left":[0,0,0,0,0,0,0,0,0,0,0,0,0,0,0,0,0,0,0,0,0,0,0,0,0,0,0],"id":23,"left_children":[1,3,5,7,9,11,13,-1,15,-1,17,19,21,23,25,-1,-1,-1,-1,-1,-1,-1,-1,-1,-1,-1,-1],"loss_changes":[3.8848977E0,5.9131584E0,4.282209E0,5.086657E0,2.7275243E0,6.9156137E0,6.2657695E0,0E0,2.799325E0,0E0,1.9514742E0,7.7320113E0,3.7634068E0,3.0410357E0,3.441665E0,0E0,0E0,0E0,0E0,0E0,0E0,0E0,0E0,0E0,0E0,0E0,0E0],"parents":[2147483647,0,0,1,1,2,2,3,3,4,4,5,5,6,6,8,8,10,10,11,11,12,12,13,13,14,14],"right_children":[2,4,6,8,10,12,14,-1,16,-1,18,20,22,24,26,-1,-1,-1,-1,-1,-1,-1,-1,-1,-1,-1,-1],"split_conditions":[8.7242415E-3,8.391965E-3,4.805591E1,2.8918028E1,6.35527E3,6.4258E3,6.2964703E1,5.3765386E-2,6.7801274E3,-1.1361792E-2,6.9582954E1,6E0,6.6660176E3,6.335998E3,1.3235954E-2,4.0617962E-3,-2.431039E-2,6.75404E-2,-1.1619956E-3,4.879267E-2,-4.1397173E-2,6.27816E-2,-2.0486828E-2,1.0482187E-2,-5.1405903E-2,1.3863161E-2,-4.5761783E-2],"split_indices":[3,3,4,4,5,6,4,0,5,0,4,7,5,6,3,0,0,0,0,0,0,0,0,0,0,0,0],"split_type":[0,0,0,0,0,0,0,0,0,0,0,0,0,0,0,0,0,0,0,0,0,0,0,0,0,0,0],"sum_hessian":[3.457966E2,3.0103354E2,4.476307E1,2.9285724E2,8.176305E0,1.6092178E1,2.8670889E1,4.066336E0,2.887909E2,1.4428461E0,6.733459E0,9.651788E0,6.440391E0,1.4851718E1,1.3819171E1,2.8080692E2,7.9839673E0,5.5457397E0,1.1877196E0,2.397968E0,7.25382E0,5.229831E0,1.21056E0,1.9612586E0,1.2890459E1,1.1833357E1,1.9858139E0],"tree_param":{"num_deleted":"0","num_feature":"9","num_nodes":"27","size_leaf_vector":"1"}},{"base_weights":[-8.399857E-3,-2.902492E-1,6.269492E-2,-6.686934E-1,-3.3407774E-2,1.3657053E-1,-2.0883979E-1,1.0731309E-1,-9.570618E-1,1.1475841E-1,-5.9457654E-1,5.1106834E-1,9.488326E-2,-3.5329416E-1,3.496618E-1,3.896073E-2,-4.399727E-2,-5.6564283E-2,4.079852E-3,-5.7279347E-3,3.3122312E-2,5.8434466E-3,-4.2007517E-2,3.802155E-2,-3.2182645E-2,-1.2411759E-2,9.0251705E-3,-9.361785E-3,-5.2775826E-2,4.46452E-2,-1.2436036E-2],"categories":[],"categories_nodes":[],"categories_segments":[],"categories_sizes":[],"default_left":[0,0,0,0,0,0,0,0,0,0,0,0,0,0,0,0,0,0,0,0,0,0,0,0,0,0,0,0,0,0,0],"id":24,"left_children":[1,3,5,7,9,11,13,15,17,19,21,23,25,27,29,-1,-1,-1,-1,-1,-1,-1,-1,-1,-1,-1,-1,-1,-1,-1,-1],"loss_changes":[7.023564E0,6.839951E0,5.6453476E0,6.4781466E0,3.6526055E0,3.3973756E0,4.9869714E0,6.402324E0,3.8693466E0,4.464502E0,1.6996825E0,6.789876E0,5.9157205E0,5.445336E0,4.4122868E0,0E0,0E0,0E0,0E0,0E0,0E0,0E0,0E0,0E0,0E0,0E0,0E0,0E0,0E0,0E0,0E0],"parents":[2147483647,0,0,1,1,2,2,3,3,4,4,5,5,6,6,7,7,8,8,9,9,10,10,11,11,12,12,13,13,14,14],"right_children":[2,4,6,8,10,12,14,16,18,20,22,24,26,28,30,-1,-1,-1,-1,-1,-1,-1,-1,-1,-1,-1,-1,-1,-1,-1,-1],"split_conditions":[7.904842E0,5.3116566E1,6.56899E1,4.2418037E1,6.6770825E3,6.2746577E3,1.224043E1,6.672969E3,6.730253E3,4.3663016E-4,1E1,8.2364306E-4,6.3208906E3,1.0997282E1,7.086301E1,3.896073E-2,-4.399727E-2,-5.6564283E-2,4.079852E-3,-5.7279347E-3,3.3122312E-2,5.8434466E-3,-4.2007517E-2,3.802155E-2,-3.2182645E-2,-1.2411759E-2,9.0251705E-3,-9.361785E-3,-5.2775826E-2,4.46452E-2,-1.2436036E-2],"split_indices":[2,4,4,4,5,5,2,6,6,0,7,0,6,2,4,0,0,0,0,0,0,0,0,0,0,0,0,0,0,0,0],"split_type":[0,0,0,0,0,0,0,0,0,0,0,0,0,0,0,0,0,0,0,0,0,0,0,0,0,0,0,0,0,0,0],"sum_hessian":[3.4860382E2,6.959957E1,2.7900424E2,2.7490309E1,4.210926E1,2.1972217E2,5.928208E1,7.6179843E0,1.9872324E1,3.3942795E1,8.166464E0,2.0880697E1,1.9884146E2,4.7391792E1,1.1890289E1,4.6583595E0,2.9596248E0,1.6941406E1,2.9309175E0,2.448271E1,9.460087E0,2.2300224E0,5.936441E0,1.7453142E1,3.4275558E0,3.932984E1,1.5951163E2,3.9352516E1,8.039278E0,5.97431E0,5.915979E0],"tree_param":{"num_deleted":"0","num_feature":"9","num_nodes":"31","size_leaf_vector":"1"}},{"base_weights":[-1.7346451E-2,3.0904567E-2,-3.4273446E-1,9.067364E-1,1.3914236E-2,-4.0788537E-1,4.7595352E-2,7.4358964E-3,5.793016E-2,-1.21910855E-1,1.0571293E-1,-6.937967E-1,-1.0850183E-1,-1.7989874E-2,1.2353825E-3,-1.1401412E-4,1.7756669E-2,-5.1169652E-2,-1.1479422E-3,2.0913018E-2,-2.268867E-2],"categories":[],"categories_nodes":[],"categories_segments":[],"categories_sizes":[],"default_left":[0,0,0,0,0,0,0,0,0,0,0,0,0,0,0,0,0,0,0,0,0],"id":25,"left_children":[1,3,5,7,9,11,-1,-1,-1,13,15,17,19,-1,-1,-1,-1,-1,-1,-1,-1],"loss_changes":[5.3687124E0,4.423619E0,4.112553E0,9.078479E-1,3.6719503E0,3.5830417E0,0E0,0E0,0E0,4.1530066E0,4.7320013E0,4.769167E0,4.202507E0,0E0,0E0,0E0,0E0,0E0,0E0,0E0,0E0],"parents":[2147483647,0,0,1,1,2,2,3,3,4,4,5,5,9,9,10,10,11,11,12,12],"right_children":[2,4,6,8,10,12,-1,-1,-1,14,16,18,20,-1,-1,-1,-1,-1,-1,-1,-1],"split_conditions":[8.938942E-3,-2.847753E-3,3.511019E-3,-4.2977384E-3,2E0,1.0295516E-2,4.7595352E-2,7.4358964E-3,5.793016E-2,6.399586E3,1.7E1,6.2775585E1,4.8541904E1,-1.7989874E-2,1.2353825E-3,-1.1401412E-4,1.7756669E-2,-5.1169652E-2,-1.1479422E-3,2.0913018E-2,-2.268867E-2],"split_indices":[3,0,0,0,8,3,0,0,0,6,7,4,4,0,0,0,0,0,0,0,0],"split_type":[0,0,0,0,0,0,0,0,0,0,0,0,0,0,0,0,0,0,0,0,0],"sum_hessian":[3.4027493E2,2.9712064E2,4.3154293E1,4.6576266E0,2.92463E2,4.1738796E1,1.4154994E0,1.558282E0,3.0993445E0,1.178155E2,1.7464752E2,2.0675896E1,2.1062899E1,4.4370678E1,7.3444824E1,1.2256891E2,5.2078606E1,1.3511751E1,7.164145E0,8.25591E0,1.280699E1],"tree_param":{"num_deleted":"0","num_feature":"9","num_nodes":"21","size_leaf_vector":"1"}},{"base_weights":[5.700123E-3,6.3079454E-2,-2.8854075E-1,-5.7678044E-2,1.7348796E-1,7.3619775E-2,-4.3867743E-1,3.1095177E-1,-1.2953335E-1,3.440986E-1,-1.7276573E-1,9.7385633E-1,-5.1743E-1,-7.423249E-1,-5.1949788E-2,-3.906668E-2,2.6675543E-2,-3.2621402E-2,-3.0167517E-3,-4.1129203E-3,2.6800653E-2,-1.6860195E-2,3.6180303E-2,3.8811353E-3,6.242847E-2,1.24326395E-2,-4.7300685E-2,-4.973821E-2,-5.8107097E-3,-1.8945858E-2,1.7118763E-2],"categories":[],"categories_nodes":[],"categories_segments":[],"categories_sizes":[],"default_left":[0,0,0,0,0,0,0,0,0,0,0,0,0,0,0,0,0,0,0,0,0,0,0,0,0,0,0,0,0,0,0],"id":26,"left_children":[1,3,5,7,9,11,13,15,17,19,21,23,25,27,29,-1,-1,-1,-1,-1,-1,-1,-1,-1,-1,-1,-1,-1,-1,-1,-1],"loss_changes":[5.7075963E0,3.7806492E0,3.0320911E0,3.6380439E0,8.80168E0,9.562513E0,4.558232E0,5.8746634E0,4.09912E0,8.183306E0,7.5422916E0,1.649795E0,3.8239713E0,3.3383389E0,2.4882145E0,0E0,0E0,0E0,0E0,0E0,0E0,0E0,0E0,0E0,0E0,0E0,0E0,0E0,0E0,0E0,0E0],"parents":[2147483647,0,0,1,1,2,2,3,3,4,4,5,5,6,6,7,7,8,8,9,9,10,10,11,11,12,12,13,13,14,14],"right_children":[2,4,6,8,10,12,14,16,18,20,22,24,26,28,30,-1,-1,-1,-1,-1,-1,-1,-1,-1,-1,-1,-1,-1,-1,-1,-1],"split_conditions":[6.732649E1,9.505662E0,7E0,3.1240701E-3,7.634935E-3,4.7141784E-3,1.7E1,6.5621634E0,3.3248742E-3,7E0,6.0201813E1,7.168269E1,-7.852622E-6,7.634935E-3,9.856012E0,-3.906668E-2,2.6675543E-2,-3.2621402E-2,-3.0167517E-3,-4.1129203E-3,2.6800653E-2,-1.6860195E-2,3.6180303E-2,3.8811353E-3,6.242847E-2,1.24326395E-2,-4.7300685E-2,-4.973821E-2,-5.8107097E-3,-1.8945858E-2,1.7118763E-2],"split_indices":[4,2,7,3,3,3,7,2,3,7,4,4,0,3,2,0,0,0,0,0,0,0,0,0,0,0,0,0,0,0,0],"split_type":[0,0,0,0,0,0,0,0,0,0,0,0,0,0,0,0,0,0,0,0,0,0,0,0,0,0,0,0,0,0,0],"sum_hessian":[3.359827E2,2.818126E2,5.4170105E1,1.3482622E2,1.4698639E2,1.6024755E1,3.814535E1,2.145108E1,1.1337514E2,9.847213E1,4.8514256E1,6.0944843E0,9.93027E0,2.0852814E1,1.7292536E1,3.2059755E0,1.8245106E1,1.2265199E1,1.0110994E2,3.0743584E1,6.7728546E1,4.152108E1,6.993173E0,1.7307106E0,4.363774E0,3.713072E0,6.2171984E0,1.4441428E1,6.411386E0,9.475059E0,7.817477E0],"tree_param":{"num_deleted":"0","num_feature":"9","num_nodes":"31","size_leaf_vector":"1"}},{"base_weights":[-2.2293122E-2,-1.08372286E-1,1.5813574E-1,-1.5766436E-1,4.2302766E-1,6.756919E-1,9.448752E-2,-1.0612613E-1,-6.4419097E-1,9.72874E-1,-4.9987054E-1,-2.0830163E-1,1.0022413E0,-3.0001098E-1,1.8752564E-1,-9.679879E-3,1.98894E-2,-4.7635715E-2,1.5760807E-2,2.5283594E-2,6.6473916E-2,-5.0210506E-2,3.0018965E-2,-4.6158046E-2,2.0214487E-2,6.230889E-2,-1.4008938E-3,2.6696865E-2,-3.0298734E-2,1.2015693E-3,2.2123251E-2],"categories":[],"categories_nodes":[],"categories_segments":[],"categories_sizes":[],"default_left":[0,0,0,0,0,0,0,0,0,0,0,0,0,0,0,0,0,0,0,0,0,0,0,0,0,0,0,0,0,0,0],"id":27,"left_children":[1,3,5,7,9,11,13,15,17,19,21,23,25,27,29,-1,-1,-1,-1,-1,-1,-1,-1,-1,-1,-1,-1,-1,-1,-1,-1],"loss_changes":[5.357003E0,6.1793013E0,3.6076696E0,5.304654E0,1.0676126E1,3.6851964E0,3.7417388E0,8.670161E0,6.317237E0,1.4807415E0,5.129525E0,2.1584287E0,2.2883396E0,5.311036E0,3.4016256E0,0E0,0E0,0E0,0E0,0E0,0E0,0E0,0E0,0E0,0E0,0E0,0E0,0E0,0E0,0E0,0E0],"parents":[2147483647,0,0,1,1,2,2,3,3,4,4,5,5,6,6,7,7,8,8,9,9,10,10,11,11,12,12,13,13,14,14],"right_children":[2,4,6,8,10,12,14,16,18,20,22,24,26,28,30,-1,-1,-1,-1,-1,-1,-1,-1,-1,-1,-1,-1,-1,-1,-1,-1],"split_conditions":[1.6E1,6.726124E3,6.264386E3,6.6963677E3,5.5913086E1,6.130302E3,6.326373E3,6.505295E3,1.2E1,6.77363E3,4E0,9.369648E0,8.7086397E-4,1.8E1,1.0859842E1,-9.679879E-3,1.98894E-2,-4.7635715E-2,1.5760807E-2,2.5283594E-2,6.6473916E-2,-5.0210506E-2,3.0018965E-2,-4.6158046E-2,2.0214487E-2,6.230889E-2,-1.4008938E-3,2.6696865E-2,-3.0298734E-2,1.2015693E-3,2.2123251E-2],"split_indices":[7,6,6,5,4,6,6,6,7,5,8,2,1,7,2,0,0,0,0,0,0,0,0,0,0,0,0,0,0,0,0],"split_type":[0,0,0,0,0,0,0,0,0,0,0,0,0,0,0,0,0,0,0,0,0,0,0,0,0,0,0,0,0,0,0],"sum_hessian":[3.4281616E2,2.3236067E2,1.10455475E2,2.1328033E2,1.9080347E1,1.1043017E1,9.941246E1,1.9395285E2,1.9327484E1,1.1922803E1,7.1575446E0,3.0765848E0,7.9664326E0,1.8546658E1,8.08658E1,1.6579013E2,2.816271E1,1.4629838E1,4.6976457E0,6.207768E0,5.715035E0,4.967705E0,2.1898396E0,1.1858218E0,1.8907632E0,6.271856E0,1.6945767E0,4.7781153E0,1.3768543E1,4.993587E1,3.092993E1],"tree_param":{"num_deleted":"0","num_feature":"9","num_nodes":"31","size_leaf_vector":"1"}},{"base_weights":[4.3071985E-2,1.0257538E-1,-2.100936E-1,-1.2585896E-1,2.0670122E-1,-3.9990255E-1,-1.269653E-2,9.636943E-1,-2.3245369E-1,5.635408E-2,3.823247E-1,-1.5919587E-1,-8.705531E-1,5.280069E-1,-2.231129E-1,5.65498E-2,4.424103E-3,-2.045071E-2,3.2529563E-3,1.861011E-2,-6.11446E-3,2.9039813E-2,4.781041E-3,-1.825939E-2,3.5827857E-2,-2.020891E-3,-6.2046062E-2,-1.1991111E-2,6.704187E-2,-2.4949398E-2,3.8671342E-3],"categories":[],"categories_nodes":[],"categories_segments":[],"categories_sizes":[],"default_left":[0,0,0,0,0,0,0,0,0,0,0,0,0,0,0,0,0,0,0,0,0,0,0,0,0,0,0,0,0,0,0],"id":28,"left_children":[1,3,5,7,9,11,13,15,17,19,21,23,25,27,29,-1,-1,-1,-1,-1,-1,-1,-1,-1,-1,-1,-1,-1,-1,-1,-1],"loss_changes":[5.210892E0,6.6764584E0,2.463508E0,1.0463442E1,5.059517E0,3.6628838E0,3.909857E0,1.0788012E0,4.2873945E0,5.961561E0,4.9850235E0,4.4874954E0,3.3720245E0,6.3342905E0,2.0856009E0,0E0,0E0,0E0,0E0,0E0,0E0,0E0,0E0,0E0,0E0,0E0,0E0,0E0,0E0,0E0,0E0],"parents":[2147483647,0,0,1,1,2,2,3,3,4,4,5,5,6,6,7,7,8,8,9,9,10,10,11,11,12,12,13,13,14,14],"right_children":[2,4,6,8,10,12,14,16,18,20,22,24,26,28,30,-1,-1,-1,-1,-1,-1,-1,-1,-1,-1,-1,-1,-1,-1,-1,-1],"split_conditions":[6.6358986E1,8.671772E0,3E0,6.2935425E3,1.4E1,7.062022E1,8.124327E0,1.4E1,6.509775E3,4.753258E1,1.1235246E1,1.2895194E1,9E0,1.2E1,7.2503136E1,5.65498E-2,4.424103E-3,-2.045071E-2,3.2529563E-3,1.861011E-2,-6.11446E-3,2.9039813E-2,4.781041E-3,-1.825939E-2,3.5827857E-2,-2.020891E-3,-6.2046062E-2,-1.1991111E-2,6.704187E-2,-2.4949398E-2,3.8671342E-3],"split_indices":[4,2,8,5,7,4,2,7,5,4,2,2,7,7,4,0,0,0,0,0,0,0,0,0,0,0,0,0,0,0,0],"split_type":[0,0,0,0,0,0,0,0,0,0,0,0,0,0,0,0,0,0,0,0,0,0,0,0,0,0,0,0,0,0,0],"sum_hessian":[3.4348148E2,2.7859583E2,6.488563E1,8.716405E1,1.914318E2,3.2555607E1,3.233002E1,7.051073E0,8.0112976E1,1.03849525E2,8.758227E1,2.2424963E1,1.0130643E1,8.634008E0,2.3696012E1,5.6741705E0,1.3769029E0,5.0041065E1,3.0071907E1,3.7125946E1,6.672358E1,5.1148674E1,3.643359E1,1.862666E1,3.798304E0,3.46759E0,6.663053E0,4.8024216E0,3.8315873E0,1.2008848E1,1.1687164E1],"tree_param":{"num_deleted":"0","num_feature":"9","num_nodes":"31","size_leaf_vector":"1"}},{"base_weights":[-2.2131328E-3,-1.3988303E-1,8.795816E-2,-7.0494723E-1,-5.664514E-2,1.15703695E-1,-3.3708337E-1,-1.0797153E0,-1.3175395E-1,-1.7020912E-1,2.3916753E-1,5.515428E-1,7.327207E-2,-8.654965E-1,8.563389E-2,-1.3820794E-2,-7.2254024E-2,2.5435751E-2,-4.120244E-2,-2.791859E-3,-4.3997906E-2,3.137537E-2,-5.40624E-3,5.5123813E-2,-6.508025E-4,-9.018366E-3,7.1406974E-3,1.58449E-2,-6.251336E-2,-1.1219451E-2,4.370385E-2],"categories":[],"categories_nodes":[],"categories_segments":[],"categories_sizes":[],"default_left":[0,0,0,0,0,0,0,0,0,0,0,0,0,0,0,0,0,0,0,0,0,0,0,0,0,0,0,0,0,0,0],"id":29,"left_children":[1,3,5,7,9,11,13,15,17,19,21,23,25,27,29,-1,-1,-1,-1,-1,-1,-1,-1,-1,-1,-1,-1,-1,-1,-1,-1],"loss_changes":[4.280014E0,6.377674E0,2.495977E0,3.602209E0,4.0723767E0,3.5901947E0,2.9828627E0,2.653202E0,3.9797618E0,7.0378494E0,4.613984E0,5.384058E0,3.2016785E0,3.0702024E0,2.1869593E0,0E0,0E0,0E0,0E0,0E0,0E0,0E0,0E0,0E0,0E0,0E0,0E0,0E0,0E0,0E0,0E0],"parents":[2147483647,0,0,1,1,2,2,3,3,4,4,5,5,6,6,7,7,8,8,9,9,10,10,11,11,12,12,13,13,14,14],"right_children":[2,4,6,8,10,12,14,16,18,20,22,24,26,28,30,-1,-1,-1,-1,-1,-1,-1,-1,-1,-1,-1,-1,-1,-1,-1,-1],"split_conditions":[2E0,3.3356345E-3,9.6477335E-3,1.7E1,6.4959927E3,3.9697197E1,1.0468617E-2,4.6808132E1,3.1538021E-3,6.469398E3,6.7050576E3,6.44141E3,4.8975327E1,5E0,6.4441973E3,-1.3820794E-2,-7.2254024E-2,2.5435751E-2,-4.120244E-2,-2.791859E-3,-4.3997906E-2,3.137537E-2,-5.40624E-3,5.5123813E-2,-6.508025E-4,-9.018366E-3,7.1406974E-3,1.58449E-2,-6.251336E-2,-1.1219451E-2,4.370385E-2],"split_indices":[8,3,3,7,5,4,3,4,3,6,5,5,4,7,5,0,0,0,0,0,0,0,0,0,0,0,0,0,0,0,0],"split_type":[0,0,0,0,0,0,0,0,0,0,0,0,0,0,0,0,0,0,0,0,0,0,0,0,0,0,0,0,0,0,0],"sum_hessian":[3.4278558E2,1.3544392E2,2.0734164E2,1.6431162E1,1.1901277E2,1.953195E2,1.2022138E1,9.400922E0,7.0302405E0,8.63046E1,3.2708168E1,1.6264036E1,1.7905548E2,4.8775496E0,7.144588E0,3.4882123E0,5.912709E0,3.789553E0,3.2406874E0,7.525618E1,1.1048426E1,1.5060625E1,1.7647543E1,7.7491245E0,8.514912E0,3.818609E1,1.4086938E2,1.2408459E0,3.6367037E0,5.6416454E0,1.5029429E0],"tree_param":{"num_deleted":"0","num_feature":"9","num_nodes":"31","size_leaf_vector":"1"}},{"base_weights":[-8.238956E-3,3.5091396E-2,-2.983367E-1,-4.731293E-2,2.3600282E-1,1.02213524E-1,-5.534479E-1,-1.3247239E-3,-4.2254382E-1,2.9388282E-1,-9.701555E-1,-3.7096077E-1,1.0146545E0,-2.2000652E-2,-7.6881534E-1,1.4064044E-2,-2.619258E-3,4.9245004E-2,-2.7275277E-2,-8.578342E-3,2.3528095E-2,-1.4852236E-2,-6.5989874E-2,-3.447689E-2,5.34781E-2,1.4174141E-2,6.0365953E-2,3.3119354E-2,-4.227501E-2,-5.1648557E-2,6.080246E-4],"categories":[],"categories_nodes":[],"categories_segments":[],"categories_sizes":[],"default_left":[0,0,0,0,0,0,0,0,0,0,0,0,0,0,0,0,0,0,0,0,0,0,0,0,0,0,0,0,0,0,0],"id":30,"left_children":[1,3,5,7,9,11,13,15,17,19,21,23,25,27,29,-1,-1,-1,-1,-1,-1,-1,-1,-1,-1,-1,-1,-1,-1,-1,-1],"loss_changes":[4.3024735E0,4.9443398E0,4.6015177E0,3.6601005E0,6.3471675E0,8.212515E0,3.1109247E0,2.7561166E0,4.5449653E0,6.957642E0,5.9844065E-1,6.558497E0,5.6858206E-1,5.58182E0,4.0183764E0,0E0,0E0,0E0,0E0,0E0,0E0,0E0,0E0,0E0,0E0,0E0,0E0,0E0,0E0,0E0,0E0],"parents":[2147483647,0,0,1,1,2,2,3,3,4,4,5,5,6,6,7,7,8,8,9,9,10,10,11,11,12,12,13,13,14,14],"right_children":[2,4,6,8,10,12,14,16,18,20,22,24,26,28,30,-1,-1,-1,-1,-1,-1,-1,-1,-1,-1,-1,-1,-1,-1,-1,-1],"split_conditions":[8.7242415E-3,5.4705376E-3,4.805591E1,5.1614763E-3,7.086301E1,1.1076813E-2,6E0,3.1240701E-3,2E0,6.3110127E3,6.4212476E3,4.4219204E1,7E0,6.421326E3,7.168269E1,1.4064044E-2,-2.619258E-3,4.9245004E-2,-2.7275277E-2,-8.578342E-3,2.3528095E-2,-1.4852236E-2,-6.5989874E-2,-3.447689E-2,5.34781E-2,1.4174141E-2,6.0365953E-2,3.3119354E-2,-4.227501E-2,-5.1648557E-2,6.080246E-4],"split_indices":[3,3,4,3,4,3,7,3,7,6,5,4,7,6,4,0,0,0,0,0,0,0,0,0,0,0,0,0,0,0,0],"split_type":[0,0,0,0,0,0,0,0,0,0,0,0,0,0,0,0,0,0,0,0,0,0,0,0,0,0,0,0,0,0,0],"sum_hessian":[3.4044717E2,2.9696948E2,4.347771E1,2.1113602E2,8.5833466E1,1.7149933E1,2.6327778E1,1.889784E2,2.2157616E1,8.2624886E1,3.2085772E0,1.1684182E1,5.4657497E0,7.9102807E0,1.8417498E1,2.822912E1,1.6074928E2,1.217063E0,2.0940552E1,2.274186E1,5.9883026E1,1.7291961E0,1.4793811E0,9.995064E0,1.6891183E0,1.6552753E0,3.8104744E0,4.4268727E0,3.483408E0,1.3521384E1,4.896114E0],"tree_param":{"num_deleted":"0","num_feature":"9","num_nodes":"31","size_leaf_vector":"1"}},{"base_weights":[3.68505E-2,2.5593475E-1,-3.7338862E-3,-2.3668822E-2,4.3291014E-1,-4.0476137E-1,3.3056125E-2,-4.6611866E-1,5.738347E-1,6.2503755E-1,-1.17335275E-1,3.6409296E-2,-5.215612E-1,-3.35747E-1,6.143304E-2,7.704361E-3,-6.02598E-2,2.6762213E-3,5.563431E-2,-8.532091E-3,3.8795393E-2,-6.0511243E-2,1.6791278E-2,-1.5162016E-2,-4.626895E-2,-2.566718E-2,1.0764166E-2,3.53433E-2,2.320933E-3],"categories":[],"categories_nodes":[],"categories_segments":[],"categories_sizes":[],"default_left":[0,0,0,0,0,0,0,0,0,0,0,0,0,0,0,0,0,0,0,0,0,0,0,0,0,0,0,0,0],"id":31,"left_children":[1,3,5,7,9,11,13,15,17,19,21,-1,23,25,27,-1,-1,-1,-1,-1,-1,-1,-1,-1,-1,-1,-1,-1,-1],"loss_changes":[3.0198984E0,2.6368673E0,4.254417E0,5.9574413E0,3.5153031E0,3.5861528E0,2.7858553E0,6.1069956E0,2.6334686E0,3.0482998E0,4.996481E0,0E0,1.7073054E0,1.9730427E0,2.3529706E0,0E0,0E0,0E0,0E0,0E0,0E0,0E0,0E0,0E0,0E0,0E0,0E0,0E0,0E0],"parents":[2147483647,0,0,1,1,2,2,3,3,4,4,5,5,6,6,7,7,8,8,9,9,10,10,12,12,13,13,14,14],"right_children":[2,4,6,8,10,12,14,16,18,20,22,-1,24,26,28,-1,-1,-1,-1,-1,-1,-1,-1,-1,-1,-1,-1,-1,-1],"split_conditions":[4.232713E1,3.494571E1,7.0216775E0,1.8E1,6.391053E-5,6.3394683E3,-9.777113E-4,6.44141E3,6.465186E3,-1.9153805E-3,2.3704172E-4,3.6409296E-2,2.538071E-4,6.48835E3,-8.904295E-4,7.704361E-3,-6.02598E-2,2.6762213E-3,5.563431E-2,-8.532091E-3,3.8795393E-2,-6.0511243E-2,1.6791278E-2,-1.5162016E-2,-4.626895E-2,-2.566718E-2,1.0764166E-2,3.53433E-2,2.320933E-3],"split_indices":[4,4,2,7,0,5,0,5,6,0,0,0,0,5,0,0,0,0,0,0,0,0,0,0,0,0,0,0,0],"split_type":[0,0,0,0,0,0,0,0,0,0,0,0,0,0,0,0,0,0,0,0,0,0,0,0,0,0,0,0,0],"sum_hessian":[3.3853513E2,5.2081337E1,2.864538E2,2.0523113E1,3.1558224E1,2.323038E1,2.6322342E2,1.191786E1,8.605254E0,2.3290154E1,8.268071E0,1.681875E0,2.1548504E1,1.8032372E1,2.4519104E2,6.910414E0,5.0074453E0,4.937234E0,3.6680205E0,3.6913233E0,1.959883E1,1.9337672E0,6.3343034E0,1.51232E1,6.4253035E0,1.3688859E1,4.3435135E0,4.526538E0,2.406645E2],"tree_param":{"num_deleted":"0","num_feature":"9","num_nodes":"29","size_leaf_vector":"1"}},{"base_weights":[1.852618E-2,-3.3815482E-3,2.4476513E-1,2.3715744E-2,-1.0777626E0,-5.353997E-1,7.2216827E-1,1.300965E-2,4.6960704E-2,1.1998143E-2,-1.361344E0,1.5039963E-1,-8.4055626E-1,1.0005803E0,1.564814E-1,1.6416901E-3,-1.9680755E-2,-8.160773E-2,-1.105231E-2,5.3166922E-2,-3.5960656E-2,-5.457703E-2,2.0642338E-2,1.9839447E-2,5.9966236E-2,4.1685607E-2,-5.6975023E-3],"categories":[],"categories_nodes":[],"categories_segments":[],"categories_sizes":[],"default_left":[0,0,0,0,0,0,0,0,0,0,0,0,0,0,0,0,0,0,0,0,0,0,0,0,0,0,0],"id":32,"left_children":[1,3,5,7,9,11,13,15,-1,-1,17,19,21,23,25,-1,-1,-1,-1,-1,-1,-1,-1,-1,-1,-1,-1],"loss_changes":[1.7321808E0,9.326077E0,1.187806E1,3.051546E0,3.2715254E0,2.6977782E0,2.9250174E0,2.51171E0,0E0,0E0,1.6880989E0,4.4420314E0,3.173379E0,1.0754061E0,1.494048E0,0E0,0E0,0E0,0E0,0E0,0E0,0E0,0E0,0E0,0E0,0E0,0E0],"parents":[2147483647,0,0,1,1,2,2,3,3,4,4,5,5,6,6,7,7,10,10,11,11,12,12,13,13,14,14],"right_children":[2,4,6,8,10,12,14,16,-1,-1,18,20,22,24,26,-1,-1,-1,-1,-1,-1,-1,-1,-1,-1,-1,-1],"split_conditions":[6.723682E3,6.712408E3,4.090203E-3,6.710335E3,7.112363E0,1.4E1,5.6034694E-3,6.6986426E3,4.6960704E-2,1.1998143E-2,5.338418E-3,7.4929004E0,1.0807056E-3,7.9693027E0,5E0,1.6416901E-3,-1.9680755E-2,-8.160773E-2,-1.105231E-2,5.3166922E-2,-3.5960656E-2,-5.457703E-2,2.0642338E-2,1.9839447E-2,5.9966236E-2,4.1685607E-2,-5.6975023E-3],"split_indices":[6,6,3,6,2,7,3,5,0,0,3,2,0,2,7,0,0,0,0,0,0,0,0,0,0,0,0],"split_type":[0,0,0,0,0,0,0,0,0,0,0,0,0,0,0,0,0,0,0,0,0,0,0,0,0,0,0],"sum_hessian":[3.4831802E2,3.184647E2,2.9853308E1,3.1158408E2,6.8806305E0,1.1286918E1,1.856639E1,3.0898492E2,2.599146E0,1.2457558E0,5.634875E0,3.631881E0,7.6550364E0,1.1927357E1,6.6390324E0,2.954978E2,1.3487133E1,4.204906E0,1.4299688E0,1.663124E0,1.968757E0,6.485503E0,1.1695335E0,3.6958206E0,8.231536E0,1.3001705E0,5.338862E0],"tree_param":{"num_deleted":"0","num_feature":"9","num_nodes":"27","size_leaf_vector":"1"}},{"base_weights":[1.9532813E-2,7.087531E-1,5.87464E-3,1.5566112E-3,9.850473E-1,-1.1502345E-1,6.9865055E-2,5.563257E-2,1.3213373E-2,9.283975E-2,-3.3769533E-1,1.7114852E-1,-1.296407E-1,2.6703987E-5,4.0966198E-2,-6.86545E-2,-9.126477E-3,1.2355349E-2,-9.248128E-3,-1.5899679E-3,-4.235374E-2],"categories":[],"categories_nodes":[],"categories_segments":[],"categories_sizes":[],"default_left":[0,0,0,0,0,0,0,0,0,0,0,0,0,0,0,0,0,0,0,0,0],"id":33,"left_children":[1,3,5,-1,7,9,11,-1,-1,13,15,17,19,-1,-1,-1,-1,-1,-1,-1,-1],"loss_changes":[3.2012901E0,1.206593E0,2.598996E0,0E0,1.3472462E-1,5.4138975E0,4.459927E0,0E0,0E0,4.0854206E0,8.804206E0,3.997603E0,5.203973E0,0E0,0E0,0E0,0E0,0E0,0E0,0E0,0E0],"parents":[2147483647,0,0,1,1,2,2,4,4,5,5,6,6,9,9,10,10,11,11,12,12],"right_children":[2,4,6,-1,8,10,12,-1,-1,14,16,18,20,-1,-1,-1,-1,-1,-1,-1,-1],"split_conditions":[-2.847753E-3,-4.2977384E-3,8.772839E0,1.5566112E-3,2E1,3.638448E-3,6.830857E-3,5.563257E-2,1.3213373E-2,3.5590725E-3,3.7863774E-3,1.1351631E1,7.062022E1,2.6703987E-5,4.0966198E-2,-6.86545E-2,-9.126477E-3,1.2355349E-2,-9.248128E-3,-1.5899679E-3,-4.235374E-2],"split_indices":[0,0,2,0,7,3,3,0,0,3,3,2,4,0,0,0,0,0,0,0,0],"split_type":[0,0,0,0,0,0,0,0,0,0,0,0,0,0,0,0,0,0,0,0,0],"sum_hessian":[3.3951706E2,5.6084905E0,3.3390857E2,1.9467347E0,3.661756E0,1.1529065E2,2.1861792E2,2.6490936E0,1.0126624E0,5.992965E1,5.5360996E1,1.4509792E2,7.352E1,5.4061443E1,5.8682065E0,6.192217E0,4.916878E1,1.19841774E2,2.5256145E1,6.5615845E1,7.9041524E0],"tree_param":{"num_deleted":"0","num_feature":"9","num_nodes":"21","size_leaf_vector":"1"}},{"base_weights":[-1.5849333E-2,-3.5270283E-1,1.5335337E-2,4.7375384E-1,-4.539952E-1,4.0419474E-3,4.6934925E-2,-1.7512117E-2,5.1316496E-2,1.8631703E-1,-5.736302E-1,4.3495167E-2,-2.3982063E-1,5.4548252E-2,-2.5772829E-2,-5.9153724E-2,-1.4341324E-2,-1.7767912E-3,1.1566915E-2,1.1077036E-2,-1.8818114E-2],"categories":[],"categories_nodes":[],"categories_segments":[],"categories_sizes":[],"default_left":[0,0,0,0,0,0,0,0,0,0,0,0,0,0,0,0,0,0,0,0,0],"id":34,"left_children":[1,3,5,7,9,11,-1,-1,-1,13,15,17,19,-1,-1,-1,-1,-1,-1,-1,-1],"loss_changes":[3.6026444E0,2.6475945E0,3.2745733E0,2.0267901E0,2.1288805E0,3.0082886E0,0E0,0E0,0E0,3.6796072E0,3.5909162E0,4.0023212E0,2.8264384E0,0E0,0E0,0E0,0E0,0E0,0E0,0E0,0E0],"parents":[2147483647,0,0,1,1,2,2,3,3,4,4,5,5,9,9,10,10,11,11,12,12],"right_children":[2,4,6,8,10,12,-1,-1,-1,14,16,18,20,-1,-1,-1,-1,-1,-1,-1,-1],"split_conditions":[7.0648546E0,6.341399E3,3.511019E-3,-9.419522E-5,2.8736617E-3,8.938942E-3,4.6934925E-2,-1.7512117E-2,5.1316496E-2,6.422109E3,3.3356345E-3,5.6034694E-3,6.3313423E3,5.4548252E-2,-2.5772829E-2,-5.9153724E-2,-1.4341324E-2,-1.7767912E-3,1.1566915E-2,1.1077036E-2,-1.8818114E-2],"split_indices":[2,5,0,0,3,3,0,0,0,6,3,3,5,0,0,0,0,0,0,0,0],"split_type":[0,0,0,0,0,0,0,0,0,0,0,0,0,0,0,0,0,0,0,0,0],"sum_hessian":[3.4144174E2,2.80575E1,3.1338425E2,2.6618724E0,2.5395628E1,3.1058987E2,2.7943585E0,1.215498E0,1.4463744E0,3.910172E0,2.1485456E1,2.6804584E2,4.2544056E1,1.4659066E0,2.4442654E0,5.875426E0,1.561003E1,1.8923856E2,7.8807274E1,9.573519E0,3.297054E1],"tree_param":{"num_deleted":"0","num_feature":"9","num_nodes":"21","size_leaf_vector":"1"}},{"base_weights":[-9.959202E-3,4.894079E-1,-3.441923E-2,1.1516087E0,-2.8765857E-2,-6.524512E-2,2.798756E-1,2.0298606E-2,6.2560976E-2,-5.3927626E-2,2.7583355E-1,-2.1364745E-2,-4.1719994E-1,-4.0963805E-1,6.961115E-1,2.5573164E-2,-1.6264576E-2,-4.113054E-3,1.8305989E-2,-6.610953E-2,-1.283966E-2,6.6770585E-3,-3.2156516E-2,-1.9021116E-2,4.0650852E-2],"categories":[],"categories_nodes":[],"categories_segments":[],"categories_sizes":[],"default_left":[0,0,0,0,0,0,0,0,0,0,0,0,0,0,0,0,0,0,0,0,0,0,0,0,0],"id":35,"left_children":[1,3,5,7,9,11,13,-1,-1,-1,15,17,19,21,23,-1,-1,-1,-1,-1,-1,-1,-1,-1,-1],"loss_changes":[4.1508603E0,5.4785447E0,3.1532474E0,1.12838745E-2,3.4563317E0,4.5546064E0,8.634287E0,0E0,0E0,0E0,1.3637211E0,6.2545447E0,4.407797E0,1.5545839E0,2.6389246E0,0E0,0E0,0E0,0E0,0E0,0E0,0E0,0E0,0E0,0E0],"parents":[2147483647,0,0,1,1,2,2,3,3,4,4,5,5,6,6,10,10,11,11,12,12,13,13,14,14],"right_children":[2,4,6,8,10,12,14,-1,-1,-1,16,18,20,22,24,-1,-1,-1,-1,-1,-1,-1,-1,-1,-1],"split_conditions":[6.196195E3,8.729495E0,6.726124E3,-1.1918857E-4,8.907483E0,6.679877E3,4.090203E-3,2.0298606E-2,6.2560976E-2,-5.3927626E-2,1.6554354E1,6.509775E3,6.684412E3,7.4929004E0,7.0216775E0,2.5573164E-2,-1.6264576E-2,-4.113054E-3,1.8305989E-2,-6.610953E-2,-1.283966E-2,6.6770585E-3,-3.2156516E-2,-1.9021116E-2,4.0650852E-2],"split_indices":[5,2,6,0,2,6,3,0,0,0,2,5,6,2,2,0,0,0,0,0,0,0,0,0,0],"split_type":[0,0,0,0,0,0,0,0,0,0,0,0,0,0,0,0,0,0,0,0,0,0,0,0,0],"sum_hessian":[3.3745053E2,1.4869603E1,3.2258093E2,5.990982E0,8.878621E0,2.944899E2,2.8091022E1,1.304174E0,4.686808E0,1.4253466E0,7.4532743E0,2.627873E2,3.1702608E1,1.0580235E1,1.7510788E1,5.4615903E0,1.9916842E0,2.2777786E2,3.500943E1,3.6826894E0,2.8019918E1,3.309448E0,7.2707863E0,1.4944963E0,1.601629E1],"tree_param":{"num_deleted":"0","num_feature":"9","num_nodes":"25","size_leaf_vector":"1"}},{"base_weights":[1.682389E-2,4.656521E-1,-1.2092077E-3,5.6231868E-2,1.22151166E-1,-2.0081297E-1,5.5222567E-2,4.5734775E-1,-4.304748E-1,1.6151085E-2,-7.463022E-1,7.871049E-1,6.0744085E-3,-3.343717E-3,4.5442704E-2,1.8410003E-2,-5.0285008E-2,-1.0249903E-2,3.416133E-2,-8.115075E-3,-6.658452E-2,5.409936E-2,-1.3470721E-2,-4.2434344E-3,9.169553E-3],"categories":[],"categories_nodes":[],"categories_segments":[],"categories_sizes":[],"default_left":[0,0,0,0,0,0,0,0,0,0,0,0,0,0,0,0,0,0,0,0,0,0,0,0,0],"id":36,"left_children":[1,3,5,-1,7,9,11,13,15,17,19,21,23,-1,-1,-1,-1,-1,-1,-1,-1,-1,-1,-1,-1],"loss_changes":[2.7655075E0,2.8501194E0,3.7216334E0,0E0,2.0117445E0,8.630535E0,9.261094E0,1.6189804E0,2.3063607E0,7.9702744E0,6.87527E0,5.339217E0,3.9243317E0,0E0,0E0,0E0,0E0,0E0,0E0,0E0,0E0,0E0,0E0,0E0,0E0],"parents":[2147483647,0,0,1,1,2,2,4,4,5,5,6,6,7,7,8,8,9,9,10,10,11,11,12,12],"right_children":[2,4,6,-1,8,10,12,14,16,18,20,22,24,-1,-1,-1,-1,-1,-1,-1,-1,-1,-1,-1,-1],"split_conditions":[6.1647275E3,8.570824E0,6.3208906E3,5.6231868E-2,6.9582954E1,6.297477E3,6.3457974E3,1.0236866E1,9E0,6.293283E3,1.4E1,9.570141E-4,5.9854614E1,-3.343717E-3,4.5442704E-2,1.8410003E-2,-5.0285008E-2,-1.0249903E-2,3.416133E-2,-8.115075E-3,-6.658452E-2,5.409936E-2,-1.3470721E-2,-4.2434344E-3,9.169553E-3],"split_indices":[5,2,6,0,4,6,5,2,7,6,7,0,4,0,0,0,0,0,0,0,0,0,0,0,0],"split_type":[0,0,0,0,0,0,0,0,0,0,0,0,0,0,0,0,0,0,0,0,0,0,0,0,0],"sum_hessian":[3.406142E2,1.2197862E1,3.2841635E2,3.4003863E0,8.797475E0,7.182103E1,2.565953E2,5.583313E0,3.2141619E0,5.207786E1,1.9743168E1,1.5202005E1,2.4139331E2,2.9778092E0,2.605504E0,1.4963917E0,1.7177703E0,3.96318E1,1.244606E1,1.0522681E1,9.220488E0,1.1866011E1,3.3359952E0,1.5990286E2,8.149045E1],"tree_param":{"num_deleted":"0","num_feature":"9","num_nodes":"25","size_leaf_vector":"1"}},{"base_weights":[1.7150985E-2,-1.700793E-1,8.909139E-2,6.679809E-1,-2.5910178E-1,1.4568126E-1,-2.0447323E-1,8.395417E-1,-7.5179012E-3,-1.0100689E0,-1.8351859E-1,1.2640361E-1,4.8956122E-2,2.9231656E-1,-5.051869E-1,5.6242146E-2,-3.979589E-3,2.4254136E-2,-6.823311E-2,6.800378E-2,-1.2783018E-2,1.0750185E-2,-2.1413623E-3,-1.9082082E-2,5.1966738E-2,-5.9178933E-3,-4.425324E-2],"categories":[],"categories_nodes":[],"categories_segments":[],"categories_sizes":[],"default_left":[0,0,0,0,0,0,0,0,0,0,0,0,0,0,0,0,0,0,0,0,0,0,0,0,0,0,0],"id":37,"left_children":[1,3,5,7,9,11,13,15,-1,17,19,21,-1,23,25,-1,-1,-1,-1,-1,-1,-1,-1,-1,-1,-1,-1],"loss_changes":[4.60438E0,7.2546215E0,4.1297474E0,1.4451027E0,4.725835E0,3.209992E0,6.1683984E0,2.1658168E0,0E0,4.739081E0,9.237932E0,3.0672245E0,0E0,8.366388E0,3.6382542E0,0E0,0E0,0E0,0E0,0E0,0E0,0E0,0E0,0E0,0E0,0E0,0E0],"parents":[2147483647,0,0,1,1,2,2,3,3,4,4,5,5,6,6,7,7,9,9,10,10,11,11,13,13,14,14],"right_children":[2,4,6,8,10,12,14,16,-1,18,20,22,-1,24,26,-1,-1,-1,-1,-1,-1,-1,-1,-1,-1,-1,-1],"split_conditions":[8.425412E0,6.2935425E3,8.938942E-3,8.178665E0,6.329013E3,1.5525849E1,4.841496E1,7.549324E1,-7.5179012E-3,4.128466E1,6.3457974E3,4.50535E-4,4.8956122E-2,1.0468617E-2,6.4212476E3,5.6242146E-2,-3.979589E-3,2.4254136E-2,-6.823311E-2,6.800378E-2,-1.2783018E-2,1.0750185E-2,-2.1413623E-3,-1.9082082E-2,5.1966738E-2,-5.9178933E-3,-4.425324E-2],"split_indices":[2,5,3,2,6,2,4,4,0,4,5,0,0,3,5,0,0,0,0,0,0,0,0,0,0,0,0],"split_type":[0,0,0,0,0,0,0,0,0,0,0,0,0,0,0,0,0,0,0,0,0,0,0,0,0,0,0],"sum_hessian":[3.3971448E2,9.391902E1,2.4579547E2,8.394012E0,8.552501E1,2.064938E2,3.930165E1,6.9178166E0,1.4761959E0,6.6901755E0,7.883483E1,2.0295119E2,3.542631E0,1.4829956E1,2.4471695E1,5.108361E0,1.8094556E0,1.2119522E0,5.4782233E0,2.7228146E0,7.611202E1,1.3303226E2,6.991893E1,8.053352E0,6.7766037E0,1.2774753E1,1.1696943E1],"tree_param":{"num_deleted":"0","num_feature":"9","num_nodes":"27","size_leaf_vector":"1"}},{"base_weights":[-1.1258598E-2,-3.4971437E-1,2.1725304E-2,7.556461E-1,-4.837239E-1,1.2504551E-1,-5.902335E-2,4.274856E-3,5.264193E-2,-9.672957E-1,-2.1141124E-1,6.7585625E-2,7.207078E-1,2.8837827E-1,-1.0408461E-1,2.8864152E-3,-6.803434E-2,1.857518E-2,-3.2956928E-2,-1.8896668E-3,1.3726668E-2,5.114161E-2,-3.1520259E-3,2.5935655E-2,-3.300421E-2,-1.6715711E-2,1.5271635E-3],"categories":[],"categories_nodes":[],"categories_segments":[],"categories_sizes":[],"default_left":[0,0,0,0,0,0,0,0,0,0,0,0,0,0,0,0,0,0,0,0,0,0,0,0,0,0,0],"id":38,"left_children":[1,3,5,7,9,11,13,-1,-1,15,17,19,21,23,25,-1,-1,-1,-1,-1,-1,-1,-1,-1,-1,-1,-1],"loss_changes":[3.831057E0,4.879304E0,2.6189106E0,6.4393115E-1,3.4545484E0,4.6622267E0,2.7911682E0,0E0,0E0,4.0023184E0,5.2182703E0,2.7719936E0,2.9072895E0,4.8245845E0,4.8723106E0,0E0,0E0,0E0,0E0,0E0,0E0,0E0,0E0,0E0,0E0,0E0,0E0],"parents":[2147483647,0,0,1,1,2,2,3,3,4,4,5,5,6,6,9,9,10,10,11,11,12,12,13,13,14,14],"right_children":[2,4,6,8,10,12,14,-1,-1,16,18,20,22,24,26,-1,-1,-1,-1,-1,-1,-1,-1,-1,-1,-1,-1],"split_conditions":[7.0648546E0,4.2235626E1,-3.2011525E-5,2.561515E-3,3.3356345E-3,-9.419522E-5,3.213315E-3,4.274856E-3,5.264193E-2,6.411375E3,3.6071397E-3,6.4899526E3,6.48835E3,6.54652E3,9.505662E0,2.8864152E-3,-6.803434E-2,1.857518E-2,-3.2956928E-2,-1.8896668E-3,1.3726668E-2,5.114161E-2,-3.1520259E-3,2.5935655E-2,-3.300421E-2,-1.6715711E-2,1.5271635E-3],"split_indices":[2,4,0,3,3,0,3,0,0,5,3,5,5,5,2,0,0,0,0,0,0,0,0,0,0,0,0],"split_type":[0,0,0,0,0,0,0,0,0,0,0,0,0,0,0,0,0,0,0,0,0,0,0,0,0,0,0],"sum_hessian":[3.4149365E2,2.9471981E1,3.1202167E2,2.6851468E0,2.6786835E1,1.3663925E2,1.753824E2,1.2205565E0,1.4645903E0,8.730715E0,1.805612E1,1.2563361E2,1.1005643E1,1.951684E1,1.5586557E2,2.658071E0,6.0726433E0,7.9178233E0,1.0138297E1,8.378645E1,4.1847157E1,7.7233453E0,3.2822976E0,1.606785E1,3.4489892E0,5.6965157E1,9.8900406E1],"tree_param":{"num_deleted":"0","num_feature":"9","num_nodes":"27","size_leaf_vector":"1"}},{"base_weights":[5.8641843E-3,3.271653E-2,-3.0539593E-1,8.111583E-3,4.142318E-1,-9.3350935E-1,-4.993572E-3,5.7329573E-2,-3.2877246E-1,6.5176463E-1,-2.7453047E-1,-2.912628E-1,-1.1396148E0,-2.6837182E-1,5.149394E-1,1.2477434E-3,2.7031807E-2,-2.8682265E-2,9.999002E-3,-1.6621942E-2,3.9434932E-2,-4.5934703E-2,9.0007465E-3,-3.069385E-2,8.182428E-3,-1.5069815E-2,-6.6696264E-2,2.1269184E-2,-4.9771573E-2,-2.7180051E-2,5.2847564E-2],"categories":[],"categories_nodes":[],"categories_segments":[],"categories_sizes":[],"default_left":[0,0,0,0,0,0,0,0,0,0,0,0,0,0,0,0,0,0,0,0,0,0,0,0,0,0,0,0,0,0,0],"id":39,"left_children":[1,3,5,7,9,11,13,15,17,19,21,23,25,27,29,-1,-1,-1,-1,-1,-1,-1,-1,-1,-1,-1,-1,-1,-1,-1,-1],"loss_changes":[2.8316278E0,2.922492E0,5.072516E0,4.8906527E0,3.2650945E0,8.19715E-1,2.7684963E0,4.0111995E0,4.983481E0,2.1924877E0,1.7877624E0,6.0781413E-1,6.1480904E-1,7.1858673E0,4.476572E0,0E0,0E0,0E0,0E0,0E0,0E0,0E0,0E0,0E0,0E0,0E0,0E0,0E0,0E0,0E0,0E0],"parents":[2147483647,0,0,1,1,2,2,3,3,4,4,5,5,6,6,7,7,8,8,9,9,10,10,11,11,12,12,13,13,14,14],"right_children":[2,4,6,8,10,12,14,16,18,20,22,24,26,28,30,-1,-1,-1,-1,-1,-1,-1,-1,-1,-1,-1,-1,-1,-1,-1,-1],"split_conditions":[9.6477335E-3,1.3794687E1,1.0295516E-2,1.157549E1,2.2E1,6.24429E3,6.42791E3,1.1120791E1,6.1095352E1,-1.3194905E-3,6.3581875E3,1.4E1,2.9694489E1,6.323445E3,7E0,1.2477434E-3,2.7031807E-2,-2.8682265E-2,9.999002E-3,-1.6621942E-2,3.9434932E-2,-4.5934703E-2,9.0007465E-3,-3.069385E-2,8.182428E-3,-1.5069815E-2,-6.6696264E-2,2.1269184E-2,-4.9771573E-2,-2.7180051E-2,5.2847564E-2],"split_indices":[3,2,3,2,7,5,6,2,4,1,5,7,4,5,7,0,0,0,0,0,0,0,0,0,0,0,0,0,0,0,0],"split_type":[0,0,0,0,0,0,0,0,0,0,0,0,0,0,0,0,0,0,0,0,0,0,0,0,0,0,0,0,0,0,0],"sum_hessian":[3.3659448E2,3.106865E2,2.590797E1,2.9282285E2,1.7863672E1,7.7001476E0,1.8207823E1,2.5621957E2,3.660327E1,1.3322775E1,4.5408974E0,2.4570112E0,5.243136E0,1.2406829E1,5.8009934E0,2.411196E2,1.5099971E1,2.4959341E1,1.164393E1,1.4528421E0,1.1869932E1,1.4561591E0,3.084738E0,1.233087E0,1.2239243E0,1.46679E0,3.7763462E0,6.5611496E0,5.8456793E0,1.9634588E0,3.837535E0],"tree_param":{"num_deleted":"0","num_feature":"9","num_nodes":"31","size_leaf_vector":"1"}},{"base_weights":[-1.9181909E-2,-1.1159803E-1,7.061809E-2,-1.4484276E-1,6.0081035E-1,1.0608377E-1,-5.5540216E-1,-2.3108297E-3,-2.6874554E-1,-2.083577E-2,1.071777E0,1.507469E-1,-2.3943561E-1,-8.305872E-1,3.7191745E-2,-4.8350487E-3,6.0563512E-2,-2.8287752E-2,-4.119431E-3,6.548359E-2,1.1283822E-2,1.0352595E-2,-1.2935922E-2,-1.816897E-2,2.419171E-2,1.1053539E-2,-5.23096E-2],"categories":[],"categories_nodes":[],"categories_segments":[],"categories_sizes":[],"default_left":[0,0,0,0,0,0,0,0,0,0,0,0,0,0,0,0,0,0,0,0,0,0,0,0,0,0,0],"id":40,"left_children":[1,3,5,7,9,11,13,15,17,-1,19,21,23,25,-1,-1,-1,-1,-1,-1,-1,-1,-1,-1,-1,-1,-1],"loss_changes":[2.840099E0,4.0795107E0,3.9154274E0,2.857921E0,4.1414623E0,2.5858545E0,4.004807E0,8.855249E0,4.745698E0,0E0,8.2166624E-1,3.4409513E0,1.9058962E0,2.1109648E0,0E0,0E0,0E0,0E0,0E0,0E0,0E0,0E0,0E0,0E0,0E0,0E0,0E0],"parents":[2147483647,0,0,1,1,2,2,3,3,4,4,5,5,6,6,7,7,8,8,10,10,11,11,12,12,13,13],"right_children":[2,4,6,8,10,12,14,16,18,-1,20,22,24,26,-1,-1,-1,-1,-1,-1,-1,-1,-1,-1,-1,-1,-1],"split_conditions":[9.505662E0,2.2E1,1.2862074E-2,6.4604624E3,3.2826972E-3,1.5724644E-3,6.5066123E3,6.448875E3,6.50868E3,-2.083577E-2,2.5585957E-4,2.2E1,3.511019E-3,6.41724E3,3.7191745E-2,-4.8350487E-3,6.0563512E-2,-2.8287752E-2,-4.119431E-3,6.548359E-2,1.1283822E-2,1.0352595E-2,-1.2935922E-2,-1.816897E-2,2.419171E-2,1.1053539E-2,-5.23096E-2],"split_indices":[2,7,3,5,3,0,5,6,5,0,0,7,0,5,0,0,0,0,0,0,0,0,0,0,0,0,0],"split_type":[0,0,0,0,0,0,0,0,0,0,0,0,0,0,0,0,0,0,0,0,0,0,0,0,0,0,0],"sum_hessian":[3.4027356E2,1.6757446E2,1.7269911E2,1.6086436E2,6.710093E0,1.6422583E2,8.473279E0,7.528207E1,8.55823E1,2.159555E0,4.550538E0,1.4592653E2,1.8299297E1,7.289943E0,1.1833358E0,7.070322E1,4.5788507E0,3.2210464E1,5.3371838E1,3.124221E0,1.4263173E0,1.2872067E2,1.7205862E1,1.6046982E1,2.2523167E0,1.2359557E0,6.0539875E0],"tree_param":{"num_deleted":"0","num_feature":"9","num_nodes":"27","size_leaf_vector":"1"}},{"base_weights":[-1.8207021E-2,-8.2351215E-2,1.11770116E-1,1.4048836E-1,-1.7354262E-1,6.2573755E-1,3.898932E-2,1.0549505E-2,7.9730636E-1,-6.281585E-2,-4.8844874E-1,8.9290637E-1,-3.055177E-1,-9.1553766E-1,1.02221675E-1,4.328439E-3,-5.5155206E-2,6.520757E-2,-2.0841123E-3,2.4170124E-3,-1.6783535E-2,6.812494E-3,-3.0537633E-2,1.7432658E-2,5.4749366E-2,1.9290924E-2,-3.7024435E-2,1.477577E-2,-7.052858E-2,-7.882084E-3,1.412645E-2],"categories":[],"categories_nodes":[],"categories_segments":[],"categories_sizes":[],"default_left":[0,0,0,0,0,0,0,0,0,0,0,0,0,0,0,0,0,0,0,0,0,0,0,0,0,0,0,0,0,0,0],"id":41,"left_children":[1,3,5,7,9,11,13,15,17,19,21,23,25,27,29,-1,-1,-1,-1,-1,-1,-1,-1,-1,-1,-1,-1,-1,-1,-1,-1],"loss_changes":[2.8410268E0,4.6575665E0,4.1898174E0,5.689411E0,5.6263194E0,3.7330985E0,6.114242E0,4.89978E0,4.7373805E0,3.6915526E0,3.2965775E0,8.3488846E-1,1.442105E0,4.192485E0,4.4701543E0,0E0,0E0,0E0,0E0,0E0,0E0,0E0,0E0,0E0,0E0,0E0,0E0,0E0,0E0,0E0,0E0],"parents":[2147483647,0,0,1,1,2,2,3,3,4,4,5,5,6,6,7,7,8,8,9,9,10,10,11,11,12,12,13,13,14,14],"right_children":[2,4,6,8,10,12,14,16,18,20,22,24,26,28,30,-1,-1,-1,-1,-1,-1,-1,-1,-1,-1,-1,-1,-1,-1,-1,-1],"split_conditions":[1.6E1,4.8239056E1,6.2789976E3,6.7086724E3,5.028254E-4,7.219352E1,6.2981177E3,6.6949526E3,8.990232E0,1.2E1,7.5467353E0,5.101214E1,8.689092E0,1.8E1,2E0,4.328439E-3,-5.5155206E-2,6.520757E-2,-2.0841123E-3,2.4170124E-3,-1.6783535E-2,6.812494E-3,-3.0537633E-2,1.7432658E-2,5.4749366E-2,1.9290924E-2,-3.7024435E-2,1.477577E-2,-7.052858E-2,-7.882084E-3,1.412645E-2],"split_indices":[7,4,5,5,0,4,5,5,2,7,2,4,2,7,8,0,0,0,0,0,0,0,0,0,0,0,0,0,0,0,0],"split_type":[0,0,0,0,0,0,0,0,0,0,0,0,0,0,0,0,0,0,0,0,0,0,0,0,0,0,0,0,0,0,0],"sum_hessian":[3.3865787E2,2.269993E2,1.1165857E2,6.576131E1,1.6123799E2,1.2907824E1,9.875075E1,5.574858E1,1.0012726E1,1.20179985E2,4.105801E1,1.0062238E1,2.8455865E0,5.2978506E0,9.3452896E1,5.3049618E1,2.6989617E0,5.896271E0,4.1164546E0,8.597725E1,3.420273E1,6.703604E0,3.4354404E1,3.4624166E0,6.599821E0,1.1425836E0,1.7030029E0,1.6541563E0,3.6436944E0,3.833265E1,5.5120247E1],"tree_param":{"num_deleted":"0","num_feature":"9","num_nodes":"31","size_leaf_vector":"1"}},{"base_weights":[-9.370594E-3,4.1906197E-2,-2.0305772E-1,8.722294E-1,1.9879496E-2,3.5552248E-1,-2.9269153E-1,2.186178E-1,5.902366E-2,-1.0582407E-1,1.1534117E-1,-3.1862427E-2,6.275063E-1,-7.283233E-1,-8.473523E-2,-1.9431328E-2,3.9735164E-2,-2.70654E-2,-1.5864624E-3,-1.3260073E-3,1.8890258E-2,-1.9337948E-3,4.9351454E-2,-5.8119293E-2,1.5305241E-2,-3.0953629E-2,2.5437197E-3],"categories":[],"categories_nodes":[],"categories_segments":[],"categories_sizes":[],"default_left":[0,0,0,0,0,0,0,0,0,0,0,0,0,0,0,0,0,0,0,0,0,0,0,0,0,0,0],"id":42,"left_children":[1,3,5,7,9,11,13,15,-1,17,19,-1,21,23,25,-1,-1,-1,-1,-1,-1,-1,-1,-1,-1,-1,-1],"loss_changes":[3.3884993E0,4.9192257E0,3.6793509E0,1.1425443E0,3.1797383E0,3.188043E0,5.562562E0,1.5175419E0,0E0,3.676E0,5.6139364E0,0E0,2.1001325E0,9.303938E0,3.158534E0,0E0,0E0,0E0,0E0,0E0,0E0,0E0,0E0,0E0,0E0,0E0,0E0],"parents":[2147483647,0,0,1,1,2,2,3,3,4,4,5,5,6,6,7,7,9,9,10,10,12,12,13,13,14,14],"right_children":[2,4,6,8,10,12,14,16,-1,18,20,-1,22,24,26,-1,-1,-1,-1,-1,-1,-1,-1,-1,-1,-1,-1],"split_conditions":[6.602847E1,6.231365E3,3.213315E-3,-4.5151825E-4,2E0,2.561515E-3,6.815657E1,9.322951E0,5.902366E-2,3.3356345E-3,1.5E1,-3.1862427E-2,2.0702615E-4,1.0818381E1,6.2950273E3,-1.9431328E-2,3.9735164E-2,-2.70654E-2,-1.5864624E-3,-1.3260073E-3,1.8890258E-2,-1.9337948E-3,4.9351454E-2,-5.8119293E-2,1.5305241E-2,-3.0953629E-2,2.5437197E-3],"split_indices":[4,5,3,1,8,3,4,2,0,3,7,0,1,2,5,0,0,0,0,0,0,0,0,0,0,0,0],"split_type":[0,0,0,0,0,0,0,0,0,0,0,0,0,0,0,0,0,0,0,0,0,0,0,0,0,0,0],"sum_hessian":[3.3932495E2,2.6891577E2,7.04092E1,5.9519267E0,2.6296384E2,9.325865E0,6.108334E1,2.455157E0,3.4967694E0,1.13456375E2,1.4950746E2,1.716712E0,7.609153E0,1.892872E1,4.2154617E1,1.353671E0,1.1014862E0,1.5580155E1,9.787622E1,9.763492E1,5.1872543E1,2.979912E0,4.629241E0,1.3246554E1,5.682165E0,7.811229E0,3.4343388E1],"tree_param":{"num_deleted":"0","num_feature":"9","num_nodes":"27","size_leaf_vector":"1"}},{"base_weights":[-3.3064883E-2,1.282246E-1,-1.0444724E-1,7.50779E-1,5.3510282E-2,1.2962128E-1,-1.9289835E-1,-5.8246492E-3,9.743003E-1,-1.18188396E-1,3.7987512E-1,3.89955E-2,1.0623976E0,-7.015335E-2,-1.4074141E-1,5.6462277E-2,-7.547669E-4,-8.46916E-3,4.0207766E-2,-1.2926348E-2,3.1867348E-2,1.8663755E-2,-1.7570546E-2,6.322886E-2,1.791559E-2,-1.40371965E-2,1.0519509E-2],"categories":[],"categories_nodes":[],"categories_segments":[],"categories_sizes":[],"default_left":[0,0,0,0,0,0,0,0,0,0,0,0,0,0,0,0,0,0,0,0,0,0,0,0,0,0,0],"id":43,"left_children":[1,3,5,7,9,11,13,-1,15,17,19,21,23,-1,25,-1,-1,-1,-1,-1,-1,-1,-1,-1,-1,-1,-1],"loss_changes":[3.8959644E0,4.792984E0,4.876254E0,2.2570028E0,5.303965E0,5.441431E0,1.0561668E1,0E0,1.3811731E0,3.0760856E0,5.5217314E0,7.98165E0,3.5907364E-1,0E0,8.147112E0,0E0,0E0,0E0,0E0,0E0,0E0,0E0,0E0,0E0,0E0,0E0,0E0],"parents":[2147483647,0,0,1,1,2,2,3,3,4,4,5,5,6,6,8,8,9,9,10,10,11,11,12,12,14,14],"right_children":[2,4,6,8,10,12,14,-1,16,18,20,22,24,-1,26,-1,-1,-1,-1,-1,-1,-1,-1,-1,-1,-1,-1],"split_conditions":[4.8239056E1,6.29412E3,3.638448E-3,3.5390253E-3,6.4859023E3,7.677848E1,3.755121E-3,-5.8246492E-3,4.7027027E1,1.1645723E-2,8.001383E0,6.1534485E1,8.001041E1,-7.015335E-2,1.6E1,5.6462277E-2,-7.547669E-4,-8.46916E-3,4.0207766E-2,-1.2926348E-2,3.1867348E-2,1.8663755E-2,-1.7570546E-2,6.322886E-2,1.791559E-2,-1.40371965E-2,1.0519509E-2],"split_indices":[4,5,3,3,5,4,3,0,4,3,2,4,4,0,7,0,0,0,0,0,0,0,0,0,0,0,0],"split_type":[0,0,0,0,0,0,0,0,0,0,0,0,0,0,0,0,0,0,0,0,0,0,0,0,0,0,0],"sum_hessian":[3.3622717E2,1.0290823E2,2.3331895E2,1.0057319E1,9.2850914E1,6.3860138E1,1.6945882E2,2.1590288E0,7.89829E0,6.126016E1,3.1590755E1,5.9154655E1,4.7054853E0,5.931546E0,1.6352727E2,6.706641E0,1.1916486E0,5.881214E1,2.4480193E0,9.077922E0,2.2512833E1,3.1891727E1,2.7262926E1,3.0372717E0,1.668214E0,1.1705556E2,4.6471706E1],"tree_param":{"num_deleted":"0","num_feature":"9","num_nodes":"27","size_leaf_vector":"1"}},{"base_weights":[3.9093657E-3,1.8333262E-1,-5.669157E-2,7.8448005E-2,9.125042E-1,-8.780386E-1,-1.9196654E-2,5.6824976E-1,-2.4381287E-2,6.964419E-2,2.9614094E-1,2.5274819E-2,-1.1035956E0,-5.243327E-2,3.7773725E-1,-4.3786E-2,4.2663317E-2,-1.4826464E-2,1.2722233E-2,-9.750021E-3,3.9624233E-2,-6.799108E-2,1.0313888E-2,-1.2157838E-2,3.1251237E-3,4.390177E-2,-5.8103324E-4],"categories":[],"categories_nodes":[],"categories_segments":[],"categories_sizes":[],"default_left":[0,0,0,0,0,0,0,0,0,0,0,0,0,0,0,0,0,0,0,0,0,0,0,0,0,0,0],"id":44,"left_children":[1,3,5,7,9,11,13,15,17,-1,19,-1,21,23,25,-1,-1,-1,-1,-1,-1,-1,-1,-1,-1,-1,-1],"loss_changes":[3.597048E0,6.315862E0,7.600382E0,3.7464974E0,2.6693954E0,3.9206867E0,3.153957E0,6.0563974E0,4.796075E0,0E0,1.5755174E0,0E0,3.4956446E0,4.8397603E0,3.6094646E0,0E0,0E0,0E0,0E0,0E0,0E0,0E0,0E0,0E0,0E0,0E0,0E0],"parents":[2147483647,0,0,1,1,2,2,3,3,4,4,5,5,6,6,7,7,8,8,10,10,12,12,13,13,14,14],"right_children":[2,4,6,8,10,12,14,16,18,-1,20,-1,22,24,26,-1,-1,-1,-1,-1,-1,-1,-1,-1,-1,-1,-1],"split_conditions":[3.638448E-3,3.5590725E-3,3.7615143E-3,6.282565E3,6E0,6.2981177E3,6.744185E3,6.130302E3,6.50868E3,6.964419E-2,1.3E1,2.5274819E-2,1.9E1,9.856012E0,-3.2011525E-5,-4.3786E-2,4.2663317E-2,-1.4826464E-2,1.2722233E-2,-9.750021E-3,3.9624233E-2,-6.799108E-2,1.0313888E-2,-1.2157838E-2,3.1251237E-3,4.390177E-2,-5.8103324E-4],"split_indices":[3,3,3,6,7,5,5,6,5,0,7,0,7,2,0,0,0,0,0,0,0,0,0,0,0,0,0],"split_type":[0,0,0,0,0,0,0,0,0,0,0,0,0,0,0,0,0,0,0,0,0,0,0,0,0,0,0],"sum_hessian":[3.288614E2,8.251908E1,2.4634232E2,7.311041E1,9.408673E0,9.776002E0,2.3656631E2,1.1900273E1,6.1210136E1,4.579597E0,4.8290763E0,1.1963929E0,8.579609E0,2.1908914E2,1.747717E1,1.6200657E0,1.0280208E1,3.094388E1,3.0266256E1,2.732421E0,2.0966554E0,7.144025E0,1.435584E0,8.196367E1,1.3712547E2,7.0995946E0,1.0377576E1],"tree_param":{"num_deleted":"0","num_feature":"9","num_nodes":"27","size_leaf_vector":"1"}},{"base_weights":[2.4428792E-2,-5.302733E-2,2.2155957E-1,3.0013504E-3,-4.2803583E-1,6.756082E-1,7.260015E-2,-3.5133053E-2,5.431538E-1,-1.0111103E0,9.658302E-2,1.1255556E0,1.2113541E-1,-3.6408705E-1,2.3140594E-1,2.1965994E-2,-3.9239484E-3,5.01389E-2,4.5965533E-3,-7.804046E-2,-2.1906853E-2,2.5398476E-2,-3.575248E-2,6.957255E-2,1.1901363E-2,-3.8545743E-2,1.5088873E-2,-4.0958446E-2,3.0199683E-3,5.0537754E-2,5.9301844E-3],"categories":[],"categories_nodes":[],"categories_segments":[],"categories_sizes":[],"default_left":[0,0,0,0,0,0,0,0,0,0,0,0,0,0,0,0,0,0,0,0,0,0,0,0,0,0,0,0,0,0,0],"id":45,"left_children":[1,3,5,7,9,11,13,15,17,19,21,23,25,27,29,-1,-1,-1,-1,-1,-1,-1,-1,-1,-1,-1,-1,-1,-1,-1,-1],"loss_changes":[5.1160245E0,5.060786E0,6.341802E0,4.354887E0,9.67437E0,5.6569986E0,5.096009E0,4.097229E0,2.7991624E0,4.013776E0,6.1705356E0,2.665474E0,2.089482E0,3.847573E0,4.5929155E0,0E0,0E0,0E0,0E0,0E0,0E0,0E0,0E0,0E0,0E0,0E0,0E0,0E0,0E0,0E0,0E0],"parents":[2147483647,0,0,1,1,2,2,3,3,4,4,5,5,6,6,7,7,8,8,9,9,10,10,11,11,12,12,13,13,14,14],"right_children":[2,4,6,8,10,12,14,16,18,20,22,24,26,28,30,-1,-1,-1,-1,-1,-1,-1,-1,-1,-1,-1,-1,-1,-1,-1,-1],"split_conditions":[6.509775E3,6.478124E3,6.659592E3,6.4756675E3,9.04919E0,6.732649E1,8.001383E0,3.1404123E-3,5.866005E1,3.7615143E-3,5.8494876E-3,9.157527E0,6.815657E1,6.7206025E3,8.5025E0,2.1965994E-2,-3.9239484E-3,5.01389E-2,4.5965533E-3,-7.804046E-2,-2.1906853E-2,2.5398476E-2,-3.575248E-2,6.957255E-2,1.1901363E-2,-3.8545743E-2,1.5088873E-2,-4.0958446E-2,3.0199683E-3,5.0537754E-2,5.9301844E-3],"split_indices":[5,6,6,5,2,4,2,3,4,3,3,2,4,5,2,0,0,0,0,0,0,0,0,0,0,0,0,0,0,0,0],"split_type":[0,0,0,0,0,0,0,0,0,0,0,0,0,0,0,0,0,0,0,0,0,0,0,0,0,0,0,0,0,0,0],"sum_hessian":[3.332904E2,2.3979985E2,9.349054E1,2.0949234E2,3.0307508E1,2.2221342E1,7.12692E1,1.9655093E2,1.2941408E1,1.3914861E1,1.6392647E1,1.1698338E1,1.05230055E1,1.8661312E1,5.2607887E1,1.568892E1,1.8086201E2,5.805479E0,7.135929E0,6.22177E0,7.6930904E0,1.1126948E1,5.265699E0,8.564662E0,3.1336753E0,1.2218083E0,9.301197E0,8.557369E0,1.0103943E1,5.645158E0,4.696273E1],"tree_param":{"num_deleted":"0","num_feature":"9","num_nodes":"31","size_leaf_vector":"1"}},{"base_weights":[3.9797975E-3,2.5323364E-1,-2.757689E-2,6.6695556E-2,6.6992E-1,-7.4180406E-1,-1.5915219E-2,3.358362E-1,-7.259869E-1,2.310766E-1,5.482171E-2,-5.2584214E-3,-6.0977846E-2,-4.06999E-3,-6.28493E-1,4.2985477E-2,3.638106E-3,1.1367704E-2,-5.8418613E-2,-2.2207175E-3,3.2753836E-2,6.744283E-4,-2.2174302E-2,-5.0519567E-2,2.1621978E-2],"categories":[],"categories_nodes":[],"categories_segments":[],"categories_sizes":[],"default_left":[0,0,0,0,0,0,0,0,0,0,0,0,0,0,0,0,0,0,0,0,0,0,0,0,0],"id":46,"left_children":[1,3,5,7,9,11,13,15,17,19,-1,-1,-1,21,23,-1,-1,-1,-1,-1,-1,-1,-1,-1,-1],"loss_changes":[2.6506937E0,2.8988128E0,2.4805896E0,6.061527E0,1.917831E0,1.3272653E0,2.1412973E0,2.8372705E0,3.3141012E0,8.4492457E-1,0E0,0E0,0E0,2.2500877E0,2.7051542E0,0E0,0E0,0E0,0E0,0E0,0E0,0E0,0E0,0E0,0E0],"parents":[2147483647,0,0,1,1,2,2,3,3,4,4,5,5,6,6,7,7,8,8,9,9,13,13,14,14],"right_children":[2,4,6,8,10,12,14,16,18,20,-1,-1,-1,22,24,-1,-1,-1,-1,-1,-1,-1,-1,-1,-1],"split_conditions":[3.948422E1,6.473825E3,4.03667E1,6.442725E3,1.8E1,-4.5141633E-4,8.0684296E1,5.338418E-3,4.2645E-3,5.527516E-3,5.482171E-2,-5.2584214E-3,-6.0977846E-2,1.2231126E-2,8.873044E-4,4.2985477E-2,3.638106E-3,1.1367704E-2,-5.8418613E-2,-2.2207175E-3,3.2753836E-2,6.744283E-4,-2.2174302E-2,-5.0519567E-2,2.1621978E-2],"split_indices":[4,5,4,5,7,0,4,3,3,3,0,0,0,3,0,0,0,0,0,0,0,0,0,0,0],"split_type":[0,0,0,0,0,0,0,0,0,0,0,0,0,0,0,0,0,0,0,0,0,0,0,0,0],"sum_hessian":[3.351093E2,3.686921E1,2.9824008E2,2.6269293E1,1.0599918E1,3.7854774E0,2.9445462E2,2.0041054E1,6.2282386E0,5.9843545E0,4.615564E0,2.1459696E0,1.6395078E0,2.8985638E2,4.59822E0,5.941498E0,1.4099556E1,2.1281483E0,4.1000905E0,4.1701074E0,1.8142474E0,2.7965115E2,1.0205234E1,3.4161608E0,1.182059E0],"tree_param":{"num_deleted":"0","num_feature":"9","num_nodes":"25","size_leaf_vector":"1"}},{"base_weights":[-7.6706046E-3,1.0414268E-1,-1.184206E-1,6.018074E-1,8.005008E-2,-5.6839204E-1,-4.4515487E-2,5.614342E-2,1.5434417E-1,1.7439348E-1,-9.085197E-2,-7.186242E-1,2.2920251E-1,2.8671798E-1,-1.238654E-1,-2.0447548E-2,4.4534292E-2,-8.53104E-3,1.4196649E-2,8.776379E-3,-2.0733103E-2,-2.1967797E-2,-4.936206E-2,-2.136986E-2,4.765487E-2,3.0548861E-2,-8.294276E-3,-1.2775825E-2,5.1184236E-3],"categories":[],"categories_nodes":[],"categories_segments":[],"categories_sizes":[],"default_left":[0,0,0,0,0,0,0,0,0,0,0,0,0,0,0,0,0,0,0,0,0,0,0,0,0,0,0,0,0],"id":47,"left_children":[1,3,5,7,9,11,13,-1,15,17,19,21,23,25,27,-1,-1,-1,-1,-1,-1,-1,-1,-1,-1,-1,-1,-1,-1],"loss_changes":[4.3117876E0,2.029715E0,5.790896E0,1.6567111E0,2.6996365E0,3.1109772E0,4.0123878E0,0E0,2.596596E0,4.114582E0,5.2362504E0,1.1365452E0,2.6201313E0,4.4371996E0,3.6825552E0,0E0,0E0,0E0,0E0,0E0,0E0,0E0,0E0,0E0,0E0,0E0,0E0,0E0,0E0],"parents":[2147483647,0,0,1,1,2,2,3,3,4,4,5,5,6,6,8,8,9,9,10,10,11,11,12,12,13,13,14,14],"right_children":[2,4,6,8,10,12,14,-1,16,18,20,22,24,26,28,-1,-1,-1,-1,-1,-1,-1,-1,-1,-1,-1,-1,-1,-1],"split_conditions":[1.0156012E-4,6.217815E3,2.1595698E-4,8E0,5.646619E1,1.9E1,4.753258E1,5.614342E-2,6.1481924E3,7E0,1.2E1,3E0,6.4245073E3,1.5E1,1.6E1,-2.0447548E-2,4.4534292E-2,-8.53104E-3,1.4196649E-2,8.776379E-3,-2.0733103E-2,-2.1967797E-2,-4.936206E-2,-2.136986E-2,4.765487E-2,3.0548861E-2,-8.294276E-3,-1.2775825E-2,5.1184236E-3],"split_indices":[0,5,0,7,4,7,4,0,5,7,7,8,5,7,7,0,0,0,0,0,0,0,0,0,0,0,0,0,0],"split_type":[0,0,0,0,0,0,0,0,0,0,0,0,0,0,0,0,0,0,0,0,0,0,0,0,0,0,0,0,0],"sum_hessian":[3.4619727E2,1.7230135E2,1.7389594E2,6.8489184E0,1.6545242E2,2.3588211E1,1.5030772E2,2.466881E0,4.3820376E0,1.0659058E2,5.8861843E1,1.9932756E1,3.6554544E0,2.854362E1,1.217641E2,2.734662E0,1.6473753E0,2.5552088E1,8.10385E1,3.254605E1,2.6315794E1,1.10648155E1,8.867941E0,2.1316001E0,1.5238543E0,1.642577E1,1.211785E1,7.68903E1,4.4873802E1],"tree_param":{"num_deleted":"0","num_feature":"9","num_nodes":"29","size_leaf_vector":"1"}},{"base_weights":[1.004997E-2,4.0946405E-2,-1.9923773E-1,1.6858881E-2,6.5643996E-1,-5.842325E-1,-2.2941755E-2,3.9369725E-2,-6.7727643E-1,-5.5011165E-1,1.0491364E0,2.9620577E-2,-7.70542E-1,2.6668772E-1,-3.806392E-1,5.4461393E-3,-9.713004E-3,-4.5531835E-2,2.3940211E-2,-6.5904483E-4,-4.1428655E-2,6.0107935E-2,2.523301E-2,-4.5046404E-2,2.110833E-3,4.398635E-2,-2.6163515E-3,-3.164942E-2,2.9201156E-2],"categories":[],"categories_nodes":[],"categories_segments":[],"categories_sizes":[],"default_left":[0,0,0,0,0,0,0,0,0,0,0,0,0,0,0,0,0,0,0,0,0,0,0,0,0,0,0,0,0],"id":48,"left_children":[1,3,5,7,9,11,13,15,17,19,21,-1,23,25,27,-1,-1,-1,-1,-1,-1,-1,-1,-1,-1,-1,-1,-1,-1],"loss_changes":[2.2086182E0,4.3974214E0,2.9693043E0,4.5140424E0,5.8707285E0,3.4733734E0,3.3321092E0,4.5565395E0,2.884492E0,4.9734032E-1,1.24258995E-1,0E0,1.3431282E0,3.5309196E0,3.8663826E0,0E0,0E0,0E0,0E0,0E0,0E0,0E0,0E0,0E0,0E0,0E0,0E0,0E0,0E0],"parents":[2147483647,0,0,1,1,2,2,3,3,4,4,5,5,6,6,7,7,8,8,9,9,10,10,12,12,13,13,14,14],"right_children":[2,4,6,8,10,12,14,16,18,20,22,-1,24,26,28,-1,-1,-1,-1,-1,-1,-1,-1,-1,-1,-1,-1,-1,-1],"split_conditions":[8.7242415E-3,8.317009E-3,1.1874823E1,7.634935E-3,6.375705E3,8.178665E0,1E1,6.659592E3,6.6889927E3,-1.7228148E-4,1.9E1,2.9620577E-2,1.312305E-2,1.3047819E1,1.7152117E-3,5.4461393E-3,-9.713004E-3,-4.5531835E-2,2.3940211E-2,-6.5904483E-4,-4.1428655E-2,6.0107935E-2,2.523301E-2,-4.5046404E-2,2.110833E-3,4.398635E-2,-2.6163515E-3,-3.164942E-2,2.9201156E-2],"split_indices":[3,3,2,3,5,2,7,6,5,0,7,0,3,2,0,0,0,0,0,0,0,0,0,0,0,0,0,0,0],"split_type":[0,0,0,0,0,0,0,0,0,0,0,0,0,0,0,0,0,0,0,0,0,0,0,0,0,0,0,0,0],"sum_hessian":[3.3929956E2,2.9635416E2,4.2945408E1,2.8618173E2,1.0172418E1,1.2761954E1,3.0183455E1,2.7810602E2,8.075709E0,2.399413E0,7.7730045E0,1.4465436E0,1.1315411E1,1.6819252E1,1.3364203E1,2.1471716E2,6.3388866E1,6.896022E0,1.1796874E0,1.1770856E0,1.2223275E0,5.124789E0,2.6482153E0,9.657615E0,1.6577958E0,5.1551485E0,1.1664103E1,1.0865647E1,2.4985561E0],"tree_param":{"num_deleted":"0","num_feature":"9","num_nodes":"29","size_leaf_vector":"1"}},{"base_weights":[-8.493306E-3,2.0715178E-3,-6.028225E-2,-1.3820769E-2,5.1620734E-1,4.0570623E-1,-3.5079718E-2,-2.8133819E-2,8.3014643E-1,2.7420188E-3,4.3125305E-2,-2.9269306E-3,1.4144883E-2,6.9117226E-2,1.4390398E-3],"categories":[],"categories_nodes":[],"categories_segments":[],