{"learner":{"attributes":{"scikit_learn":"{\"_estimator_type\": \"classifier\"}"},"feature_names":[],"feature_types":[],"gradient_booster":{"model":{"cats":{"enc":[],"feature_segments":[],"sorted_idx":[]},"gbtree_model_param":{"num_parallel_tree":"1","num_trees":"200"},"iteration_indptr":[0,1,2,3,4,5,6,7,8,9,10,11,12,13,14,15,16,17,18,19,20,21,22,23,24,25,26,27,28,29,30,31,32,33,34,35,36,37,38,39,40,41,42,43,44,45,46,47,48,49,50,51,52,53,54,55,56,57,58,59,60,61,62,63,64,65,66,67,68,69,70,71,72,73,74,75,76,77,78,79,80,81,82,83,84,85,86,87,88,89,90,91,92,93,94,95,96,97,98,99,100,101,102,103,104,105,106,107,108,109,110,111,112,113,114,115,116,117,118,119,120,121,122,123,124,125,126,127,128,129,130,131,132,133,134,135,136,137,138,139,140,141,142,143,144,145,146,147,148,149,150,151,152,153,154,155,156,157,158,159,160,161,162,163,164,165,166,167,168,169,170,171,172,173,174,175,176,177,178,179,180,181,182,183,184,185,186,187,188,189,190,191,192,193,194,195,196,197,198,199,200],"tree_info":[0,0,0,0,0,0,0,0,0,0,0,0,0,0,0,0,0,0,0,0,0,0,0,0,0,0,0,0,0,0,0,0,0,0,0,0,0,0,0,0,0,0,0,0,0,0,0,0,0,0,0,0,0,0,0,0,0,0,0,0,0,0,0,0,0,0,0,0,0,0,0,0,0,0,0,0,0,0,0,0,0,0,0,0,0,0,0,0,0,0,0,0,0,0,0,0,0,0,0,0,0,0,0,0,0,0,0,0,0,0,0,0,0,0,0,0,0,0,0,0,0,0,0,0,0,0,0,0,0,0,0,0,0,0,0,0,0,0,0,0,0,0,0,0,0,0,0,0,0,0,0,0,0,0,0,0,0,0,0,0,0,0,0,0,0,0,0,0,0,0,0,0,0,0,0,0,0,0,0,0,0,0,0,0,0,0,0,0,0,0,0,0,0,0,0,0,0,0,0,0],"trees":[{"base_weights":[-1.8600313E-5,-8.320448E-1,3.8272683E-2,5.7899487E-1,-1.0456562E0,5.6204563E-1,8.07668E-3,-1.5754696E-2,6.0223382E-2,1.3316752E-2,-1.2533349E0,6.59632E-1,-6.1643846E-2,-8.018919E-2,1.5646629E-1,3.5768148E-2,-4.0489536E-2,-6.682943E-2,5.418419E-3,1.9133443E-2,6.3357346E-2,-2.3227258E-2,-3.7347092E-4,2.2523215E-3,6.0321506E-2],"categories":[],"categories_nodes":[],"categories_segments":[],"categories_sizes":[],"default_left":[0,0,0,0,0,0,0,0,0,0,0,0,0,0,0,0,0,0,0,0,0,0,0,0,0],"id":0,"left_children":[1,3,5,7,9,11,13,-1,-1,15,17,19,-1,21,23,-1,-1,-1,-1,-1,-1,-1,-1,-1,-1],"loss_changes":[2.239638E1,9.927811E0,1.06244755E1,3.013587E0,6.0027733E0,7.227212E0,8.348348E0,0E0,0E0,3.7299104E0,2.7257996E0,5.4682856E0,0E0,1.1168841E1,2.7754549E1,0E0,0E0,0E0,0E0,0E0,0E0,0E0,0E0,0E0,0E0],"parents":[2147483647,0,0,1,1,2,2,3,3,4,4,5,5,6,6,9,9,10,10,11,11,13,13,14,14],"right_children":[2,4,6,8,10,12,14,-1,-1,16,18,20,-1,22,24,-1,-1,-1,-1,-1,-1,-1,-1,-1,-1],"split_conditions":[1.900996E1,8E0,2.2533404E4,7E0,1.706606E1,7.7050125E1,7.1782046E-3,-1.5754696E-2,6.0223382E-2,6.264487E-5,7.3056046E1,8.959899E-3,-6.1643846E-2,2.2971215E4,2.4824723E4,3.5768148E-2,-4.0489536E-2,-6.682943E-2,5.418419E-3,1.9133443E-2,6.3357346E-2,-2.3227258E-2,-3.7347092E-4,2.2523215E-3,6.0321506E-2],"split_indices":[2,7,6,7,2,4,3,0,0,0,4,3,0,6,6,0,0,0,0,0,0,0,0,0,0],"split_type":[0,0,0,0,0,0,0,0,0,0,0,0,0,0,0,0,0,0,0,0,0,0,0,0,0],"sum_hessian":[7.009771E2,2.9928804E1,6.7104834E2,3.7101824E0,2.6218622E1,3.5617752E1,6.3543054E2,1.7314185E0,1.9787639E0,4.452219E0,2.1766403E1,3.4381023E1,1.2367275E0,3.9872095E2,2.3670964E2,2.473455E0,1.9787639E0,2.0529676E1,1.2367275E0,2.4734549E1,9.646474E0,6.257841E1,3.3614252E2,2.1494324E2,2.1766403E1],"tree_param":{"num_deleted":"0","num_feature":"9","num_nodes":"25","size_leaf_vector":"1"}},{"base_weights":[-1.0098412E-2,-7.5844467E-1,2.4870938E-2,1.3196161E-1,-1.0235176E0,4.689552E-1,-9.3153855E-3,-4.979242E-1,6.267095E-2,-1.1357563E-1,-1.1936327E0,7.270724E-1,-1.9899075E-1,-9.216727E-2,1.2221435E-1,9.87644E-3,-4.4688683E-2,-3.811623E-2,2.8663522E-2,-6.856646E-2,-8.862815E-4,5.8592785E-2,1.7454796E-2,-4.4561367E-2,1.4601267E-2,5.515088E-3,-1.0268229E-2,1.8533667E-3,4.7374878E-2],"categories":[],"categories_nodes":[],"categories_segments":[],"categories_sizes":[],"default_left":[0,0,0,0,0,0,0,0,0,0,0,0,0,0,0,0,0,0,0,0,0,0,0,0,0,0,0,0,0],"id":1,"left_children":[1,3,5,7,9,11,13,15,-1,17,19,21,23,25,27,-1,-1,-1,-1,-1,-1,-1,-1,-1,-1,-1,-1,-1,-1],"loss_changes":[1.862741E1,7.6350594E0,1.0332565E1,6.399208E0,3.672552E0,8.531894E0,6.905694E0,1.8147719E0,0E0,2.6560442E0,4.284567E0,5.5259647E0,5.1359034E0,8.931887E0,1.7176517E1,0E0,0E0,0E0,0E0,0E0,0E0,0E0,0E0,0E0,0E0,0E0,0E0,0E0,0E0],"parents":[2147483647,0,0,1,1,2,2,3,3,4,4,5,5,6,6,7,7,9,9,10,10,11,11,12,12,13,13,14,14],"right_children":[2,4,6,8,10,12,14,16,-1,18,20,22,24,26,28,-1,-1,-1,-1,-1,-1,-1,-1,-1,-1,-1,-1,-1,-1],"split_conditions":[1.900996E1,9E0,2.2735098E4,2.9634696E-3,4.9791954E1,6.748899E1,7.0439996E-3,-7.23335E-5,6.267095E-2,0E0,7.1403625E1,1.1E1,3.0993074E1,4.2452547E-3,2.4824723E4,9.87644E-3,-4.4688683E-2,-3.811623E-2,2.8663522E-2,-6.856646E-2,-8.862815E-4,5.8592785E-2,1.7454796E-2,-4.4561367E-2,1.4601267E-2,5.515088E-3,-1.0268229E-2,1.8533667E-3,4.7374878E-2],"split_indices":[2,7,6,3,4,4,3,0,0,0,4,7,2,3,6,0,0,0,0,0,0,0,0,0,0,0,0,0,0],"split_type":[0,0,0,0,0,0,0,0,0,0,0,0,0,0,0,0,0,0,0,0,0,0,0,0,0,0,0,0,0],"sum_hessian":[7.1008636E2,3.077659E1,6.7930975E2,7.1755114E0,2.3601078E1,4.764737E1,6.316624E2,4.9508076E0,2.2247036E0,3.9799657E0,1.9621113E1,3.4302994E1,1.3344375E1,3.8772797E2,2.4393443E2,1.9775409E0,2.9732668E0,1.990233E0,1.9897326E0,1.690095E1,2.7201626E0,1.4793926E1,1.9509068E1,5.1993055E0,8.14507E0,1.3904762E2,2.4868034E2,2.2206792E2,2.1866518E1],"tree_param":{"num_deleted":"0","num_feature":"9","num_nodes":"29","size_leaf_vector":"1"}},{"base_weights":[1.5162313E-2,4.5960048E-1,-1.903618E-2,7.3130476E-1,-1.6735359E-1,-9.812934E-2,1.325932E-1,4.5932865E-1,1.2185429E0,-5.502292E-1,4.5710993E-1,-4.0276177E-2,-5.04718E-1,1.1460458E0,6.9599405E-2,4.8399474E-3,5.4305073E-2,7.3479466E-2,1.6662333E-2,-6.757162E-2,-4.550254E-3,4.0854696E-2,-2.5008265E-3,-2.7834615E-2,-4.123399E-4,-4.4885658E-2,-8.641583E-4,6.974515E-2,-1.5554179E-2,-1.4500322E-3,2.8341979E-2],"categories":[],"categories_nodes":[],"categories_segments":[],"categories_sizes":[],"default_left":[0,0,0,0,0,0,0,0,0,0,0,0,0,0,0,0,0,0,0,0,0,0,0,0,0,0,0,0,0,0,0],"id":2,"left_children":[1,3,5,7,9,11,13,15,17,19,21,23,25,27,29,-1,-1,-1,-1,-1,-1,-1,-1,-1,-1,-1,-1,-1,-1,-1,-1],"loss_changes":[1.0736057E1,8.719408E0,7.8841205E0,4.1307964E0,4.094313E0,1.0139061E1,1.4311005E1,5.421093E0,2.1939049E0,3.7098799E0,1.2558146E0,6.2673793E0,1.0273746E1,5.193882E0,1.0473518E1,0E0,0E0,0E0,0E0,0E0,0E0,0E0,0E0,0E0,0E0,0E0,0E0,0E0,0E0,0E0,0E0],"parents":[2147483647,0,0,1,1,2,2,3,3,4,4,5,5,6,6,7,7,8,8,9,9,10,10,11,11,12,12,13,13,14,14],"right_children":[2,4,6,8,10,12,14,16,18,20,22,24,26,28,30,-1,-1,-1,-1,-1,-1,-1,-1,-1,-1,-1,-1,-1,-1,-1,-1],"split_conditions":[2.2735098E4,6.748899E1,3.5189606E1,3E0,4.002153E1,6.759174E-4,5.4729157E-3,9.106362E-3,6.218981E-3,3E0,9.655096E-3,1.85543E1,5.2335653E-3,2.4545053E4,6.59638E1,4.8399474E-3,5.4305073E-2,7.3479466E-2,1.6662333E-2,-6.757162E-2,-4.550254E-3,4.0854696E-2,-2.5008265E-3,-2.7834615E-2,-4.123399E-4,-4.4885658E-2,-8.641583E-4,6.974515E-2,-1.5554179E-2,-1.4500322E-3,2.8341979E-2],"split_indices":[6,4,2,8,2,0,3,3,3,8,3,2,3,6,4,0,0,0,0,0,0,0,0,0,0,0,0,0,0,0,0],"split_type":[0,0,0,0,0,0,0,0,0,0,0,0,0,0,0,0,0,0,0,0,0,0,0,0,0,0,0,0,0,0,0],"sum_hessian":[7.04785E2,4.9467964E1,6.55317E2,3.439549E1,1.5072477E1,4.3090204E2,2.2441496E2,2.3320639E1,1.1074848E1,9.417333E0,5.6551456E0,3.781889E2,5.2713127E1,1.2126658E1,2.122883E2,1.5506191E1,7.814448E0,8.113952E0,2.9608967E0,2.7232494E0,6.6940827E0,2.9499202E0,2.7052255E0,2.1129705E1,3.570592E2,2.8717714E1,2.3995413E1,1.0394183E1,1.7324754E0,1.7794453E2,3.4343765E1],"tree_param":{"num_deleted":"0","num_feature":"9","num_nodes":"31","size_leaf_vector":"1"}},{"base_weights":[1.4099063E-2,6.4130217E-1,-3.0149594E-2,7.534617E-1,-9.7163767E-1,-1.0506594E0,-1.5381524E-2,9.485228E-1,3.303943E-1,-1.540543E-2,-6.0070287E-2,-1.160349E-2,-1.2058423E0,-9.146316E-2,1.3713922E-1,-1.8046986E-2,5.329299E-2,3.2931075E-2,-3.51036E-2,-1.450599E-2,-7.1156375E-2,-3.370582E-3,-4.2510174E-2,1.0101385E-3,3.1961016E-2],"categories":[],"categories_nodes":[],"categories_segments":[],"categories_sizes":[],"default_left":[0,0,0,0,0,0,0,0,0,0,0,0,0,0,0,0,0,0,0,0,0,0,0,0,0],"id":3,"left_children":[1,3,5,7,9,11,13,15,17,-1,-1,-1,19,21,23,-1,-1,-1,-1,-1,-1,-1,-1,-1,-1],"loss_changes":[1.9732729E1,9.208448E0,9.997943E0,3.3483486E0,1.6086197E-1,9.223318E-1,7.624785E0,4.968807E0,5.72756E0,0E0,0E0,0E0,1.1226254E0,7.94071E0,1.2828766E1,0E0,0E0,0E0,0E0,0E0,0E0,0E0,0E0,0E0,0E0],"parents":[2147483647,0,0,1,1,2,2,3,3,4,4,5,5,6,6,7,7,8,8,12,12,13,13,14,14],"right_children":[2,4,6,8,10,12,14,16,18,-1,-1,-1,20,22,24,-1,-1,-1,-1,-1,-1,-1,-1,-1,-1],"split_conditions":[2.271479E4,7.653303E1,2.2559108E-3,6.6609055E1,7.060078E-4,2E0,7.591483E-3,-1.013346E-3,4E0,-1.540543E-2,-6.0070287E-2,-1.160349E-2,5.073499E1,2.516234E4,2.4617924E4,-1.8046986E-2,5.329299E-2,3.2931075E-2,-3.51036E-2,-1.450599E-2,-7.1156375E-2,-3.370582E-3,-4.2510174E-2,1.0101385E-3,3.1961016E-2],"split_indices":[5,4,3,4,0,8,3,0,8,0,0,0,4,5,5,0,0,0,0,0,0,0,0,0,0],"split_type":[0,0,0,0,0,0,0,0,0,0,0,0,0,0,0,0,0,0,0,0,0,0,0,0,0],"sum_hessian":[7.093184E2,4.585487E1,6.6346356E2,4.3371777E1,2.4830945E0,8.463607E0,6.5499994E2,2.8834993E1,1.4536783E1,1.2408108E0,1.2422836E0,1.746465E0,6.7171416E0,4.3727512E2,2.1772482E2,2.2005947E0,2.66344E1,1.1304958E1,3.2318249E0,1.7360345E0,4.981107E0,4.2489508E2,1.2380026E1,1.774389E2,4.0285908E1],"tree_param":{"num_deleted":"0","num_feature":"9","num_nodes":"25","size_leaf_vector":"1"}},{"base_weights":[-1.2841082E-2,5.3318584E-1,-5.553122E-2,7.607422E-1,1.456812E-1,-1.3429995E-1,1.15695134E-1,1.8801454E-1,8.6295307E-1,8.5326004E-1,-1.1511051E-1,-4.8746586E-1,-8.4312506E-2,4.1433603E-2,9.2276967E-1,5.196313E-2,-1.49706695E-2,-1.1289172E-2,4.7805954E-2,1.1110528E-2,5.118791E-2,-1.7390452E-2,4.508286E-2,-9.2793275E-3,-5.346049E-2,2.1789497E-2,-7.3785777E-3,3.685239E-3,-4.7055792E-2,6.0913432E-2,1.407626E-2],"categories":[],"categories_nodes":[],"categories_segments":[],"categories_sizes":[],"default_left":[0,0,0,0,0,0,0,0,0,0,0,0,0,0,0,0,0,0,0,0,0,0,0,0,0,0,0,0,0,0,0],"id":4,"left_children":[1,3,5,7,9,11,13,15,17,19,21,23,25,27,29,-1,-1,-1,-1,-1,-1,-1,-1,-1,-1,-1,-1,-1,-1,-1,-1],"loss_changes":[1.6570583E1,4.434883E0,8.904449E0,1.7251377E0,3.8459098E0,7.9360533E0,1.2439797E1,2.8675601E0,2.9627285E0,3.737774E-1,4.033184E0,9.60414E0,1.3127609E1,6.1477532E0,2.97219E0,0E0,0E0,0E0,0E0,0E0,0E0,0E0,0E0,0E0,0E0,0E0,0E0,0E0,0E0,0E0,0E0],"parents":[2147483647,0,0,1,1,2,2,3,3,4,4,5,5,6,6,7,7,8,8,9,9,10,10,11,11,12,12,13,13,14,14],"right_children":[2,4,6,8,10,12,14,16,18,20,22,24,26,28,30,-1,-1,-1,-1,-1,-1,-1,-1,-1,-1,-1,-1,-1,-1,-1,-1],"split_conditions":[2.2735098E4,3.08727E-4,7.8128185E-3,-9.878001E-4,1E0,2.2971215E4,2.4824723E4,-1.8461166E-3,2.1854854E4,8.654742E-3,1.6260804E-3,2.2935307E4,2.3252227E4,2.4809586E4,2.5099672E4,5.196313E-2,-1.49706695E-2,-1.1289172E-2,4.7805954E-2,1.1110528E-2,5.118791E-2,-1.7390452E-2,4.508286E-2,-9.2793275E-3,-5.346049E-2,2.1789497E-2,-7.3785777E-3,3.685239E-3,-4.7055792E-2,6.0913432E-2,1.407626E-2],"split_indices":[6,0,3,0,8,6,6,0,6,3,0,5,5,5,5,0,0,0,0,0,0,0,0,0,0,0,0,0,0,0,0],"split_type":[0,0,0,0,0,0,0,0,0,0,0,0,0,0,0,0,0,0,0,0,0,0,0,0,0,0,0,0,0,0,0],"sum_hessian":[7.0860956E2,5.055084E1,6.580587E2,3.1241533E1,1.9309307E1,4.5086453E2,2.0719415E2,5.1611357E0,2.6080399E1,4.5883665E0,1.4720941E1,5.481807E1,3.9604648E2,1.906987E2,1.6495464E1,1.4670069E0,3.6941285E0,1.9436365E0,2.413676E1,1.4659348E0,3.1224318E0,1.2514732E1,2.2062082E0,3.6958523E1,1.7859545E1,4.2308235E1,3.5373825E2,1.8553008E2,5.168625E0,1.0675923E1,5.819541E0],"tree_param":{"num_deleted":"0","num_feature":"9","num_nodes":"31","size_leaf_vector":"1"}},{"base_weights":[-5.6793382E-3,-4.889228E-1,2.7344106E-2,5.5027585E-2,-5.6805325E-1,4.5121923E-2,-6.095733E-1,3.6509242E-2,-6.3115513E-1,4.9846554E-1,1.8983288E-2,-1.0318978E0,1.7348763E-1,-6.7677125E-2,-2.3434218E-2,4.462426E-2,7.813729E-3,-3.6787295E-3,7.034884E-3,-1.4500238E-2,-6.365359E-2,4.008081E-2,-3.6484487E-2],"categories":[],"categories_nodes":[],"categories_segments":[],"categories_sizes":[],"default_left":[0,0,0,0,0,0,0,0,0,0,0,0,0,0,0,0,0,0,0,0,0,0,0],"id":5,"left_children":[1,3,5,-1,7,9,11,-1,13,15,17,19,21,-1,-1,-1,-1,-1,-1,-1,-1,-1,-1],"loss_changes":[1.1296071E1,6.319971E0,7.5316124E0,0E0,4.04817E0,7.641545E0,6.1532073E0,0E0,4.3298054E0,4.6009398E0,6.8993716E0,1.7563553E0,4.6612887E0,0E0,0E0,0E0,0E0,0E0,0E0,0E0,0E0,0E0,0E0],"parents":[2147483647,0,0,1,1,2,2,4,4,5,5,6,6,8,8,9,9,10,10,11,11,12,12],"right_children":[2,4,6,-1,8,10,12,-1,14,16,18,20,22,-1,-1,-1,-1,-1,-1,-1,-1,-1,-1],"split_conditions":[1.973981E1,4.0409786E1,7.796343E1,5.5027585E-2,1.6420885E1,2.2599115E4,4E0,3.6509242E-2,2.2559108E-3,1.1E1,3.3643703E1,1.2115639E-4,5.0687366E-3,-6.7677125E-2,-2.3434218E-2,4.462426E-2,7.813729E-3,-3.6787295E-3,7.034884E-3,-1.4500238E-2,-6.365359E-2,4.008081E-2,-3.6484487E-2],"split_indices":[2,4,4,0,2,5,8,0,3,7,2,0,3,0,0,0,0,0,0,0,0,0,0],"split_type":[0,0,0,0,0,0,0,0,0,0,0,0,0,0,0,0,0,0,0,0,0,0,0],"sum_hessian":[7.060087E2,4.427737E1,6.617314E2,1.4876304E0,4.278974E1,6.4466644E2,1.7064955E1,1.4934033E0,4.1296337E1,3.4158455E1,6.10508E2,1.0879559E1,6.1853952E0,6.236454E0,3.5059883E1,1.5129394E1,1.902906E1,3.4701526E2,2.634927E2,3.2093892E0,7.6701694E0,3.7145224E0,2.470873E0],"tree_param":{"num_deleted":"0","num_feature":"9","num_nodes":"23","size_leaf_vector":"1"}},{"base_weights":[9.798221E-3,-8.173461E-1,3.016987E-2,1.5298279E-2,-9.454259E-1,9.747193E-2,-1.7083143E-1,-1.1285431E0,4.6317577E-3,1.7605085E-2,2.7354652E-1,-2.615926E-1,2.6601765E-1,-2.5263084E-2,-6.5005496E-2,2.6340953E-3,-1.7789295E-2,9.588618E-3,3.8262922E-2,-1.562089E-2,1.4728585E-2,4.767238E-2,-5.999194E-3],"categories":[],"categories_nodes":[],"categories_segments":[],"categories_sizes":[],"default_left":[0,0,0,0,0,0,0,0,0,0,0,0,0,0,0,0,0,0,0,0,0,0,0],"id":6,"left_children":[1,3,5,-1,7,9,11,13,-1,15,17,19,21,-1,-1,-1,-1,-1,-1,-1,-1,-1,-1],"loss_changes":[1.1879788E1,2.727479E0,9.318493E0,0E0,3.042695E0,7.248125E0,6.922723E0,7.5623894E-1,0E0,4.6799383E0,6.3219604E0,4.1516504E0,8.135689E0,0E0,0E0,0E0,0E0,0E0,0E0,0E0,0E0,0E0,0E0],"parents":[2147483647,0,0,1,1,2,2,4,4,5,5,6,6,7,7,9,9,10,10,11,11,12,12],"right_children":[2,4,6,-1,8,10,12,14,-1,16,18,20,22,-1,-1,-1,-1,-1,-1,-1,-1,-1,-1],"split_conditions":[2.435634E-3,4.5599636E1,4.8168108E-4,1.5298279E-2,2.453365E4,7.7327164E-3,1.1273923E-2,2E0,4.6317577E-3,7.091458E1,6.881031E1,2.505882E4,2.320024E4,-2.5263084E-2,-6.5005496E-2,2.6340953E-3,-1.7789295E-2,9.588618E-3,3.8262922E-2,-1.562089E-2,1.4728585E-2,4.767238E-2,-5.999194E-3],"split_indices":[3,4,0,0,5,3,3,8,0,4,4,5,5,0,0,0,0,0,0,0,0,0,0],"split_type":[0,0,0,0,0,0,0,0,0,0,0,0,0,0,0,0,0,0,0,0,0,0,0],"sum_hessian":[7.025562E2,1.5946903E1,6.8660925E2,1.4900141E0,1.4456889E1,5.147639E2,1.7184537E2,1.2214966E1,2.2419236E0,3.548879E2,1.59876E2,1.4261617E2,2.922921E1,3.488099E0,8.726867E0,3.2519736E2,2.969054E1,1.3827087E2,2.160513E1,1.3107602E2,1.154015E1,9.982076E0,1.9247135E1],"tree_param":{"num_deleted":"0","num_feature":"9","num_nodes":"23","size_leaf_vector":"1"}},{"base_weights":[-8.449317E-3,-5.2960896E-1,2.5157824E-2,-4.032966E-1,-7.955275E-2,4.226291E-1,-5.2628024E-3,-1.0702957E0,-2.2902218E-1,5.329921E-1,-6.981321E-2,-2.9096606E-1,3.9688315E-2,-9.119503E-3,-6.450733E-2,1.7833123E-2,-2.3621185E-2,3.812788E-2,2.2878419E-3,-2.6045803E-2,2.9367967E-2,-1.4482051E-2,4.254803E-3],"categories":[],"categories_nodes":[],"categories_segments":[],"categories_sizes":[],"default_left":[0,0,0,0,0,0,0,0,0,0,0,0,0,0,0,0,0,0,0,0,0,0,0],"id":7,"left_children":[1,3,5,7,-1,9,11,13,15,17,-1,19,21,-1,-1,-1,-1,-1,-1,-1,-1,-1,-1],"loss_changes":[1.2450469E1,5.131856E0,8.079662E0,4.3838634E0,0E0,1.0280436E1,7.99366E0,1.3218908E0,4.85079E0,5.055728E0,0E0,1.7395634E1,8.068691E0,0E0,0E0,0E0,0E0,0E0,0E0,0E0,0E0,0E0,0E0],"parents":[2147483647,0,0,1,1,2,2,3,3,5,5,6,6,7,7,8,8,9,9,11,11,12,12],"right_children":[2,4,6,8,-1,10,12,14,16,18,-1,20,22,-1,-1,-1,-1,-1,-1,-1,-1,-1,-1],"split_conditions":[1.973981E1,2.4928236E4,2.2735098E4,2.2559108E-3,-7.955275E-2,7.7050125E1,2.2971215E4,2E0,2.5028773E-3,6.639248E1,-6.981321E-2,8.274523E-3,3.715648E1,-9.119503E-3,-6.450733E-2,1.7833123E-2,-2.3621185E-2,3.812788E-2,2.2878419E-3,-2.6045803E-2,2.9367967E-2,-1.4482051E-2,4.254803E-3],"split_indices":[2,6,6,3,0,4,6,8,3,4,0,3,4,0,0,0,0,0,0,0,0,0,0],"split_type":[0,0,0,0,0,0,0,0,0,0,0,0,0,0,0,0,0,0,0,0,0,0,0],"sum_hessian":[7.090981E2,4.206228E1,6.6703577E2,3.8822357E1,3.2399228E0,4.650576E1,6.2053E2,6.977186E0,3.184517E1,4.4511925E1,1.9938333E0,8.36145E1,5.369155E2,1.7478399E0,5.2293463E0,9.212435E0,2.2632734E1,2.9872261E1,1.4639666E1,6.658828E1,1.7026224E1,6.440754E1,4.72508E2],"tree_param":{"num_deleted":"0","num_feature":"9","num_nodes":"23","size_leaf_vector":"1"}},{"base_weights":[3.0429563E-3,2.7467303E-2,-6.14759E-1,-4.8746627E-2,2.4323471E-1,4.2555884E-2,-7.628421E-1,8.280004E-1,-8.225672E-2,2.8322753E-1,-6.5091714E-2,-3.647219E-1,-1.2151843E0,4.7438573E-2,-2.7341455E-2,-4.5868944E-2,-2.9100138E-3,6.769196E-3,3.1521887E-2,-3.34363E-2,4.6985917E-2,-7.892361E-4,-7.512898E-2],"categories":[],"categories_nodes":[],"categories_segments":[],"categories_sizes":[],"default_left":[0,0,0,0,0,0,0,0,0,0,0,0,0,0,0,0,0,0,0,0,0,0,0],"id":8,"left_children":[1,3,5,7,9,-1,11,13,15,17,-1,19,21,-1,-1,-1,-1,-1,-1,-1,-1,-1,-1],"loss_changes":[1.0805271E1,1.1337675E1,6.5608616E0,1.5045645E1,1.1487614E1,0E0,4.106147E0,3.6499357E0,9.829542E0,8.960664E0,0E0,6.5232725E0,3.9048042E0,0E0,0E0,0E0,0E0,0E0,0E0,0E0,0E0,0E0,0E0],"parents":[2147483647,0,0,1,1,2,2,3,3,4,4,6,6,7,7,8,8,9,9,11,11,12,12],"right_children":[2,4,6,8,10,-1,12,14,16,18,-1,20,22,-1,-1,-1,-1,-1,-1,-1,-1,-1,-1],"split_conditions":[7.653303E1,6.19061E1,2E0,2.271479E4,2.516961E4,4.2555884E-2,2.3710602E4,6.7953354E1,1.85543E1,3.5350292E1,-6.5091714E-2,2.355587E4,-1.1966908E-4,4.7438573E-2,-2.7341455E-2,-4.5868944E-2,-2.9100138E-3,6.769196E-3,3.1521887E-2,-3.34363E-2,4.6985917E-2,-7.892361E-4,-7.512898E-2],"split_indices":[4,4,7,5,5,0,5,2,2,2,0,5,0,0,0,0,0,0,0,0,0,0,0],"split_type":[0,0,0,0,0,0,0,0,0,0,0,0,0,0,0,0,0,0,0,0,0,0,0],"sum_hessian":[7.13964E2,6.877306E2,2.6233381E1,5.087889E2,1.7894168E2,1.9713538E0,2.4262028E1,1.7857674E1,4.9093124E2,1.7522287E2,3.7188096E0,1.3865166E1,1.0396862E1,1.6700525E1,1.1571479E0,1.2706019E1,4.7822522E2,1.2386887E2,5.1353996E1,1.1639814E1,2.2253509E0,2.2136135E0,8.1832485E0],"tree_param":{"num_deleted":"0","num_feature":"9","num_nodes":"23","size_leaf_vector":"1"}},{"base_weights":[1.1140003E-2,7.9868324E-2,-1.8194069E-1,-4.6311715E-1,1.1129217E-1,-1.3805869E-1,-7.863543E-1,3.4874576E-1,-7.956483E-1,5.420977E-1,7.975895E-2,5.588998E-1,-1.9369312E-1,-6.6627346E-2,-4.396325E-1,2.953047E-2,-3.189134E-2,9.89935E-3,-4.883748E-2,4.749925E-2,-8.370214E-3,8.573827E-3,-3.069052E-4,3.819129E-2,6.38038E-3,-1.4107369E-2,9.334024E-3,-5.515595E-2,6.5071136E-3],"categories":[],"categories_nodes":[],"categories_segments":[],"categories_sizes":[],"default_left":[0,0,0,0,0,0,0,0,0,0,0,0,0,0,0,0,0,0,0,0,0,0,0,0,0,0,0,0,0],"id":9,"left_children":[1,3,5,7,9,11,13,15,17,19,21,23,25,-1,27,-1,-1,-1,-1,-1,-1,-1,-1,-1,-1,-1,-1,-1,-1],"loss_changes":[9.26891E0,8.838951E0,4.7551446E0,7.9359574E0,6.5811906E0,6.7844486E0,1.7244859E0,2.509513E0,3.8696804E0,9.734101E0,3.5900223E0,1.050219E0,5.4424667E0,0E0,3.528813E0,0E0,0E0,0E0,0E0,0E0,0E0,0E0,0E0,0E0,0E0,0E0,0E0,0E0,0E0],"parents":[2147483647,0,0,1,1,2,2,3,3,4,4,5,5,6,6,7,7,8,8,9,9,10,10,11,11,12,12,14,14],"right_children":[2,4,6,8,10,12,14,16,18,20,22,24,26,-1,28,-1,-1,-1,-1,-1,-1,-1,-1,-1,-1,-1,-1,-1,-1],"split_conditions":[4.7074413E-4,1.900996E1,7.653303E1,9E0,2.2735098E4,2.271479E4,2.985913E1,7.1403625E1,1.706606E1,6.639248E1,5.0817776E1,6.570152E1,6.6938896E1,-6.6627346E-2,2.321835E4,2.953047E-2,-3.189134E-2,9.89935E-3,-4.883748E-2,4.749925E-2,-8.370214E-3,8.573827E-3,-3.069052E-4,3.819129E-2,6.38038E-3,-1.4107369E-2,9.334024E-3,-5.515595E-2,6.5071136E-3],"split_indices":[0,2,4,7,6,5,2,4,2,4,4,4,4,0,5,0,0,0,0,0,0,0,0,0,0,0,0,0,0],"split_type":[0,0,0,0,0,0,0,0,0,0,0,0,0,0,0,0,0,0,0,0,0,0,0,0,0,0,0,0,0],"sum_hessian":[6.9638513E2,5.1400726E2,1.8237787E2,2.7367922E1,4.8663934E2,1.711783E2,1.119957E1,7.9382377E0,1.9429686E1,3.2086304E1,4.5455304E2,1.1985417E1,1.5919287E2,3.2447786E0,7.954791E0,6.6976295E0,1.2406081E0,2.9809713E0,1.6448713E1,2.015843E1,1.1927874E1,2.193467E2,2.3520634E2,7.602241E0,4.3831763E0,1.293673E2,2.9825577E1,3.242699E0,4.7120924E0],"tree_param":{"num_deleted":"0","num_feature":"9","num_nodes":"29","size_leaf_vector":"1"}},{"base_weights":[1.1525929E-2,-5.7799287E-2,1.6127905E-1,1.277273E-2,-3.02576E-1,9.726774E-2,8.992942E-1,1.3793164E-1,-1.672692E-1,-5.0573486E-1,1.5608595E-1,3.6416158E-1,-6.857881E-2,6.5708846E-2,5.302797E-1,4.6825195E-3,6.502076E-2,-2.9537524E-3,-3.211934E-2,-2.7433647E-2,2.0130135E-2,1.8019369E-2,-2.8321037E-2,-1.17816655E-2,2.9951146E-2,-2.4665918E-2,7.005911E-3,5.4354545E-2,5.893633E-3],"categories":[],"categories_nodes":[],"categories_segments":[],"categories_sizes":[],"default_left":[0,0,0,0,0,0,0,0,0,0,0,0,0,0,0,0,0,0,0,0,0,0,0,0,0,0,0,0,0],"id":10,"left_children":[1,3,5,7,9,11,13,15,17,19,21,23,25,-1,27,-1,-1,-1,-1,-1,-1,-1,-1,-1,-1,-1,-1,-1,-1],"loss_changes":[7.3655434E0,8.383524E0,1.0517565E1,8.529424E0,1.0198356E1,9.218091E0,2.0275583E0,1.1369543E1,7.9430084E0,3.165512E0,5.237727E0,1.13762E1,1.1498214E1,0E0,2.419595E0,0E0,0E0,0E0,0E0,0E0,0E0,0E0,0E0,0E0,0E0,0E0,0E0,0E0,0E0],"parents":[2147483647,0,0,1,1,2,2,3,3,4,4,5,5,6,6,7,7,8,8,9,9,10,10,11,11,12,12,14,14],"right_children":[2,4,6,8,10,12,14,16,18,20,22,24,26,-1,28,-1,-1,-1,-1,-1,-1,-1,-1,-1,-1,-1,-1,-1,-1],"split_conditions":[7.8128185E-3,4.7063336E-4,2.4824723E4,5.0403387E-3,3.263512E1,2.327529E4,8.584147E-3,3.4083458E1,6.570152E1,1.8498492E-3,7.011956E-3,3.6947037E1,2.3493613E4,6.5708846E-2,-2.563496E-4,4.6825195E-3,6.502076E-2,-2.9537524E-3,-3.211934E-2,-2.7433647E-2,2.0130135E-2,1.8019369E-2,-2.8321037E-2,-1.17816655E-2,2.9951146E-2,-2.4665918E-2,7.005911E-3,5.4354545E-2,5.893633E-3],"split_indices":[3,1,6,3,2,6,3,2,4,1,3,2,6,0,1,0,0,0,0,0,0,0,0,0,0,0,0,0,0],"split_type":[0,0,0,0,0,0,0,0,0,0,0,0,0,0,0,0,0,0,0,0,0,0,0,0,0,0,0,0,0],"sum_hessian":[7.07578E2,4.8409155E2,2.2348648E2,3.7649222E2,1.07599335E2,2.0669106E2,1.679543E1,2.2223561E2,1.542566E2,7.449849E1,3.3100845E1,7.875549E1,1.27935555E2,6.700616E0,1.0094812E1,2.1512177E2,7.1138444E0,1.26560486E2,2.7696115E1,7.151391E1,2.9845796E0,2.6194962E1,6.9058847E0,2.2159843E1,5.6595654E1,4.1701332E1,8.623422E1,3.5992804E0,6.495532E0],"tree_param":{"num_deleted":"0","num_feature":"9","num_nodes":"29","size_leaf_vector":"1"}},{"base_weights":[1.2821125E-2,-2.9423345E-2,2.6831073E-1,3.5189208E-2,-2.3143366E-1,9.249766E-1,1.453322E-1,-9.853448E-1,5.2122325E-2,-1.7228514E-1,-1.0271133E0,1.0456835E0,-1.389677E-2,2.3411526E-1,-6.609232E-1,-6.453919E-2,-2.9677058E-2,-1.7737939E-5,1.4413202E-2,-1.9260747E-2,3.3145656E-3,-6.682337E-2,-1.3684987E-2,-8.733167E-3,6.049636E-2,1.5265291E-2,-4.1748796E-2,2.9218603E-2,-6.9075346E-2],"categories":[],"categories_nodes":[],"categories_segments":[],"categories_sizes":[],"default_left":[0,0,0,0,0,0,0,0,0,0,0,0,0,0,0,0,0,0,0,0,0,0,0,0,0,0,0,0,0],"id":11,"left_children":[1,3,5,7,9,11,13,15,17,19,21,23,-1,25,27,-1,-1,-1,-1,-1,-1,-1,-1,-1,-1,-1,-1,-1,-1],"loss_changes":[7.7469106E0,8.051057E0,8.0894985E0,8.134314E0,6.8571405E0,2.595973E0,6.3794866E0,1.5348959E-1,5.7135315E0,7.1538124E0,1.9975853E0,3.1455097E0,0E0,6.273064E0,8.782454E0,0E0,0E0,0E0,0E0,0E0,0E0,0E0,0E0,0E0,0E0,0E0,0E0,0E0,0E0],"parents":[2147483647,0,0,1,1,2,2,3,3,4,4,5,5,6,6,7,7,8,8,9,9,10,10,11,11,13,13,14,14],"right_children":[2,4,6,8,10,12,14,16,18,20,22,24,-1,26,28,-1,-1,-1,-1,-1,-1,-1,-1,-1,-1,-1,-1,-1,-1],"split_conditions":[1.1032275E-2,4.7074413E-4,2.2931047E4,2.2559108E-3,1.00057395E-2,7.653303E1,2.0656327E-2,-5.3883374E-5,2.1635805E-4,5.7230764E-3,1.4839804E-3,3.9801807E1,-1.389677E-2,7.7528854E1,-4.6364346E-4,-6.453919E-2,-2.9677058E-2,-1.7737939E-5,1.4413202E-2,-1.9260747E-2,3.3145656E-3,-6.682337E-2,-1.3684987E-2,-8.733167E-3,6.049636E-2,1.5265291E-2,-4.1748796E-2,2.9218603E-2,-6.9075346E-2],"split_indices":[3,0,5,3,3,4,3,0,0,3,0,4,0,4,0,0,0,0,0,0,0,0,0,0,0,0,0,0,0],"split_type":[0,0,0,0,0,0,0,0,0,0,0,0,0,0,0,0,0,0,0,0,0,0,0,0,0,0,0,0,0],"sum_hessian":[7.160388E2,6.152018E2,1.0083701E2,4.667414E2,1.484604E2,1.4877025E1,8.595999E1,6.6845245E0,4.6005685E2,1.3932027E2,9.140138E0,1.3639107E1,1.2379177E0,7.807245E1,7.887539E0,2.46692E0,4.217604E0,3.7722562E2,8.283125E1,7.329221E1,6.6028046E1,5.930977E0,3.2091608E0,1.6103814E0,1.2028726E1,7.386802E1,4.204431E0,2.9604285E0,4.9271107E0],"tree_param":{"num_deleted":"0","num_feature":"9","num_nodes":"29","size_leaf_vector":"1"}},{"base_weights":[9.994008E-3,2.753862E-2,-4.345145E-1,4.269026E-1,-1.298779E-4,2.6030952E-2,-5.302278E-1,-3.822278E-1,5.6727564E-1,-7.4861474E-2,1.6777219E-1,-1.9484562E-1,-9.291688E-1,1.0486621E-2,-3.3917088E-2,5.081063E-2,1.1831925E-2,-5.7297415E-4,-1.4692019E-2,1.1367745E-2,-3.0328084E-2,-2.993522E-2,4.0280215E-2,-5.6205273E-2,1.093498E-2],"categories":[],"categories_nodes":[],"categories_segments":[],"categories_sizes":[],"default_left":[0,0,0,0,0,0,0,0,0,0,0,0,0,0,0,0,0,0,0,0,0,0,0,0,0],"id":12,"left_children":[1,3,5,7,9,-1,11,13,15,17,19,21,23,-1,-1,-1,-1,-1,-1,-1,-1,-1,-1,-1,-1],"loss_changes":[5.5505147E0,7.559886E0,2.7467422E0,5.251692E0,8.053447E0,0E0,3.1719127E0,1.3957407E0,5.4264555E0,6.163016E0,9.258511E0,6.494365E0,2.7475157E0,0E0,0E0,0E0,0E0,0E0,0E0,0E0,0E0,0E0,0E0,0E0,0E0],"parents":[2147483647,0,0,1,1,2,2,3,3,4,4,6,6,7,7,8,8,9,9,10,10,11,11,12,12],"right_children":[2,4,6,8,10,-1,12,14,16,18,20,22,24,-1,-1,-1,-1,-1,-1,-1,-1,-1,-1,-1,-1],"split_conditions":[7.653303E1,2.271479E4,2E0,4E0,2.3906818E4,2.6030952E-2,2.359002E4,-1.7344738E-4,1.1E1,2.359002E4,2.516234E4,2.34565E4,2.2E1,1.0486621E-2,-3.3917088E-2,5.081063E-2,1.1831925E-2,-5.7297415E-4,-1.4692019E-2,1.1367745E-2,-3.0328084E-2,-2.993522E-2,4.0280215E-2,-5.6205273E-2,1.093498E-2],"split_indices":[4,5,7,7,6,0,6,0,7,6,5,6,7,0,0,0,0,0,0,0,0,0,0,0,0],"split_type":[0,0,0,0,0,0,0,0,0,0,0,0,0,0,0,0,0,0,0,0,0,0,0,0,0],"sum_hessian":[7.0918604E2,6.8316E2,2.6026066E1,4.3328735E1,6.3983124E2,1.9661622E0,2.4059902E1,6.1509337E0,3.71778E1,4.4314554E2,1.9668568E2,1.3879813E1,1.018009E1,2.1481974E0,4.002736E0,1.4888626E1,2.2289173E1,3.4446368E2,9.868185E1,1.8328856E2,1.3397129E1,1.0174261E1,3.7055519E0,8.719931E0,1.4601594E0],"tree_param":{"num_deleted":"0","num_feature":"9","num_nodes":"25","size_leaf_vector":"1"}},{"base_weights":[4.479005E-3,-3.5561055E-2,2.627032E-1,-1.388396E-3,-4.6405157E-1,3.2763952E-1,-7.5612307E-1,-5.9554886E-2,2.2204171E-1,-5.639229E-1,5.756194E-2,1.5671663E-1,7.6492816E-1,-3.2886502E-3,-9.7080255E-1,-1.1341188E-3,-2.126544E-2,3.8597279E-3,4.5994036E-2,3.1774186E-2,-3.539108E-2,-2.24083E-2,1.697618E-2,4.5196097E-2,-3.49781E-2,-5.8653235E-2,-1.2367466E-2],"categories":[],"categories_nodes":[],"categories_segments":[],"categories_sizes":[],"default_left":[0,0,0,0,0,0,0,0,0,0,0,0,0,0,0,0,0,0,0,0,0,0,0,0,0,0,0],"id":13,"left_children":[1,3,5,7,9,11,13,15,17,19,-1,21,23,-1,25,-1,-1,-1,-1,-1,-1,-1,-1,-1,-1,-1,-1],"loss_changes":[7.2893777E0,8.938267E0,6.5091224E0,7.3740263E0,7.9226656E0,6.582202E0,8.213723E-1,6.0616016E0,1.1775917E1,7.8942137E0,0E0,7.420065E0,5.70932E0,0E0,3.6590004E-1,0E0,0E0,0E0,0E0,0E0,0E0,0E0,0E0,0E0,0E0,0E0,0E0],"parents":[2147483647,0,0,1,1,2,2,3,3,4,4,5,5,6,6,7,7,8,8,9,9,11,11,12,12,14,14],"right_children":[2,4,6,8,10,12,14,16,18,20,-1,22,24,-1,26,-1,-1,-1,-1,-1,-1,-1,-1,-1,-1,-1,-1],"split_conditions":[1.1104809E-2,9.655096E-3,7.7050125E1,7.1782046E-3,2.4683973E4,6.1631077E1,3E0,7.091458E1,2.4824723E4,2.2905895E4,5.756194E-2,3E0,2.0656327E-2,-3.2886502E-3,7.908203E-4,-1.1341188E-3,-2.126544E-2,3.8597279E-3,4.5994036E-2,3.1774186E-2,-3.539108E-2,-2.24083E-2,1.697618E-2,4.5196097E-2,-3.49781E-2,-5.8653235E-2,-1.2367466E-2],"split_indices":[3,3,4,3,6,4,7,4,6,5,0,7,3,0,0,0,0,0,0,0,0,0,0,0,0,0,0],"split_type":[0,0,0,0,0,0,0,0,0,0,0,0,0,0,0,0,0,0,0,0,0,0,0,0,0,0,0],"sum_hessian":[7.031121E2,6.0947034E2,9.3641754E1,5.6538354E2,4.408681E1,8.866874E1,4.9730115E0,4.4918008E2,1.1620347E2,4.2132687E1,1.9541245E0,6.472722E1,2.3941526E1,1.4895163E0,3.483495E0,4.0900894E2,4.0171135E1,9.714927E1,1.9054197E1,4.147424E0,3.7985264E1,1.4685006E1,5.004221E1,2.2215813E1,1.7257144E0,2.2366858E0,1.2468092E0],"tree_param":{"num_deleted":"0","num_feature":"9","num_nodes":"27","size_leaf_vector":"1"}},{"base_weights":[-1.4451737E-2,3.0929465E-3,-6.954556E-1,-6.641003E-2,1.4969765E-1,-7.309143E-2,-3.5074642E-1,-7.07829E-3,-2.7253112E-1,1.9185051E-1,-7.802355E-1,3.602044E-1,-7.961721E-1,-3.0093323E-3,4.4578623E-2,-2.0609835E-2,6.200762E-4,3.4169077E-3,3.239325E-2,5.24695E-2,-6.120009E-2,-2.6236435E-2,5.1843274E-2,-5.1823456E-2,5.525628E-3],"categories":[],"categories_nodes":[],"categories_segments":[],"categories_sizes":[],"default_left":[0,0,0,0,0,0,0,0,0,0,0,0,0,0,0,0,0,0,0,0,0,0,0,0,0],"id":14,"left_children":[1,3,5,7,9,-1,11,13,15,17,19,21,23,-1,-1,-1,-1,-1,-1,-1,-1,-1,-1,-1,-1],"loss_changes":[8.51136E0,7.094627E0,4.213812E0,5.7749577E0,8.927328E0,0E0,4.611471E0,1.7608105E1,4.20566E0,1.2066147E1,9.328536E0,4.106255E0,2.0117078E0,0E0,0E0,0E0,0E0,0E0,0E0,0E0,0E0,0E0,0E0,0E0,0E0],"parents":[2147483647,0,0,1,1,2,2,3,3,4,4,6,6,7,7,8,8,9,9,10,10,11,11,12,12],"right_children":[2,4,6,8,10,-1,12,14,16,18,20,22,24,-1,-1,-1,-1,-1,-1,-1,-1,-1,-1,-1,-1],"split_conditions":[7.796343E1,7.680623E-3,2.3216176E4,2.4514482E4,2.0656327E-2,-7.309143E-2,2.359002E4,2.413379E4,5.8670982E1,6.3980793E1,-6.867386E-4,2.3525234E4,2.5067355E4,-3.0093323E-3,4.4578623E-2,-2.0609835E-2,6.200762E-4,3.4169077E-3,3.239325E-2,5.24695E-2,-6.120009E-2,-2.6236435E-2,5.1843274E-2,-5.1823456E-2,5.525628E-3],"split_indices":[4,3,6,6,3,0,6,6,4,4,0,5,5,0,0,0,0,0,0,0,0,0,0,0,0],"split_type":[0,0,0,0,0,0,0,0,0,0,0,0,0,0,0,0,0,0,0,0,0,0,0,0,0],"sum_hessian":[7.1118695E2,6.942953E2,1.6891651E1,4.713722E2,2.2292311E2,4.23514E0,1.2656511E1,3.668183E2,1.0455392E2,2.140157E2,8.907407E0,4.9488697E0,7.707642E0,3.472307E2,1.9587576E1,6.9862656E1,3.4691257E1,1.6930815E2,4.4707558E1,1.4723299E0,7.4350767E0,2.2417092E0,2.7071605E0,5.9797087E0,1.727933E0],"tree_param":{"num_deleted":"0","num_feature":"9","num_nodes":"25","size_leaf_vector":"1"}},{"base_weights":[-9.270673E-3,3.6892432E-1,-2.9731242E-2,1.8667573E-1,8.9934134E-1,4.041286E-1,-4.4042327E-2,-5.276377E-1,5.658497E-1,3.915648E-1,1.046826E0,9.808716E-1,-1.705079E-1,-2.1549001E-2,-2.0939665E-1,3.217153E-2,-6.1885417E-2,4.573379E-2,8.752132E-4,4.1561063E-2,-7.398949E-3,6.1273582E-2,2.330772E-2,1.0507614E-2,5.647229E-2,-4.5192745E-2,2.0654796E-2,-3.6944728E-3,9.601877E-3,-1.974274E-2,5.657458E-3],"categories":[],"categories_nodes":[],"categories_segments":[],"categories_sizes":[],"default_left":[0,0,0,0,0,0,0,0,0,0,0,0,0,0,0,0,0,0,0,0,0,0,0,0,0,0,0,0,0,0,0],"id":15,"left_children":[1,3,5,7,9,11,13,15,17,19,21,23,25,27,29,-1,-1,-1,-1,-1,-1,-1,-1,-1,-1,-1,-1,-1,-1,-1,-1],"loss_changes":[5.455543E0,3.3301797E0,4.168028E0,7.935023E0,2.6350164E-1,7.2736444E0,2.405559E0,9.356354E0,3.5992084E0,9.820639E-1,8.9580536E-2,1.0050316E0,5.3348866E0,6.4031444E0,4.679182E0,0E0,0E0,0E0,0E0,0E0,0E0,0E0,0E0,0E0,0E0,0E0,0E0,0E0,0E0,0E0,0E0],"parents":[2147483647,0,0,1,1,2,2,3,3,4,4,5,5,6,6,7,7,8,8,9,9,10,10,11,11,12,12,13,13,14,14],"right_children":[2,4,6,8,10,12,14,16,18,20,22,24,26,28,30,-1,-1,-1,-1,-1,-1,-1,-1,-1,-1,-1,-1,-1,-1,-1,-1],"split_conditions":[2.2599115E4,3E0,-2.0022627E-3,6.1403927E-3,3.7792863E-3,2.354675E4,4.549777E1,2.5638477E1,3.4795352E-4,2.1564089E1,5.2088364E-3,8.245331E-3,2.3916336E4,3.6634666E1,5.491921E1,3.217153E-2,-6.1885417E-2,4.573379E-2,8.752132E-4,4.1561063E-2,-7.398949E-3,6.1273582E-2,2.330772E-2,1.0507614E-2,5.647229E-2,-4.5192745E-2,2.0654796E-2,-3.6944728E-3,9.601877E-3,-1.974274E-2,5.657458E-3],"split_indices":[5,8,0,3,3,5,2,2,0,2,3,3,5,2,2,0,0,0,0,0,0,0,0,0,0,0,0,0,0,0,0],"split_type":[0,0,0,0,0,0,0,0,0,0,0,0,0,0,0,0,0,0,0,0,0,0,0,0,0,0,0,0,0,0,0],"sum_hessian":[7.0260754E2,3.5186478E1,6.67421E2,2.719452E1,7.9919577E0,2.0442427E1,6.4697864E2,9.294108E0,1.7900414E1,2.62146E0,5.3704977E0,9.849688E0,1.0592738E1,5.705028E2,7.6475784E1,3.543658E0,5.75045E0,1.0532299E1,7.368114E0,1.146563E0,1.4748968E0,3.2577894E0,2.1127083E0,1.9821044E0,7.8675833E0,4.4509716E0,6.1417665E0,4.5874026E2,1.1176256E2,4.8414257E1,2.806153E1],"tree_param":{"num_deleted":"0","num_feature":"9","num_nodes":"31","size_leaf_vector":"1"}},{"base_weights":[-1.1316872E-2,-5.9174627E-2,1.4612828E-1,5.902416E-2,-1.4590903E-1,9.305064E-1,5.312936E-2,-9.998697E-2,3.6824605E-1,-5.327174E-1,-6.760441E-2,1.1717187E0,-2.4906997E-2,-2.5288454E-1,4.834172E-1,1.3134128E-3,-3.1501036E-2,-1.2868717E-2,2.5354067E-2,-3.6321103E-3,-5.6882948E-2,-4.2667832E-2,-1.3954228E-3,-7.074387E-3,6.6120625E-2,-6.194863E-3,-5.1484626E-2,3.8079794E-2,6.622047E-3],"categories":[],"categories_nodes":[],"categories_segments":[],"categories_sizes":[],"default_left":[0,0,0,0,0,0,0,0,0,0,0,0,0,0,0,0,0,0,0,0,0,0,0,0,0,0,0,0,0],"id":16,"left_children":[1,3,5,7,9,11,13,15,17,19,21,23,-1,25,27,-1,-1,-1,-1,-1,-1,-1,-1,-1,-1,-1,-1,-1,-1],"loss_changes":[5.3685694E0,5.60853E0,1.2067467E1,1.1439043E1,9.51519E0,6.630233E0,1.9815542E1,1.0317505E1,6.9892445E0,1.46525345E1,8.191736E0,3.2168274E0,0E0,8.695744E0,6.001498E0,0E0,0E0,0E0,0E0,0E0,0E0,0E0,0E0,0E0,0E0,0E0,0E0,0E0,0E0],"parents":[2147483647,0,0,1,1,2,2,3,3,4,4,5,5,6,6,7,7,8,8,9,9,10,10,11,11,13,13,14,14],"right_children":[2,4,6,8,10,12,14,16,18,20,22,24,-1,26,28,-1,-1,-1,-1,-1,-1,-1,-1,-1,-1,-1,-1,-1,-1],"split_conditions":[2.413379E4,2.327529E4,2.4484078E4,3.6947037E1,2.3382127E4,6.132872E-4,3.1736315E1,6.59638E1,6.743771E-3,4.9791954E1,2.7372757E1,-5.4432213E-4,-2.4906997E-2,2.985913E1,8.584147E-3,1.3134128E-3,-3.1501036E-2,-1.2868717E-2,2.5354067E-2,-3.6321103E-3,-5.6882948E-2,-4.2667832E-2,-1.3954228E-3,-7.074387E-3,6.6120625E-2,-6.194863E-3,-5.1484626E-2,3.8079794E-2,6.622047E-3],"split_indices":[6,6,6,2,5,0,2,4,3,4,4,0,0,2,3,0,0,0,0,0,0,0,0,0,0,0,0,0,0],"split_type":[0,0,0,0,0,0,0,0,0,0,0,0,0,0,0,0,0,0,0,0,0,0,0,0,0,0,0,0,0],"sum_hessian":[7.1033936E2,5.4523224E2,1.6510715E2,2.3089523E2,3.1433698E2,1.6546227E1,1.4856093E2,1.5293048E2,7.796477E1,5.1943554E1,2.6239343E2,1.4309974E1,2.236252E0,8.705855E1,6.1502373E1,1.24277695E2,2.8652784E1,1.4004371E1,6.3960396E1,3.0140745E1,2.1802809E1,1.1632827E1,2.5076059E2,1.4793565E0,1.2830617E1,7.5655594E1,1.1402953E1,3.365666E1,2.7845715E1],"tree_param":{"num_deleted":"0","num_feature":"9","num_nodes":"29","size_leaf_vector":"1"}},{"base_weights":[-1.8444058E-2,4.6891924E-2,-1.9184469E-1,5.9728816E-2,-8.0666584E-1,-2.3886438E-1,3.8060486E-1,-6.504851E-1,7.221407E-2,-1.1357515E0,-8.193793E-2,-1.888914E-1,-1.1819788E0,1.1396786E0,-8.245825E-2,-5.5706438E-2,5.98919E-3,2.4097053E-2,2.6184458E-3,-5.3267227E-3,-7.5717025E-2,8.848567E-3,-1.5264468E-2,-1.1162252E-2,3.6758386E-2,-6.4263724E-2,-1.5030245E-2,1.1123466E-2,6.705145E-2,-4.3864887E-2,2.4616364E-2],"categories":[],"categories_nodes":[],"categories_segments":[],"categories_sizes":[],"default_left":[0,0,0,0,0,0,0,0,0,0,0,0,0,0,0,0,0,0,0,0,0,0,0,0,0,0,0,0,0,0,0],"id":17,"left_children":[1,3,5,7,9,11,13,15,17,19,21,23,25,27,29,-1,-1,-1,-1,-1,-1,-1,-1,-1,-1,-1,-1,-1,-1,-1,-1],"loss_changes":[8.0435505E0,5.7009354E0,5.3202724E0,4.5620584E0,1.7464175E0,8.267215E0,5.412923E0,3.310703E0,4.0508204E0,1.8751659E0,2.5563264E-1,5.632934E0,4.2164516E-1,7.7299356E-1,5.151845E0,0E0,0E0,0E0,0E0,0E0,0E0,0E0,0E0,0E0,0E0,0E0,0E0,0E0,0E0,0E0,0E0],"parents":[2147483647,0,0,1,1,2,2,3,3,4,4,5,5,6,6,7,7,8,8,9,9,10,10,11,11,12,12,13,13,14,14],"right_children":[2,4,6,8,10,12,14,16,18,20,22,24,26,28,30,-1,-1,-1,-1,-1,-1,-1,-1,-1,-1,-1,-1,-1,-1,-1,-1],"split_conditions":[4.285814E-4,2.5178256E4,2.499393E4,2.2559108E-3,-5.3883374E-5,2.4815088E4,2.5091102E4,1.900996E1,-2.0022627E-3,-8.297459E-4,3.0268492E1,2.4787387E4,2.4879395E4,2.505882E4,6.9045863E-4,-5.5706438E-2,5.98919E-3,2.4097053E-2,2.6184458E-3,-5.3267227E-3,-7.5717025E-2,8.848567E-3,-1.5264468E-2,-1.1162252E-2,3.6758386E-2,-6.4263724E-2,-1.5030245E-2,1.1123466E-2,6.705145E-2,-4.3864887E-2,2.4616364E-2],"split_indices":[0,5,5,3,0,5,6,2,0,0,2,6,5,5,0,0,0,0,0,0,0,0,0,0,0,0,0,0,0,0,0],"split_type":[0,0,0,0,0,0,0,0,0,0,0,0,0,0,0,0,0,0,0,0,0,0,0,0,0,0,0,0,0,0,0],"sum_hessian":[7.081837E2,5.1490216E2,1.932815E2,5.0818942E2,6.712776E0,1.791493E2,1.4132182E1,7.8966103E0,5.0029282E2,4.2264714E0,2.4863052E0,1.7127426E2,7.8750567E0,4.8009987E0,9.331183E0,4.6507783E0,3.245832E0,2.2036558E1,4.7825626E2,1.4811834E0,2.745288E0,1.2476652E0,1.23864E0,1.6586627E2,5.4079843E0,6.6387434E0,1.2363132E0,1.243119E0,3.5578797E0,3.6951115E0,5.636072E0],"tree_param":{"num_deleted":"0","num_feature":"9","num_nodes":"31","size_leaf_vector":"1"}},{"base_weights":[2.5935087E-2,-3.278385E-1,4.9659804E-2,2.6607963E-1,-5.522613E-1,2.4175078E-2,3.9709046E-1,-6.3445383E-1,6.018079E-1,-8.047299E-1,2.0960968E-2,-2.1139775E-1,5.2906055E-2,9.2336553E-1,7.911432E-2,5.1963357E-3,-5.0262935E-2,4.6710636E-2,-3.8499188E-2,-4.6055473E-2,8.673021E-3,-5.781452E-2,1.6486557E-2,1.3412083E-2,-2.185623E-2,3.6378913E-3,-1.9570258E-2,5.303536E-2,-1.8057887E-2,3.74712E-2,-6.3471496E-3],"categories":[],"categories_nodes":[],"categories_segments":[],"categories_sizes":[],"default_left":[0,0,0,0,0,0,0,0,0,0,0,0,0,0,0,0,0,0,0,0,0,0,0,0,0,0,0,0,0,0,0],"id":18,"left_children":[1,3,5,7,9,11,13,15,17,19,21,23,25,27,29,-1,-1,-1,-1,-1,-1,-1,-1,-1,-1,-1,-1,-1,-1,-1,-1],"loss_changes":[5.92365E0,6.06034E0,5.838269E0,4.2642927E0,4.723712E0,4.183084E0,7.4692245E0,1.192581E0,5.218801E0,2.7330914E0,4.3504157E0,7.393358E0,4.881344E0,3.361311E0,4.1268063E0,0E0,0E0,0E0,0E0,0E0,0E0,0E0,0E0,0E0,0E0,0E0,0E0,0E0,0E0,0E0,0E0],"parents":[2147483647,0,0,1,1,2,2,3,3,4,4,5,5,6,6,7,7,8,8,9,9,10,10,11,11,12,12,13,13,14,14],"right_children":[2,4,6,8,10,12,14,16,18,20,22,24,26,28,30,-1,-1,-1,-1,-1,-1,-1,-1,-1,-1,-1,-1,-1,-1,-1,-1],"split_conditions":[1.973981E1,9E0,2.5023848E4,7E0,3E0,3.715648E1,2.5100807E4,2.4484078E4,7.1403625E1,6.653059E-4,-5.2980304E-4,2.3429783E4,2.4827959E4,2.1E1,4.3070923E1,5.1963357E-3,-5.0262935E-2,4.6710636E-2,-3.8499188E-2,-4.6055473E-2,8.673021E-3,-5.781452E-2,1.6486557E-2,1.3412083E-2,-2.185623E-2,3.6378913E-3,-1.9570258E-2,5.303536E-2,-1.8057887E-2,3.74712E-2,-6.3471496E-3],"split_indices":[2,7,5,7,8,4,6,6,4,0,0,6,5,7,4,0,0,0,0,0,0,0,0,0,0,0,0,0,0,0,0],"split_type":[0,0,0,0,0,0,0,0,0,0,0,0,0,0,0,0,0,0,0,0,0,0,0,0,0,0,0,0,0,0,0],"sum_hessian":[7.028299E2,4.3365295E1,6.594646E2,1.1841645E1,3.1523651E1,6.1539386E2,4.4070774E1,2.9741678E0,8.867477E0,2.1604393E1,9.919257E0,6.620487E1,5.4918896E2,1.5881606E1,2.8189167E1,1.234883E0,1.7392848E0,7.3946347E0,1.4728428E0,1.9359467E1,2.2449262E0,1.4907255E0,8.428532E0,2.112619E1,4.5078682E1,5.265012E2,2.2687763E1,1.4504969E1,1.3766365E0,6.0080047E0,2.2181162E1],"tree_param":{"num_deleted":"0","num_feature":"9","num_nodes":"31","size_leaf_vector":"1"}},{"base_weights":[-4.738254E-4,-5.332183E-1,1.9741563E-2,1.03137776E-1,-1.1487103E0,4.719924E-1,-1.6256614E-4,-6.87086E-1,4.3550473E-1,2.4597123E-3,-1.3067139E0,9.310095E-1,9.554013E-2,1.6907325E-1,-4.420669E-2,-5.1962107E-2,-4.5180856E-3,5.517057E-4,4.8854917E-2,-4.0221952E-2,-7.9255305E-2,5.987518E-2,1.5689077E-2,-3.25867E-2,1.6762007E-2,1.1241359E-2,-3.0871807E-2,-9.827662E-3,1.8633412E-3],"categories":[],"categories_nodes":[],"categories_segments":[],"categories_sizes":[],"default_left":[0,0,0,0,0,0,0,0,0,0,0,0,0,0,0,0,0,0,0,0,0,0,0,0,0,0,0,0,0],"id":19,"left_children":[1,3,5,7,9,11,13,15,17,-1,19,21,23,25,27,-1,-1,-1,-1,-1,-1,-1,-1,-1,-1,-1,-1,-1,-1],"loss_changes":[7.5756435E0,1.01907835E1,6.100795E0,3.861053E0,2.5541325E0,4.8480268E0,4.8536787E0,8.313577E-1,2.3245184E0,0E0,3.5503006E-1,1.722991E0,3.2297893E0,6.035511E0,6.420596E0,0E0,0E0,0E0,0E0,0E0,0E0,0E0,0E0,0E0,0E0,0E0,0E0,0E0,0E0],"parents":[2147483647,0,0,1,1,2,2,3,3,4,4,5,5,6,6,7,7,8,8,10,10,11,11,12,12,13,13,14,14],"right_children":[2,4,6,8,10,12,14,16,18,-1,20,22,24,26,28,-1,-1,-1,-1,-1,-1,-1,-1,-1,-1,-1,-1,-1,-1],"split_conditions":[1.85543E1,1.2E1,-1.7286583E-3,2.2559108E-3,2.324247E4,1.7E1,4.0697576E-3,2.3489936E4,6.3980793E1,2.4597123E-3,2.5470296E-3,2.3661174E4,3.9007275E1,7.3056046E1,3.0492203E1,-5.1962107E-2,-4.5180856E-3,5.517057E-4,4.8854917E-2,-4.0221952E-2,-7.9255305E-2,5.987518E-2,1.5689077E-2,-3.25867E-2,1.6762007E-2,1.1241359E-2,-3.0871807E-2,-9.827662E-3,1.8633412E-3],"split_indices":[2,7,1,3,6,7,3,5,4,0,3,5,2,4,2,0,0,0,0,0,0,0,0,0,0,0,0,0,0],"split_type":[0,0,0,0,0,0,0,0,0,0,0,0,0,0,0,0,0,0,0,0,0,0,0,0,0,0,0,0,0],"sum_hessian":[7.014487E2,2.471618E1,6.7673254E2,1.25614E1,1.215478E1,2.7570786E1,6.491618E2,3.4030883E0,9.158312E0,1.4966424E0,1.0658138E1,1.1759292E1,1.5811494E1,1.334712E2,5.1569055E2,1.6737489E0,1.7293395E0,5.706361E0,3.451951E0,5.187836E0,5.4703016E0,7.5565476E0,4.202744E0,3.4225628E0,1.2388931E1,1.2530291E2,8.1683035E0,1.791978E2,3.3649277E2],"tree_param":{"num_deleted":"0","num_feature":"9","num_nodes":"29","size_leaf_vector":"1"}},{"base_weights":[-1.4677191E-3,1.2382078E-1,-5.6572214E-2,6.657324E-2,7.3008066E-1,-1.5983666E-1,7.456771E-2,-1.8600648E-2,4.4898003E-1,1.0504738E0,-3.713126E-2,-1.3625744E-1,-1.0162739E0,3.976997E-1,-3.3691093E-2,3.378636E-3,-2.1701744E-2,3.440441E-2,-9.7396625E-3,7.3298626E-2,1.258977E-2,-4.1884962E-2,5.8933523E-2,-2.2616645E-2,-4.171779E-3,2.1994418E-2,-7.781312E-2,6.205551E-3,6.286221E-2,-1.7528076E-2,1.3652605E-2],"categories":[],"categories_nodes":[],"categories_segments":[],"categories_sizes":[],"default_left":[0,0,0,0,0,0,0,0,0,0,0,0,0,0,0,0,0,0,0,0,0,0,0,0,0,0,0,0,0,0,0],"id":20,"left_children":[1,3,5,7,9,11,13,15,17,19,21,23,25,27,29,-1,-1,-1,-1,-1,-1,-1,-1,-1,-1,-1,-1,-1,-1,-1,-1],"loss_changes":[4.8718963E0,7.4329233E0,6.648752E0,6.459531E0,4.586111E0,5.404883E0,7.589973E0,5.8626814E0,5.69388E0,3.9725418E0,7.231545E0,4.4417686E0,6.3462024E0,1.2644029E1,1.5954011E1,0E0,0E0,0E0,0E0,0E0,0E0,0E0,0E0,0E0,0E0,0E0,0E0,0E0,0E0,0E0,0E0],"parents":[2147483647,0,0,1,1,2,2,3,3,4,4,5,5,6,6,7,7,8,8,9,9,10,10,11,11,12,12,13,13,14,14],"right_children":[2,4,6,8,10,12,14,16,18,20,22,24,26,28,30,-1,-1,-1,-1,-1,-1,-1,-1,-1,-1,-1,-1,-1,-1,-1,-1],"split_conditions":[2.3247525E4,2.321835E4,2.3876746E4,1.1032275E-2,5.680419E1,2.0492554E-2,4.537314E1,4E0,2.309738E4,1.01626385E-2,1.2E1,3.715648E1,5.030617E1,8.8066505E-3,5.883123E1,3.378636E-3,-2.1701744E-2,3.440441E-2,-9.7396625E-3,7.3298626E-2,1.258977E-2,-4.1884962E-2,5.8933523E-2,-2.2616645E-2,-4.171779E-3,2.1994418E-2,-7.781312E-2,6.205551E-3,6.286221E-2,-1.7528076E-2,1.3652605E-2],"split_indices":[5,5,5,3,4,3,4,8,5,3,7,4,4,3,4,0,0,0,0,0,0,0,0,0,0,0,0,0,0,0,0],"split_type":[0,0,0,0,0,0,0,0,0,0,0,0,0,0,0,0,0,0,0,0,0,0,0,0,0,0,0,0,0,0,0],"sum_hessian":[7.036524E2,2.1456317E2,4.890892E2,1.9706468E2,1.7498493E1,2.7350354E2,2.1558568E2,1.619457E2,3.5118984E1,1.2083238E1,5.4152565E0,2.673033E2,6.200232E0,5.3430916E1,1.6215475E2,1.3481783E2,2.7127869E1,2.5557625E1,9.561361E0,7.3986964E0,4.684541E0,3.45273E0,1.9625263E0,3.7191776E1,2.3011154E2,1.7274016E0,4.4728303E0,4.1398403E1,1.2032513E1,7.969045E1,8.246431E1],"tree_param":{"num_deleted":"0","num_feature":"9","num_nodes":"31","size_leaf_vector":"1"}},{"base_weights":[-2.3073755E-2,-5.6947242E-2,1.9802578E-1,-2.1567613E-2,-4.3477714E-1,8.419519E-1,8.954754E-2,-5.030881E-2,3.1548864E-1,-1.0423471E0,-2.0878963E-1,1.1956974E0,-2.7764702E-1,-2.1202047E-1,3.891918E-1,-9.800278E-4,-2.3339452E-2,4.7101542E-2,-1.5736157E-3,3.934634E-2,-6.866852E-2,2.4123998E-2,-2.9876465E-2,6.3251466E-2,2.0618102E-2,1.18903695E-2,-4.011212E-2,8.017211E-3,-3.067321E-2,5.7555553E-2,4.599165E-3],"categories":[],"categories_nodes":[],"categories_segments":[],"categories_sizes":[],"default_left":[0,0,0,0,0,0,0,0,0,0,0,0,0,0,0,0,0,0,0,0,0,0,0,0,0,0,0,0,0,0,0],"id":21,"left_children":[1,3,5,7,9,11,13,15,17,19,21,23,25,27,29,-1,-1,-1,-1,-1,-1,-1,-1,-1,-1,-1,-1,-1,-1,-1,-1],"loss_changes":[5.188099E0,8.013331E0,6.354662E0,5.3423057E0,6.83082E0,5.541155E0,7.3025217E0,6.481367E0,9.450817E0,9.356579E0,1.0679283E1,3.1402588E-2,1.2641463E0,6.147882E0,9.049543E0,0E0,0E0,0E0,0E0,0E0,0E0,0E0,0E0,0E0,0E0,0E0,0E0,0E0,0E0,0E0,0E0],"parents":[2147483647,0,0,1,1,2,2,3,3,4,4,5,5,6,6,7,7,8,8,9,9,10,10,11,11,12,12,13,13,14,14],"right_children":[2,4,6,8,10,12,14,16,18,20,22,24,26,28,30,-1,-1,-1,-1,-1,-1,-1,-1,-1,-1,-1,-1,-1,-1,-1,-1],"split_conditions":[1.1273923E-2,9.533029E-3,2.2933852E4,2.505031E4,3.864393E1,1.6546596E-2,2.3407758E4,2.4827959E4,2.5100807E4,-2.396293E-3,5.0535023E1,6.483498E1,5.7799055E-4,4.7849136E1,2.364556E4,-9.800278E-4,-2.3339452E-2,4.7101542E-2,-1.5736157E-3,3.934634E-2,-6.866852E-2,2.4123998E-2,-2.9876465E-2,6.3251466E-2,2.0618102E-2,1.18903695E-2,-4.011212E-2,8.017211E-3,-3.067321E-2,5.7555553E-2,4.599165E-3],"split_indices":[3,3,6,5,4,3,6,5,6,0,4,4,0,4,6,0,0,0,0,0,0,0,0,0,0,0,0,0,0,0,0],"split_type":[0,0,0,0,0,0,0,0,0,0,0,0,0,0,0,0,0,0,0,0,0,0,0,0,0,0,0,0,0,0,0],"sum_hessian":[6.902187E2,5.991661E2,9.105262E1,5.488311E2,5.0334938E1,1.2152713E1,7.889991E1,5.064926E2,4.2338497E1,1.2667043E1,3.7667896E1,9.183233E0,2.9694796E0,3.9469467E1,3.943044E1,4.7268713E2,3.380548E1,1.4478367E1,2.7860132E1,1.7299397E0,1.0937103E1,1.3471426E1,2.419647E1,7.8716025E0,1.3116312E0,1.7735333E0,1.1959461E0,2.0787922E1,1.8681545E1,1.0258593E1,2.9171846E1],"tree_param":{"num_deleted":"0","num_feature":"9","num_nodes":"31","size_leaf_vector":"1"}},{"base_weights":[-2.4859771E-2,-4.9674445E-1,-1.7770194E-3,4.084385E-1,-8.061315E-1,2.0315842E-1,-3.3291362E-2,9.1234154E-1,-3.6699277E-1,1.8563112E-2,-9.0015835E-1,6.834632E-1,5.270877E-2,-3.5491285E-1,1.0185828E-2,5.5285107E-2,1.0600381E-2,1.3725487E-2,-4.093711E-2,-2.2519408E-2,-5.604267E-2,5.0736584E-2,-8.508476E-3,-4.715071E-2,8.360813E-3,-3.1997215E-2,3.4950604E-3,-2.8013638E-3,9.463741E-3],"categories":[],"categories_nodes":[],"categories_segments":[],"categories_sizes":[],"default_left":[0,0,0,0,0,0,0,0,0,0,0,0,0,0,0,0,0,0,0,0,0,0,0,0,0,0,0,0,0],"id":22,"left_children":[1,3,5,7,9,11,13,15,17,-1,19,21,23,25,27,-1,-1,-1,-1,-1,-1,-1,-1,-1,-1,-1,-1,-1,-1],"loss_changes":[7.4803452E0,9.298386E0,4.2422094E0,3.7818956E0,3.0138245E0,6.2902813E0,7.9636407E0,5.285187E-1,1.4383945E0,0E0,1.7491035E0,6.054103E0,7.882241E0,8.256363E0,5.968551E0,0E0,0E0,0E0,0E0,0E0,0E0,0E0,0E0,0E0,0E0,0E0,0E0,0E0,0E0],"parents":[2147483647,0,0,1,1,2,2,3,3,4,4,5,5,6,6,7,7,8,8,10,10,11,11,12,12,13,13,14,14],"right_children":[2,4,6,8,10,12,14,16,18,-1,20,22,24,26,28,-1,-1,-1,-1,-1,-1,-1,-1,-1,-1,-1,-1,-1,-1],"split_conditions":[1.900996E1,9E0,2.2905895E4,2E0,1.6420885E1,2.5093744E1,2.303748E4,6.483498E1,4.1129986E1,1.8563112E-2,5.552329E1,3.8865977E-4,2.6743074E1,3.5530346E1,6.2231747E1,5.5285107E-2,1.0600381E-2,1.3725487E-2,-4.093711E-2,-2.2519408E-2,-5.604267E-2,5.0736584E-2,-8.508476E-3,-4.715071E-2,8.360813E-3,-3.1997215E-2,3.4950604E-3,-2.8013638E-3,9.463741E-3],"split_indices":[2,7,5,8,2,2,5,4,4,0,4,0,2,2,4,0,0,0,0,0,0,0,0,0,0,0,0,0,0],"split_type":[0,0,0,0,0,0,0,0,0,0,0,0,0,0,0,0,0,0,0,0,0,0,0,0,0,0,0,0,0],"sum_hessian":[6.8583026E2,3.1026665E1,6.548036E2,7.8218603E0,2.3204803E1,8.654717E1,5.682565E2,4.6339765E0,3.187884E0,1.49804E0,2.1706764E1,1.979848E1,6.6748695E1,6.681689E1,5.0143954E2,3.1777778E0,1.4561988E0,1.4794071E0,1.708477E0,8.146075E0,1.3560689E1,1.4127365E1,5.671114E0,6.1381125E0,6.061058E1,3.9684162E1,2.713272E1,3.665903E2,1.3484927E2],"tree_param":{"num_deleted":"0","num_feature":"9","num_nodes":"29","size_leaf_vector":"1"}},{"base_weights":[-8.983773E-3,-7.2808135E-1,1.5762955E-3,1.8309367E-1,-5.4217774E-2,1.7680096E-2,-4.357861E-1,-8.483186E-3,2.1303093E-2,1.6309358E-1,-2.418894E-2,3.5360426E-1,-6.139947E-1,-4.9603343E-2,9.861475E-3,7.8705E-3,-5.142163E-3,-1.6375568E-2,3.2328393E-2,-9.998309E-3,-5.6491792E-2],"categories":[],"categories_nodes":[],"categories_segments":[],"categories_sizes":[],"default_left":[0,0,0,0,0,0,0,0,0,0,0,0,0,0,0,0,0,0,0,0,0],"id":23,"left_children":[1,3,5,7,-1,9,11,-1,-1,13,15,17,19,-1,-1,-1,-1,-1,-1,-1,-1],"loss_changes":[5.3538823E0,3.51097E0,4.9075575E0,3.9144763E-1,0E0,4.0949407E0,3.6980958E0,0E0,0E0,6.1242905E0,7.480658E0,1.247767E0,4.163579E0,0E0,0E0,0E0,0E0,0E0,0E0,0E0,0E0],"parents":[2147483647,0,0,1,1,2,2,3,3,5,5,6,6,9,9,10,10,11,11,12,12],"right_children":[2,4,6,8,-1,10,12,-1,-1,14,16,18,20,-1,-1,-1,-1,-1,-1,-1,-1],"split_conditions":[2.2559108E-3,5.073499E1,7.653303E1,-1.3036252E-4,-5.4217774E-2,6E0,-5.3883374E-5,-8.483186E-3,2.1303093E-2,2.6008863E1,4.2452547E-3,6E0,2.359002E4,-4.9603343E-2,9.861475E-3,7.8705E-3,-5.142163E-3,-1.6375568E-2,3.2328393E-2,-9.998309E-3,-5.6491792E-2],"split_indices":[3,4,4,0,0,7,0,0,0,4,3,7,6,0,0,0,0,0,0,0,0],"split_type":[0,0,0,0,0,0,0,0,0,0,0,0,0,0,0,0,0,0,0,0,0],"sum_hessian":[7.038897E2,9.203773E0,6.94686E2,2.7237751E0,6.4799967E0,6.709413E2,2.3744661E1,1.2339493E0,1.489826E0,1.493489E2,5.215924E2,4.191931E0,1.955273E1,3.4812431E0,1.4586766E2,1.573342E2,3.642582E2,1.2252961E0,2.9666348E0,1.1616585E1,7.936146E0],"tree_param":{"num_deleted":"0","num_feature":"9","num_nodes":"21","size_leaf_vector":"1"}},{"base_weights":[4.3432782E-3,6.622648E-2,-1.7839102E-1,2.3031177E-2,2.5614777E-1,-3.3995363E-1,3.5832018E-2,2.783447E-1,-2.1258412E-2,3.0644438E-1,-6.940285E-1,-3.8216388E-1,2.7627417E-1,-2.3664647E-1,6.3273025E-1,2.0813439E-2,-1.5291308E-2,-4.6556592E-2,1.6807574E-4,9.079459E-3,3.1199891E-2,7.1592594E-4,-4.888503E-2,-1.6229142E-2,-5.9514236E-2,5.0195824E-2,-4.169624E-3,-1.7786479E-2,2.3850828E-2,4.2616755E-2,-3.1129105E-2],"categories":[],"categories_nodes":[],"categories_segments":[],"categories_sizes":[],"default_left":[0,0,0,0,0,0,0,0,0,0,0,0,0,0,0,0,0,0,0,0,0,0,0,0,0,0,0,0,0,0,0],"id":24,"left_children":[1,3,5,7,9,11,13,15,17,19,21,23,25,27,29,-1,-1,-1,-1,-1,-1,-1,-1,-1,-1,-1,-1,-1,-1,-1,-1],"loss_changes":[7.947026E0,4.300479E0,6.165649E0,4.8542485E0,4.856409E0,2.74438E0,1.2729008E1,5.239861E0,8.208817E0,3.5730562E0,1.0571132E0,4.051217E0,1.9376516E0,4.744472E0,7.2882185E0,0E0,0E0,0E0,0E0,0E0,0E0,0E0,0E0,0E0,0E0,0E0,0E0,0E0,0E0,0E0,0E0],"parents":[2147483647,0,0,1,1,2,2,3,3,4,4,5,5,6,6,7,7,8,8,9,9,10,10,11,11,12,12,13,13,14,14],"right_children":[2,4,6,8,10,12,14,16,18,20,22,24,26,28,30,-1,-1,-1,-1,-1,-1,-1,-1,-1,-1,-1,-1,-1,-1,-1,-1],"split_conditions":[4.8168108E-4,2.1635805E-4,3.64289E1,2.2935307E4,7.7528854E1,2.4985715E4,6.1303497E1,6.3681206E1,2.295182E4,2.3971812E4,2.709626E1,2.482109E4,2.5091102E4,6.235812E1,7.7050125E1,2.0813439E-2,-1.5291308E-2,-4.6556592E-2,1.6807574E-4,9.079459E-3,3.1199891E-2,7.1592594E-4,-4.888503E-2,-1.6229142E-2,-5.9514236E-2,5.0195824E-2,-4.169624E-3,-1.7786479E-2,2.3850828E-2,4.2616755E-2,-3.1129105E-2],"split_indices":[0,0,2,5,4,6,4,4,5,5,2,5,6,2,4,0,0,0,0,0,0,0,0,0,0,0,0,0,0,0,0],"split_type":[0,0,0,0,0,0,0,0,0,0,0,0,0,0,0,0,0,0,0,0,0,0,0,0,0,0,0,0,0,0,0],"sum_hessian":[7.007229E2,5.2393066E2,1.7679222E2,4.2776254E2,9.616816E1,1.00448845E2,7.6343376E1,6.245386E1,3.6530865E2,9.1976944E1,4.1912174E0,9.436489E1,6.0839543E0,5.283035E1,2.3513023E1,5.0757355E1,1.1696507E1,8.654273E0,3.566544E2,6.7147736E1,2.4829206E1,1.4700168E0,2.721201E0,8.939676E1,4.9681387E0,1.4199693E0,4.6639853E0,4.5705406E1,7.1249423E0,2.028532E1,3.2277045E0],"tree_param":{"num_deleted":"0","num_feature":"9","num_nodes":"31","size_leaf_vector":"1"}},{"base_weights":[-1.6296709E-2,2.4332592E-1,-5.225007E-2,-4.9169336E-2,5.759419E-1,-4.798726E-1,-2.0791495E-2,-6.576667E-1,2.3637795E-1,4.08947E-1,6.454033E-2,-1.668754E-1,-1.0881224E0,2.6295924E-1,-7.395127E-2,5.5343367E-2,-4.6586182E-2,2.472735E-2,-1.3633338E-2,2.4365632E-2,-3.905866E-2,-1.9115783E-2,6.2182575E-2,1.23313265E-2,-6.6291116E-2,2.3220966E-2,-1.1819281E-2,-2.1032587E-2,-1.4648259E-3],"categories":[],"categories_nodes":[],"categories_segments":[],"categories_sizes":[],"default_left":[0,0,0,0,0,0,0,0,0,0,0,0,0,0,0,0,0,0,0,0,0,0,0,0,0,0,0,0,0],"id":25,"left_children":[1,3,5,7,9,11,13,15,17,19,-1,21,23,25,27,-1,-1,-1,-1,-1,-1,-1,-1,-1,-1,-1,-1,-1,-1],"loss_changes":[6.5743327E0,8.364328E0,8.307289E0,8.237253E0,4.2676516E0,7.875698E0,8.722261E0,8.343056E0,4.391877E0,3.5542245E0,0E0,9.325815E0,4.8315563E0,9.2898035E0,7.522641E0,0E0,0E0,0E0,0E0,0E0,0E0,0E0,0E0,0E0,0E0,0E0,0E0,0E0,0E0],"parents":[2147483647,0,0,1,1,2,2,3,3,4,4,5,5,6,6,7,7,8,8,9,9,11,11,12,12,13,13,14,14],"right_children":[2,4,6,8,10,12,14,16,18,20,-1,22,24,26,28,-1,-1,-1,-1,-1,-1,-1,-1,-1,-1,-1,-1,-1,-1],"split_conditions":[2.2891658E4,5.9357234E-3,2.2971215E4,2E0,2.286178E4,3E0,2.3258691E4,4E0,3.1737692E-4,7.653303E1,6.454033E-2,1.1032275E-2,-7.65905E-4,9.655096E-3,2.3352703E4,5.5343367E-2,-4.6586182E-2,2.472735E-2,-1.3633338E-2,2.4365632E-2,-3.905866E-2,-1.9115783E-2,6.2182575E-2,1.23313265E-2,-6.6291116E-2,2.3220966E-2,-1.1819281E-2,-2.1032587E-2,-1.4648259E-3],"split_indices":[5,3,6,8,5,8,6,7,0,4,0,3,0,3,6,0,0,0,0,0,0,0,0,0,0,0,0,0,0],"split_type":[0,0,0,0,0,0,0,0,0,0,0,0,0,0,0,0,0,0,0,0,0,0,0,0,0,0,0,0,0],"sum_hessian":[7.019573E2,8.4683304E1,6.17274E2,4.551265E1,3.9170654E1,4.132199E1,5.7595197E2,1.4119982E1,3.1392666E1,3.3027397E1,6.1432576E0,2.8124073E1,1.319792E1,9.025446E1,4.856975E2,1.4896896E0,1.2630292E1,2.0847864E1,1.0544803E1,3.1541054E1,1.4863434E0,2.5030008E1,3.094064E0,1.9893937E0,1.1208526E1,6.4358894E1,2.5895573E1,5.4458717E1,4.312388E2],"tree_param":{"num_deleted":"0","num_feature":"9","num_nodes":"29","size_leaf_vector":"1"}},{"base_weights":[-3.344998E-2,-5.5464864E-1,-1.3564905E-2,4.5539108E-1,-8.6106294E-1,4.609003E-2,-1.6834137E-1,-3.757746E-2,8.75184E-1,-1.0329167E0,-2.8479353E-1,-1.7718675E-2,1.7044285E-1,-1.0591192E-1,-6.72207E-1,3.3897625E-3,6.170369E-2,-2.378379E-2,-5.722359E-2,2.2212485E-2,-3.1337917E-2,5.7251295E-3,-9.894455E-3,5.7554464E-3,2.5474055E-2,-9.265898E-3,1.3117382E-2,-1.780772E-2,-5.9253342E-2],"categories":[],"categories_nodes":[],"categories_segments":[],"categories_sizes":[],"default_left":[0,0,0,0,0,0,0,0,0,0,0,0,0,0,0,0,0,0,0,0,0,0,0,0,0,0,0,0,0],"id":26,"left_children":[1,3,5,7,9,11,13,-1,15,17,19,21,23,25,27,-1,-1,-1,-1,-1,-1,-1,-1,-1,-1,-1,-1,-1,-1],"loss_changes":[7.2050257E0,8.299683E0,6.2066216E0,4.0022826E0,1.6814775E0,3.854395E0,5.810771E0,0E0,1.469357E0,3.871727E-1,1.765121E0,7.685935E0,3.0310655E0,4.948495E0,2.8889751E0,0E0,0E0,0E0,0E0,0E0,0E0,0E0,0E0,0E0,0E0,0E0,0E0,0E0,0E0],"parents":[2147483647,0,0,1,1,2,2,3,3,4,4,5,5,6,6,8,8,9,9,10,10,11,11,12,12,13,13,14,14],"right_children":[2,4,6,8,10,12,14,-1,16,18,20,22,24,26,28,-1,-1,-1,-1,-1,-1,-1,-1,-1,-1,-1,-1,-1,-1],"split_conditions":[1.8694921E1,9E0,4.285814E-4,7E0,6.570152E1,7.3102163E-3,7.345548E1,-3.757746E-2,2.4739893E-3,1E0,6.935842E1,5.016629E-3,6.8436485E1,1.1273923E-2,8.059753E-3,3.3897625E-3,6.170369E-2,-2.378379E-2,-5.722359E-2,2.2212485E-2,-3.1337917E-2,5.7251295E-3,-9.894455E-3,5.7554464E-3,2.5474055E-2,-9.265898E-3,1.3117382E-2,-1.780772E-2,-5.9253342E-2],"split_indices":[2,7,0,7,4,3,4,0,3,8,4,3,4,3,3,0,0,0,0,0,0,0,0,0,0,0,0,0,0],"split_type":[0,0,0,0,0,0,0,0,0,0,0,0,0,0,0,0,0,0,0,0,0,0,0,0,0,0,0,0,0],"sum_hessian":[6.9491833E2,2.455025E1,6.703681E2,5.601085E0,1.8949163E1,4.8437817E2,1.8598993E2,1.2414694E0,4.359616E0,1.3985902E1,4.963262E0,3.2068417E2,1.6369398E2,1.6656282E2,1.94271E1,1.7074025E0,2.6522136E0,3.2108898E0,1.0775012E1,1.4892288E0,3.4740329E0,1.8516328E2,1.3552089E2,1.4187784E2,2.181615E1,1.374269E2,2.9135925E1,1.3068199E1,6.3589005E0],"tree_param":{"num_deleted":"0","num_feature":"9","num_nodes":"29","size_leaf_vector":"1"}},{"base_weights":[-1.6774395E-2,-3.2948536E-1,8.599201E-3,-1.4658938E-1,-8.915541E-1,5.5496484E-1,-5.6153033E-3,-3.797164E-1,3.4733164E-1,2.4707557E-3,-1.0710937E0,8.4671086E-1,-4.8213494E-1,1.6098258E-1,-5.8850903E-2,3.7567914E-2,-2.4489516E-2,4.2384643E-2,-2.2123283E-2,-1.1316048E-2,-7.2133616E-2,2.0669023E-2,6.5213345E-2,-4.6046108E-2,4.668102E-3,-5.069769E-2,9.869493E-3,-5.137922E-3,8.963907E-3],"categories":[],"categories_nodes":[],"categories_segments":[],"categories_sizes":[],"default_left":[0,0,0,0,0,0,0,0,0,0,0,0,0,0,0,0,0,0,0,0,0,0,0,0,0,0,0,0,0],"id":27,"left_children":[1,3,5,7,9,11,13,15,17,-1,19,21,23,25,27,-1,-1,-1,-1,-1,-1,-1,-1,-1,-1,-1,-1,-1,-1],"loss_changes":[5.509706E0,5.2265615E0,4.996232E0,4.7971296E0,2.1811705E0,5.3438606E0,5.5756817E0,3.8543277E0,5.715432E0,0E0,3.00809E0,2.0569973E0,1.1512464E0,6.7128716E0,4.9990373E0,0E0,0E0,0E0,0E0,0E0,0E0,0E0,0E0,0E0,0E0,0E0,0E0,0E0,0E0],"parents":[2147483647,0,0,1,1,2,2,3,3,4,4,5,5,6,6,7,7,8,8,10,10,11,11,12,12,13,13,14,14],"right_children":[2,4,6,8,10,12,14,16,18,-1,20,22,24,26,28,-1,-1,-1,-1,-1,-1,-1,-1,-1,-1,-1,-1,-1,-1],"split_conditions":[2.0313026E1,2.450429E4,2.1063015E1,2.3745121E4,-5.0957495E-4,2.4545053E4,6E0,2.3256932E4,6.935842E1,2.4707557E-3,1.8215214E1,2.359658E4,4.680445E1,2.6008863E1,6.787848E1,3.7567914E-2,-2.4489516E-2,4.2384643E-2,-2.2123283E-2,-1.1316048E-2,-7.2133616E-2,2.0669023E-2,6.5213345E-2,-4.6046108E-2,4.668102E-3,-5.069769E-2,9.869493E-3,-5.137922E-3,8.963907E-3],"split_indices":[2,6,2,5,1,6,7,5,4,0,2,5,4,4,4,0,0,0,0,0,0,0,0,0,0,0,0,0,0],"split_type":[0,0,0,0,0,0,0,0,0,0,0,0,0,0,0,0,0,0,0,0,0,0,0,0,0,0,0,0,0],"sum_hessian":[6.9303265E2,5.1113308E1,6.419194E2,3.9515766E1,1.1597542E1,1.5312379E1,6.26607E2,2.7002167E1,1.2513599E1,1.9744078E0,9.623134E0,1.2093844E1,3.2185347E0,1.5125107E2,4.753559E2,1.8780583E0,2.512411E1,7.6155844E0,4.898015E0,3.431287E0,6.1918464E0,7.1889615E0,4.9048824E0,1.4856111E0,1.7329236E0,3.7389004E0,1.4751218E2,4.0183234E2,7.352357E1],"tree_param":{"num_deleted":"0","num_feature":"9","num_nodes":"29","size_leaf_vector":"1"}},{"base_weights":[1.9668905E-2,-8.2264654E-2,1.2780344E-1,1.7223647E-1,-1.5917435E-1,-4.129639E-1,1.6025244E-1,-1.09313525E-1,4.0660718E-1,-9.092167E-2,-4.7199118E-1,5.327189E-2,-7.3820984E-1,1.23247676E-1,6.84461E-1,4.397011E-2,-1.3940915E-2,4.0413138E-2,-4.2332415E-3,-1.1383056E-2,7.438057E-3,-1.580218E-2,-7.7752315E-2,1.321384E-2,-5.7620276E-2,4.240082E-3,2.8345952E-2,3.9644368E-2,-1.7675532E-2],"categories":[],"categories_nodes":[],"categories_segments":[],"categories_sizes":[],"default_left":[0,0,0,0,0,0,0,0,0,0,0,0,0,0,0,0,0,0,0,0,0,0,0,0,0,0,0,0,0],"id":28,"left_children":[1,3,5,7,9,11,13,15,17,19,21,-1,23,25,27,-1,-1,-1,-1,-1,-1,-1,-1,-1,-1,-1,-1,-1,-1],"loss_changes":[7.7397404E0,7.1046076E0,6.0437217E0,5.612999E0,5.896383E0,1.0193472E1,6.1635838E0,6.802039E0,9.197475E0,7.5586004E0,7.883548E0,0E0,7.208228E0,5.1044674E0,2.645729E0,0E0,0E0,0E0,0E0,0E0,0E0,0E0,0E0,0E0,0E0,0E0,0E0,0E0,0E0],"parents":[2147483647,0,0,1,1,2,2,3,3,4,4,5,5,6,6,7,7,8,8,9,9,10,10,12,12,13,13,14,14],"right_children":[2,4,6,8,10,12,14,16,18,20,22,-1,24,26,28,-1,-1,-1,-1,-1,-1,-1,-1,-1,-1,-1,-1,-1,-1],"split_conditions":[3.1362282E1,7E0,2.8961111E1,5.6267178E1,2.4728934E4,2.3417973E4,6.235812E1,4.094663E1,6.5000984E1,3E0,1.7E1,5.327189E-2,-1.7286583E-3,2.4824723E4,7.05793E1,4.397011E-2,-1.3940915E-2,4.0413138E-2,-4.2332415E-3,-1.1383056E-2,7.438057E-3,-1.580218E-2,-7.7752315E-2,1.321384E-2,-5.7620276E-2,4.240082E-3,2.8345952E-2,3.9644368E-2,-1.7675532E-2],"split_indices":[2,7,4,4,6,6,2,4,4,8,7,0,1,6,4,0,0,0,0,0,0,0,0,0,0,0,0,0,0],"split_type":[0,0,0,0,0,0,0,0,0,0,0,0,0,0,0,0,0,0,0,0,0,0,0,0,0,0,0,0,0],"sum_hessian":[7.002202E2,3.6056815E2,3.396521E2,8.338852E1,2.771796E2,1.8563416E1,3.2108868E2,3.8123848E1,4.526467E1,2.2859395E2,4.8585655E1,2.9370947E0,1.562632E1,3.010707E2,2.0017971E1,4.966478E0,3.315737E1,2.4548773E1,2.07159E1,1.4558667E2,8.3007286E1,4.3599613E1,4.9860406E0,4.674494E0,1.0951826E1,2.7815823E2,2.291248E1,1.8338457E1,1.6795137E0],"tree_param":{"num_deleted":"0","num_feature":"9","num_nodes":"29","size_leaf_vector":"1"}},{"base_weights":[-1.0435841E-2,1.5289818E-1,-4.590908E-2,5.996207E-2,8.838553E-2,-6.999533E-2,4.1148064E-1,-9.063014E-1,1.3690184E-1,9.916408E-2,-1.5215917E-1,6.3935244E-1,-2.5925246E-1,4.301702E-3,-5.997308E-2,2.0986728E-2,-2.1449889E-3,9.104299E-3,-1.3445894E-2,-1.0465389E-2,2.3928245E-3,1.4078206E-2,4.3558337E-2,3.6725804E-2,-3.4152485E-2],"categories":[],"categories_nodes":[],"categories_segments":[],"categories_sizes":[],"default_left":[0,0,0,0,0,0,0,0,0,0,0,0,0,0,0,0,0,0,0,0,0,0,0,0,0],"id":29,"left_children":[1,3,5,-1,7,9,11,13,15,17,19,21,23,-1,-1,-1,-1,-1,-1,-1,-1,-1,-1,-1,-1],"loss_changes":[4.083146E0,8.382994E0,6.404792E0,0E0,5.8926377E0,7.668503E0,4.6131124E0,1.758616E0,5.858265E0,5.5620985E0,4.25107E0,1.5800362E0,3.9089746E0,0E0,0E0,0E0,0E0,0E0,0E0,0E0,0E0,0E0,0E0,0E0,0E0],"parents":[2147483647,0,0,1,1,2,2,4,4,5,5,6,6,7,7,8,8,9,9,10,10,11,11,12,12],"right_children":[2,4,6,-1,8,10,12,14,16,18,20,22,24,-1,-1,-1,-1,-1,-1,-1,-1,-1,-1,-1,-1],"split_conditions":[5E0,-1.013346E-3,1.358603E-2,5.996207E-2,4.145961E-3,4.2452547E-3,2.0492554E-2,-4.4793842E-4,2E0,1.5E1,2.4006287E4,1.619321E-2,-5.856134E-4,4.301702E-3,-5.997308E-2,2.0986728E-2,-2.1449889E-3,9.104299E-3,-1.3445894E-2,-1.0465389E-2,2.3928245E-3,1.4078206E-2,4.3558337E-2,3.6725804E-2,-3.4152485E-2],"split_indices":[7,0,3,0,3,3,3,0,8,7,5,3,0,0,0,0,0,0,0,0,0,0,0,0,0],"split_type":[0,0,0,0,0,0,0,0,0,0,0,0,0,0,0,0,0,0,0,0,0,0,0,0,0],"sum_hessian":[7.0250977E2,1.24758385E2,5.777514E2,6.223819E0,1.1853457E2,5.4965344E2,2.8097914E1,4.690433E0,1.1384414E2,1.7962778E2,3.700257E2,2.1007656E1,7.090259E0,1.2307892E0,3.4596436E0,4.3726597E1,7.011754E1,1.4701369E2,3.2614094E1,2.877602E2,8.226549E1,9.130308E0,1.1877348E1,1.9005207E0,5.1897383E0],"tree_param":{"num_deleted":"0","num_feature":"9","num_nodes":"25","size_leaf_vector":"1"}},{"base_weights":[2.817187E-2,5.140366E-1,8.136135E-3,5.607448E-2,2.549254E-1,-5.5327797E-1,2.1753632E-2,-2.7342843E-2,7.100489E-1,2.220469E-1,-1.1390661E0,3.496254E-2,-6.041638E-1,-9.810157E-3,4.704409E-2,5.7410117E-2,-2.4477018E-3,-1.7691446E-2,4.276478E-2,-1.5992118E-2,-6.9679596E-2,4.5026564E-3,-5.7791886E-3,-5.1379174E-2,8.452053E-3],"categories":[],"categories_nodes":[],"categories_segments":[],"categories_sizes":[],"default_left":[0,0,0,0,0,0,0,0,0,0,0,0,0,0,0,0,0,0,0,0,0,0,0,0,0],"id":30,"left_children":[1,3,5,-1,7,9,11,13,15,17,19,21,23,-1,-1,-1,-1,-1,-1,-1,-1,-1,-1,-1,-1],"loss_changes":[6.7807446E0,4.0563107E0,5.1372743E0,0E0,2.6700358E0,7.480575E0,5.440472E0,2.4240856E0,2.6951156E0,3.1054058E0,1.4784374E0,5.342284E0,4.6267686E0,0E0,0E0,0E0,0E0,0E0,0E0,0E0,0E0,0E0,0E0,0E0,0E0],"parents":[2147483647,0,0,1,1,2,2,4,4,5,5,6,6,7,7,8,8,9,9,10,10,11,11,12,12],"right_children":[2,4,6,-1,8,10,12,14,16,18,20,22,24,-1,-1,-1,-1,-1,-1,-1,-1,-1,-1,-1,-1],"split_conditions":[-1.7271651E-3,1.6E1,2.8961111E1,5.607448E-2,1.0083455E-2,9.491107E-3,2.516234E4,2.1E1,1.9E1,1.8E1,2.3437637E4,4.8168108E-4,1.691519E-4,-9.810157E-3,4.704409E-2,5.7410117E-2,-2.4477018E-3,-1.7691446E-2,4.276478E-2,-1.5992118E-2,-6.9679596E-2,4.5026564E-3,-5.7791886E-3,-5.1379174E-2,8.452053E-3],"split_indices":[0,7,4,0,3,3,5,7,7,7,5,0,0,0,0,0,0,0,0,0,0,0,0,0,0],"split_type":[0,0,0,0,0,0,0,0,0,0,0,0,0,0,0,0,0,0,0,0,0,0,0,0,0],"sum_hessian":[6.959867E2,2.6587454E1,6.6939923E2,6.9547386E0,1.9632715E1,1.4913757E1,6.544855E2,1.269758E1,6.935136E0,6.6857367E0,8.22802E0,6.418838E2,1.2601708E1,1.1490902E1,1.2066783E0,4.0718064E0,2.8633292E0,3.7325802E0,2.9531567E0,2.48532E0,5.7426996E0,4.7021582E2,1.7166794E2,7.930077E0,4.671632E0],"tree_param":{"num_deleted":"0","num_feature":"9","num_nodes":"25","size_leaf_vector":"1"}},{"base_weights":[-5.057644E-3,-3.820763E-1,1.7859709E-2,-2.1701576E-1,-1.0836604E0,4.7586212E-1,1.3148579E-6,-2.5770295E-2,-9.3316275E-1,1.4062275E-2,-7.009589E-2,4.726093E-2,2.3690745E-1,-6.3774884E-1,2.4720259E-2,-2.8189618E-2,1.6331252E-2,-9.019881E-3,-6.182918E-2,-1.2936205E-2,4.7349207E-2,2.2008028E-2,-3.973824E-2,3.754666E-3,-5.190722E-3],"categories":[],"categories_nodes":[],"categories_segments":[],"categories_sizes":[],"default_left":[0,0,0,0,0,0,0,0,0,0,0,0,0,0,0,0,0,0,0,0,0,0,0,0,0],"id":31,"left_children":[1,3,5,7,9,11,13,15,17,-1,-1,-1,19,21,23,-1,-1,-1,-1,-1,-1,-1,-1,-1,-1],"loss_changes":[6.04748E0,4.4093127E0,5.398441E0,4.593998E0,3.603674E0,2.554113E0,1.0045967E1,5.424606E0,1.3936129E0,0E0,0E0,0E0,6.4911394E0,4.3742285E0,3.9798477E0,0E0,0E0,0E0,0E0,0E0,0E0,0E0,0E0,0E0,0E0],"parents":[2147483647,0,0,1,1,2,2,3,3,4,4,5,5,6,6,7,7,8,8,12,12,13,13,14,14],"right_children":[2,4,6,8,10,12,14,16,18,-1,-1,-1,20,22,24,-1,-1,-1,-1,-1,-1,-1,-1,-1,-1],"split_conditions":[1.94443E1,2.45712E4,-1.8461166E-3,2.9721292E-4,-5.6112243E-4,2.3276574E4,-1.2222861E-3,2.3505785E4,2E0,1.4062275E-2,-7.009589E-2,4.726093E-2,2.3916336E4,5E0,4.8168108E-4,-2.8189618E-2,1.6331252E-2,-9.019881E-3,-6.182918E-2,-1.2936205E-2,4.7349207E-2,2.2008028E-2,-3.973824E-2,3.754666E-3,-5.190722E-3],"split_indices":[2,5,0,0,0,5,0,6,8,0,0,0,5,7,0,0,0,0,0,0,0,0,0,0,0],"split_type":[0,0,0,0,0,0,0,0,0,0,0,0,0,0,0,0,0,0,0,0,0,0,0,0,0],"sum_hessian":[6.9812823E2,3.9106487E1,6.590217E2,3.2718243E1,6.3882446E0,2.3769693E1,6.35252E2,2.6640059E1,6.078184E0,1.2298976E0,5.158347E0,7.021795E0,1.67479E1,2.2778013E1,6.12474E2,1.0305768E1,1.6334291E1,2.2042198E0,3.873964E0,1.0237672E1,6.510227E0,2.6668553E0,2.0111156E1,4.4032526E2,1.7214876E2],"tree_param":{"num_deleted":"0","num_feature":"9","num_nodes":"25","size_leaf_vector":"1"}},{"base_weights":[2.3365363E-2,-3.984237E-2,1.3517466E-1,2.1697369E-1,-7.469715E-2,7.146719E-2,8.2394105E-1,-2.3862116E-1,4.429377E-1,6.642014E-2,-1.6229387E-1,1.15700655E-1,-1.1461394E0,1.1413528E0,1.2312154E-1,4.4823936E-3,-3.615388E-2,2.6630973E-2,-3.7550904E-2,-1.7484173E-2,8.210566E-3,8.0972E-3,-1.1702218E-2,1.6087983E-2,-1.8720661E-3,-1.6519887E-2,-6.205466E-2,1.5538432E-2,6.3673615E-2,3.9874386E-2,-2.8445652E-2],"categories":[],"categories_nodes":[],"categories_segments":[],"categories_sizes":[],"default_left":[0,0,0,0,0,0,0,0,0,0,0,0,0,0,0,0,0,0,0,0,0,0,0,0,0,0,0,0,0,0,0],"id":32,"left_children":[1,3,5,7,9,11,13,15,17,19,21,23,25,27,29,-1,-1,-1,-1,-1,-1,-1,-1,-1,-1,-1,-1,-1,-1,-1,-1],"loss_changes":[5.030567E0,4.0892925E0,1.1219337E1,5.729976E0,4.9726086E0,1.2862755E1,4.6790266E0,3.048686E0,4.3478556E0,6.3419113E0,5.806349E0,7.237915E0,2.3882866E-1,1.2273712E0,4.128754E0,0E0,0E0,0E0,0E0,0E0,0E0,0E0,0E0,0E0,0E0,0E0,0E0,0E0,0E0,0E0,0E0],"parents":[2147483647,0,0,1,1,2,2,3,3,4,4,5,5,6,6,7,7,8,8,9,9,10,10,11,11,12,12,13,13,14,14],"right_children":[2,4,6,8,10,12,14,16,18,20,22,24,26,28,30,-1,-1,-1,-1,-1,-1,-1,-1,-1,-1,-1,-1,-1,-1,-1,-1],"split_conditions":[7.0439996E-3,-7.3470856E-4,2.4824723E4,-1.2222861E-3,4.1143545E-3,2.4802219E4,2.5099672E4,1.7E1,2.2E1,1.900996E1,5E0,2.3278732E4,3.5530346E1,3.1584185E1,8.194102E-3,4.4823936E-3,-3.615388E-2,2.6630973E-2,-3.7550904E-2,-1.7484173E-2,8.210566E-3,8.0972E-3,-1.1702218E-2,1.6087983E-2,-1.8720661E-3,-1.6519887E-2,-6.205466E-2,1.5538432E-2,6.3673615E-2,3.9874386E-2,-2.8445652E-2],"split_indices":[3,0,6,0,3,5,5,7,7,2,7,6,2,2,3,0,0,0,0,0,0,0,0,0,0,0,0,0,0,0,0],"split_type":[0,0,0,0,0,0,0,0,0,0,0,0,0,0,0,0,0,0,0,0,0,0,0,0,0,0,0,0,0,0,0],"sum_hessian":[7.1005566E2,4.540289E2,2.5602673E2,5.3632233E1,4.0039667E2,2.353608E2,2.0665945E1,1.7762657E1,3.586957E1,1.534432E2,2.4695346E2,2.2798354E2,7.377256E0,1.3791135E1,6.8748097E0,1.1073902E1,6.688756E0,3.387874E1,1.9908351E0,2.8709185E1,1.24734024E2,4.451858E1,2.0243488E2,9.672923E1,1.3125432E2,1.2362529E0,6.141003E0,2.3527148E0,1.143842E1,3.404677E0,3.470133E0],"tree_param":{"num_deleted":"0","num_feature":"9","num_nodes":"31","size_leaf_vector":"1"}},{"base_weights":[-1.5939081E-2,-4.70792E-1,1.5831303E-3,3.5362193E-1,-9.084723E-1,1.7687774E-1,-3.9475612E-2,8.083735E-1,-4.6102247E-1,-1.0671278E0,-2.6178733E-1,2.52224E-1,-5.3459024E-1,5.8877654E-2,-1.4302385E-1,4.974205E-2,1.1945348E-2,3.0844336E-2,-5.6515414E-2,-1.241906E-2,-5.7934023E-2,8.518923E-3,-3.6060106E-2,5.8132634E-3,3.715349E-2,-1.2762092E-2,-4.7466356E-2,-6.1513092E-2,3.7403274E-3,-2.1093348E-2,2.5440322E-4],"categories":[],"categories_nodes":[],"categories_segments":[],"categories_sizes":[],"default_left":[0,0,0,0,0,0,0,0,0,0,0,0,0,0,0,0,0,0,0,0,0,0,0,0,0,0,0,0,0,0,0],"id":33,"left_children":[1,3,5,7,9,11,13,15,17,19,21,23,25,27,29,-1,-1,-1,-1,-1,-1,-1,-1,-1,-1,-1,-1,-1,-1,-1,-1],"loss_changes":[5.571677E0,9.678078E0,4.8584013E0,3.9707923E0,1.487298E0,7.001927E0,5.578747E0,4.6276474E-1,3.6668634E0,7.2426414E-1,1.0594563E0,7.6891527E0,1.2160597E0,5.866784E0,1.1018132E1,0E0,0E0,0E0,0E0,0E0,0E0,0E0,0E0,0E0,0E0,0E0,0E0,0E0,0E0,0E0,0E0],"parents":[2147483647,0,0,1,1,2,2,3,3,4,4,5,5,6,6,7,7,8,8,9,9,10,10,11,11,12,12,13,13,14,14],"right_children":[2,4,6,8,10,12,14,16,18,20,22,24,26,28,30,-1,-1,-1,-1,-1,-1,-1,-1,-1,-1,-1,-1,-1,-1,-1,-1],"split_conditions":[1.8694921E1,1E1,4.0697576E-3,2E0,6.570152E1,7.21967E1,5.3015297E1,6.483498E1,1.706606E1,1.1E1,1.16882016E-4,6.4287796E1,2.4346134E1,2.1564089E1,5.883123E1,4.974205E-2,1.1945348E-2,3.0844336E-2,-5.6515414E-2,-1.241906E-2,-5.7934023E-2,8.518923E-3,-3.6060106E-2,5.8132634E-3,3.715349E-2,-1.2762092E-2,-4.7466356E-2,-6.1513092E-2,3.7403274E-3,-2.1093348E-2,2.5440322E-4],"split_indices":[2,7,3,8,4,4,4,4,2,7,0,4,2,2,4,0,0,0,0,0,0,0,0,0,0,0,0,0,0,0,0],"split_type":[0,0,0,0,0,0,0,0,0,0,0,0,0,0,0,0,0,0,0,0,0,0,0,0,0,0,0,0,0,0,0],"sum_hessian":[6.979852E2,2.4931404E1,6.7305383E2,8.712537E0,1.6218866E1,1.2710191E2,5.459519E2,5.5962763E0,3.116261E0,1.2501613E1,3.7172532E0,1.1551416E2,1.1587756E1,2.8022095E2,2.65731E2,3.6531198E0,1.9431566E0,1.2237147E0,1.8925462E0,1.6307707E0,1.0870842E1,2.2396152E0,1.4776381E0,9.142683E1,2.4087332E1,7.8893027E0,3.6984537E0,2.4897377E0,2.777312E2,9.154165E1,1.7418933E2],"tree_param":{"num_deleted":"0","num_feature":"9","num_nodes":"31","size_leaf_vector":"1"}},{"base_weights":[4.977608E-3,4.804318E-2,-1.2154017E-1,1.5196107E-1,-2.4909884E-2,-7.6222897E-1,-7.974908E-2,8.916356E-2,1.0978912E0,-4.6144137E-1,2.1203604E-2,-3.1281394E-1,-1.2295257E0,-1.17633216E-1,5.190882E-1,9.2004305E-3,-1.5938349E-2,1.2656505E-2,5.9048798E-2,-4.008029E-2,-4.186056E-3,4.922286E-2,2.4523292E-4,-4.6552923E-2,5.659205E-3,-1.2310983E-2,-7.46132E-2,-9.797284E-3,1.2413446E-2,6.0539484E-2,3.7427705E-3],"categories":[],"categories_nodes":[],"categories_segments":[],"categories_sizes":[],"default_left":[0,0,0,0,0,0,0,0,0,0,0,0,0,0,0,0,0,0,0,0,0,0,0,0,0,0,0,0,0,0,0],"id":34,"left_children":[1,3,5,7,9,11,13,15,17,19,21,23,25,27,29,-1,-1,-1,-1,-1,-1,-1,-1,-1,-1,-1,-1,-1,-1,-1,-1],"loss_changes":[3.8436537E0,3.993082E0,4.736188E0,1.2803388E1,6.2506533E0,1.894784E0,3.9019747E0,7.980603E0,6.4382935E-1,3.7444649E0,4.4125814E0,1.9157846E0,9.191127E-1,4.6347237E0,3.0614552E0,0E0,0E0,0E0,0E0,0E0,0E0,0E0,0E0,0E0,0E0,0E0,0E0,0E0,0E0,0E0,0E0],"parents":[2147483647,0,0,1,1,2,2,3,3,4,4,5,5,6,6,7,7,8,8,9,9,10,10,11,11,12,12,13,13,14,14],"right_children":[2,4,6,8,10,12,14,16,18,20,22,24,26,28,30,-1,-1,-1,-1,-1,-1,-1,-1,-1,-1,-1,-1,-1,-1,-1,-1],"split_conditions":[4.7074413E-4,4.991853E-3,5.0640584E-4,3.1362282E1,5.2893506E-3,1.1E1,2.5067355E4,1.5E1,-7.4651616E-4,2.3458496E4,2.4596409E1,4E0,2.328402E4,1.1273923E-2,2.5091102E4,9.2004305E-3,-1.5938349E-2,1.2656505E-2,5.9048798E-2,-4.008029E-2,-4.186056E-3,4.922286E-2,2.4523292E-4,-4.6552923E-2,5.659205E-3,-1.2310983E-2,-7.46132E-2,-9.797284E-3,1.2413446E-2,6.0539484E-2,3.7427705E-3],"split_indices":[0,3,0,2,3,7,5,7,0,5,2,7,6,3,6,0,0,0,0,0,0,0,0,0,0,0,0,0,0,0,0],"split_type":[0,0,0,0,0,0,0,0,0,0,0,0,0,0,0,0,0,0,0,0,0,0,0,0,0,0,0,0,0,0,0],"sum_hessian":[7.0337225E2,5.252141E2,1.7815814E2,2.161857E2,3.090284E2,9.853748E0,1.6830438E2,2.0375337E2,1.2432325E1,2.8665068E1,2.8036334E2,5.8739676E0,3.979781E0,1.5904623E2,9.258152E0,1.6576212E2,3.799126E1,1.4756244E0,1.0956701E1,1.4491868E1,1.41732E1,3.6766467E0,2.766867E2,1.9126192E0,3.9613485E0,1.247627E0,2.732154E0,1.3138991E2,2.765633E1,2.945784E0,6.3123674E0],"tree_param":{"num_deleted":"0","num_feature":"9","num_nodes":"31","size_leaf_vector":"1"}},{"base_weights":[-1.38203E-3,-8.523951E-2,8.999543E-2,-3.944663E-2,-4.004467E-1,1.0687922E0,5.9041236E-2,-6.276456E-2,6.928412E-1,-9.3823075E-1,-1.7059703E-1,-4.3379838E-4,6.0601372E-2,9.305375E-3,6.760541E-1,-1.5317261E-3,-4.420616E-2,1.0044989E-2,6.909671E-2,-3.5684498E-3,-5.3974636E-2,5.074198E-3,-5.7411637E-2,1.7170304E-3,-5.9696075E-2,4.670996E-2,-6.5286467E-3],"categories":[],"categories_nodes":[],"categories_segments":[],"categories_sizes":[],"default_left":[0,0,0,0,0,0,0,0,0,0,0,0,0,0,0,0,0,0,0,0,0,0,0,0,0,0,0],"id":35,"left_children":[1,3,5,7,9,11,13,15,17,19,21,-1,-1,23,25,-1,-1,-1,-1,-1,-1,-1,-1,-1,-1,-1,-1],"loss_changes":[5.351734E0,5.2409387E0,1.006333E1,5.4922123E0,5.5368047E0,1.5827532E0,9.968482E0,8.158309E0,3.088704E0,1.585597E0,9.030058E0,0E0,0E0,9.132422E0,5.1678143E0,0E0,0E0,0E0,0E0,0E0,0E0,0E0,0E0,0E0,0E0,0E0,0E0],"parents":[2147483647,0,0,1,1,2,2,3,3,4,4,5,5,6,6,7,7,8,8,9,9,10,10,13,13,14,14],"right_children":[2,4,6,8,10,12,14,16,18,20,22,-1,-1,24,26,-1,-1,-1,-1,-1,-1,-1,-1,-1,-1,-1,-1],"split_conditions":[3.1736315E1,2.4846115E4,4.4800784E-3,2.4812186E4,2.2595917E1,3.2430984E1,2.4824723E4,2.4728934E4,2E0,-5.6112243E-4,2.9245716E1,-4.3379838E-4,6.0601372E-2,2.4815088E4,3.962715E1,-1.5317261E-3,-4.420616E-2,1.0044989E-2,6.909671E-2,-3.5684498E-3,-5.3974636E-2,5.074198E-3,-5.7411637E-2,1.7170304E-3,-5.9696075E-2,4.670996E-2,-6.5286467E-3],"split_indices":[2,5,3,6,2,2,6,6,8,0,2,0,0,5,2,0,0,0,0,0,0,0,0,0,0,0,0],"split_type":[0,0,0,0,0,0,0,0,0,0,0,0,0,0,0,0,0,0,0,0,0,0,0,0,0,0,0],"sum_hessian":[6.964141E2,3.6318494E2,3.332292E2,3.1809735E2,4.508761E1,9.187416E0,3.2404175E2,3.0916696E2,8.930384E0,1.2577601E1,3.2510006E1,1.1882669E0,7.99915E0,3.0080936E2,2.3232405E1,2.9852646E2,1.0640509E1,5.9641423E0,2.9662411E0,1.9733363E0,1.0604265E1,2.61332E1,6.376808E0,2.9562973E2,5.179632E0,1.7480093E1,5.752312E0],"tree_param":{"num_deleted":"0","num_feature":"9","num_nodes":"27","size_leaf_vector":"1"}},{"base_weights":[-9.345746E-3,5.3404057E-3,-5.8766896E-1,-4.635545E-1,2.0764077E-2,-1.3282205E-1,-1.0811262E0,1.7167643E-1,-7.926349E-1,7.308453E-2,-1.0495401E-1,-9.851333E-1,6.606685E-2,-1.2005285E0,-1.166864E-2,-2.9294923E-2,2.0606497E-2,-1.1222328E-2,-5.872328E-2,2.919766E-3,4.2023666E-2,-7.368199E-3,2.3812674E-2,-6.384415E-2,9.718294E-3,-1.6155971E-2,-6.677168E-2],"categories":[],"categories_nodes":[],"categories_segments":[],"categories_sizes":[],"default_left":[0,0,0,0,0,0,0,0,0,0,0,0,0,0,0,0,0,0,0,0,0,0,0,0,0,0,0],"id":36,"left_children":[1,3,5,7,9,11,13,15,17,19,21,23,-1,25,-1,-1,-1,-1,-1,-1,-1,-1,-1,-1,-1,-1,-1],"loss_changes":[5.9147215E0,4.9258432E0,3.727314E0,4.6704507E0,4.342905E0,1.3837389E1,5.42984E-1,1.7396175E0,2.8750162E0,5.203719E0,4.8544936E0,2.6396952E0,0E0,3.8366222E-1,0E0,0E0,0E0,0E0,0E0,0E0,0E0,0E0,0E0,0E0,0E0,0E0,0E0],"parents":[2147483647,0,0,1,1,2,2,3,3,4,4,5,5,6,6,7,7,8,8,9,9,10,10,11,11,13,13],"right_children":[2,4,6,8,10,12,14,16,18,20,22,24,-1,26,-1,-1,-1,-1,-1,-1,-1,-1,-1,-1,-1,-1,-1],"split_conditions":[7.796343E1,1.85543E1,2.359002E4,1E1,3.8480156E-4,2.3525234E4,2.505882E4,2.3484953E4,2.354675E4,3.611632E-4,2.5023848E4,1.7919864E-3,6.606685E-2,-1.1966908E-4,-1.166864E-2,-2.9294923E-2,2.0606497E-2,-1.1222328E-2,-5.872328E-2,2.919766E-3,4.2023666E-2,-7.368199E-3,2.3812674E-2,-6.384415E-2,9.718294E-3,-1.6155971E-2,-6.677168E-2],"split_indices":[4,2,6,7,0,5,5,5,5,0,5,0,0,0,0,0,0,0,0,0,0,0,0,0,0,0,0],"split_type":[0,0,0,0,0,0,0,0,0,0,0,0,0,0,0,0,0,0,0,0,0,0,0,0,0,0,0],"sum_hessian":[6.950255E2,6.787791E2,1.6246399E1,2.0691206E1,6.580879E2,9.114358E0,7.132042E0,7.2243E0,1.3466907E1,4.6499026E2,1.9309764E2,5.9496765E0,3.1646812E0,5.886786E0,1.2452564E0,1.3944124E0,5.8298874E0,6.050779E0,7.416127E0,4.5731256E2,7.6776958E0,1.8066147E2,1.2436184E1,4.70366E0,1.2460163E0,1.2369492E0,4.6498365E0],"tree_param":{"num_deleted":"0","num_feature":"9","num_nodes":"27","size_leaf_vector":"1"}},{"base_weights":[-1.0721759E-2,4.2525657E-2,-1.6509585E-1,-9.4989175E-3,2.7240455E-1,-2.7700126E-1,7.467992E-2,4.319961E-2,-2.0937862E-1,-7.268964E-1,3.2436633E-1,-2.2598912E-1,-1.2999743E0,-1.5325516E-1,3.852935E-1,-5.0325284E-4,1.1073724E-2,2.3313991E-3,-2.0226777E-2,-4.998035E-2,-1.8898611E-3,2.6196677E-2,3.9048796E-3,-3.731109E-2,-9.028804E-3,-1.2822275E-3,-8.156403E-2,1.0455734E-2,-3.5708826E-2,-1.324061E-2,3.6948368E-2],"categories":[],"categories_nodes":[],"categories_segments":[],"categories_sizes":[],"default_left":[0,0,0,0,0,0,0,0,0,0,0,0,0,0,0,0,0,0,0,0,0,0,0,0,0,0,0,0,0,0,0],"id":37,"left_children":[1,3,5,7,9,11,13,15,17,19,21,23,25,27,29,-1,-1,-1,-1,-1,-1,-1,-1,-1,-1,-1,-1,-1,-1,-1,-1],"loss_changes":[5.771509E0,6.2479753E0,4.8519945E0,4.504793E0,5.241794E0,6.1235294E0,4.171225E0,3.2173815E0,4.4765105E0,9.157069E-1,4.497031E0,2.6611667E0,2.3353786E0,7.1038637E0,5.9132614E0,0E0,0E0,0E0,0E0,0E0,0E0,0E0,0E0,0E0,0E0,0E0,0E0,0E0,0E0,0E0,0E0],"parents":[2147483647,0,0,1,1,2,2,3,3,4,4,5,5,6,6,7,7,8,8,9,9,10,10,11,11,12,12,13,13,14,14],"right_children":[2,4,6,8,10,12,14,16,18,20,22,24,26,28,30,-1,-1,-1,-1,-1,-1,-1,-1,-1,-1,-1,-1,-1,-1,-1,-1],"split_conditions":[4.7074413E-4,2.1635805E-4,4.002153E1,1.0672245E-5,2.435634E-3,9.939887E-3,2.3464803E4,6.037356E1,8E0,2.4244164E4,1.1E1,5.0640584E-4,2.298874E4,2.320024E4,1.0370039E-2,-5.0325284E-4,1.1073724E-2,2.3313991E-3,-2.0226777E-2,-4.998035E-2,-1.8898611E-3,2.6196677E-2,3.9048796E-3,-3.731109E-2,-9.028804E-3,-1.2822275E-3,-8.156403E-2,1.0455734E-2,-3.5708826E-2,-1.324061E-2,3.6948368E-2],"split_indices":[0,0,2,0,3,3,6,4,7,5,7,0,5,5,3,0,0,0,0,0,0,0,0,0,0,0,0,0,0,0,0],"split_type":[0,0,0,0,0,0,0,0,0,0,0,0,0,0,0,0,0,0,0,0,0,0,0,0,0,0,0,0,0,0,0],"sum_hessian":[7.0027423E2,5.212179E2,1.7905634E2,4.258102E2,9.540769E1,1.21974525E2,5.708181E1,3.3758847E2,8.822175E1,4.0737853E0,9.133391E1,1.173439E2,4.630622E0,3.321472E1,2.3867088E1,2.6065417E2,7.693427E1,3.8490734E1,4.9731014E1,2.5958712E0,1.4779142E0,4.9827793E1,4.150611E1,8.182037E0,1.09161865E2,1.1777915E0,3.4528303E0,2.0559769E1,1.2654952E1,8.497909E0,1.536918E1],"tree_param":{"num_deleted":"0","num_feature":"9","num_nodes":"31","size_leaf_vector":"1"}},{"base_weights":[-8.496842E-3,3.3097977E-3,-6.8595695E-1,5.163333E-2,-2.5190352E-3,-1.0491284E0,5.6802386E-1,-6.492058E-1,1.119684E-2,-5.1365915E-4,-1.3170055E0,1.3238182E-3,4.282187E-2,-4.5334756E-2,4.9204316E-2,-3.7060014E-4,1.8070674E-2,-3.4237172E-2,-7.833376E-2],"categories":[],"categories_nodes":[],"categories_segments":[],"categories_sizes":[],"default_left":[0,0,0,0,0,0,0,0,0,0,0,0,0,0,0,0,0,0,0],"id":38,"left_children":[1,3,5,-1,7,9,11,13,15,-1,17,-1,-1,-1,-1,-1,-1,-1,-1],"loss_changes":[5.621125E0,4.151255E0,6.078102E0,0E0,6.1146436E0,2.6818666E0,5.008962E-1,6.913555E0,4.4032702E0,0E0,1.4151192E-1,0E0,0E0,0E0,0E0,0E0,0E0,0E0,0E0],"parents":[2147483647,0,0,1,1,2,2,4,4,5,5,6,6,7,7,8,8,10,10],"right_children":[2,4,6,-1,8,10,12,14,16,-1,18,-1,-1,-1,-1,-1,-1,-1,-1],"split_conditions":[2.516961E4,1.9527725E1,7.0439996E-3,5.163333E-2,2.6008863E1,5.01862E1,7.345548E1,2.4742352E4,5.5733955E1,-5.1365915E-4,4.5764474E-3,1.3238182E-3,4.282187E-2,-4.5334756E-2,4.9204316E-2,-3.7060014E-4,1.8070674E-2,-3.4237172E-2,-7.833376E-2],"split_indices":[5,4,3,0,4,4,4,5,2,0,3,0,0,0,0,0,0,0,0],"split_type":[0,0,0,0,0,0,0,0,0,0,0,0,0,0,0,0,0,0,0],"sum_hessian":[7.0148615E2,6.904483E2,1.1037881E1,2.8957803E0,6.875525E2,8.685727E0,2.3521533E0,1.3317472E1,6.7423505E2,1.9934134E0,6.6923137E0,1.1967822E0,1.1553711E0,1.1888164E1,1.4293084E0,6.4114636E2,3.308863E1,2.9540622E0,3.7382514E0],"tree_param":{"num_deleted":"0","num_feature":"9","num_nodes":"19","size_leaf_vector":"1"}},{"base_weights":[-2.0906236E-2,-8.566735E-3,-4.9694562E-1,9.978595E-2,-5.877964E-2,2.6441285E-2,-6.5793097E-1,-2.2485055E-2,5.5252576E-1,-5.408115E-1,-1.9718042E-2,-1.9514008E-1,-5.961705E-2,-5.2187215E-3,2.1297853E-2,-6.879475E-3,4.1751716E-2,2.462798E-3,-3.753836E-2,-4.5076283E-3,1.0028405E-2,-3.6920708E-2,3.936352E-2],"categories":[],"categories_nodes":[],"categories_segments":[],"categories_sizes":[],"default_left":[0,0,0,0,0,0,0,0,0,0,0,0,0,0,0,0,0,0,0,0,0,0,0],"id":39,"left_children":[1,3,5,7,9,-1,11,13,15,17,19,21,-1,-1,-1,-1,-1,-1,-1,-1,-1,-1,-1],"loss_changes":[4.0954723E0,3.7127142E0,3.2570405E0,1.1976355E1,8.767283E0,0E0,3.6434574E0,6.3287144E0,9.082401E0,4.361724E0,6.725324E0,5.7022247E0,0E0,0E0,0E0,0E0,0E0,0E0,0E0,0E0,0E0,0E0,0E0],"parents":[2147483647,0,0,1,1,2,2,3,3,4,4,6,6,7,7,8,8,9,9,10,10,11,11],"right_children":[2,4,6,8,10,-1,12,14,16,18,20,22,-1,-1,-1,-1,-1,-1,-1,-1,-1,-1,-1],"split_conditions":[7.796343E1,2.327529E4,2E0,2.3147295E4,2.3326096E4,2.6441285E-2,2.393801E4,1.1032275E-2,2.501294E1,4.4440296E1,6.1631077E1,2.3525234E4,-5.961705E-2,-5.2187215E-3,2.1297853E-2,-6.879475E-3,4.1751716E-2,2.462798E-3,-3.753836E-2,-4.5076283E-3,1.0028405E-2,-3.6920708E-2,3.936352E-2],"split_indices":[4,6,7,6,6,0,5,3,2,4,4,5,0,0,0,0,0,0,0,0,0,0,0],"split_type":[0,0,0,0,0,0,0,0,0,0,0,0,0,0,0,0,0,0,0,0,0,0,0],"sum_hessian":[6.969346E2,6.8031793E2,1.6616644E1,2.1512338E2,4.6519455E2,1.9441189E0,1.4672525E1,1.7012755E2,4.4995846E1,3.390849E1,4.3128607E2,8.594752E0,6.0777736E0,1.4450664E2,2.56209E1,1.3218501E1,3.1777344E1,9.099711E0,2.4808779E1,3.272436E2,1.0404247E2,5.6942115E0,2.9005406E0],"tree_param":{"num_deleted":"0","num_feature":"9","num_nodes":"23","size_leaf_vector":"1"}},{"base_weights":[-1.7577676E-2,-4.547034E-1,2.2924358E-3,3.1509387E-1,-7.0293885E-1,-1.5906718E-2,3.0495813E-1,-4.1681126E-2,6.211446E-1,-9.71918E-1,-3.7136286E-1,4.2220964E-3,-4.9901006E-1,5.420887E-1,-2.8481737E-1,-2.3743788E-2,5.0098147E-2,-1.101527E-2,-6.3389026E-2,3.9483034E-3,-4.4199303E-2,-6.6756463E-4,3.619033E-2,-6.1137166E-2,-2.9852919E-3,-2.3531843E-2,3.089349E-2,2.5089249E-2,-5.0050206E-2],"categories":[],"categories_nodes":[],"categories_segments":[],"categories_sizes":[],"default_left":[0,0,0,0,0,0,0,0,0,0,0,0,0,0,0,0,0,0,0,0,0,0,0,0,0,0,0,0,0],"id":40,"left_children":[1,3,5,7,9,11,13,-1,15,17,19,21,23,25,27,-1,-1,-1,-1,-1,-1,-1,-1,-1,-1,-1,-1,-1,-1],"loss_changes":[6.0957026E0,6.0524826E0,3.7073479E0,3.376388E0,1.7245436E0,6.177009E0,5.493249E0,0E0,3.3947728E0,2.454094E0,2.8610773E0,7.730898E0,8.005089E0,2.4067955E0,7.0387807E0,0E0,0E0,0E0,0E0,0E0,0E0,0E0,0E0,0E0,0E0,0E0,0E0,0E0,0E0],"parents":[2147483647,0,0,1,1,2,2,3,3,4,4,5,5,6,6,8,8,9,9,10,10,11,11,12,12,13,13,14,14],"right_children":[2,4,6,8,10,12,14,-1,16,18,20,22,24,26,28,-1,-1,-1,-1,-1,-1,-1,-1,-1,-1,-1,-1,-1,-1],"split_conditions":[1.900996E1,9E0,2.5067355E4,2.2559108E-3,1.8215214E1,2.4860426E4,2.516961E4,-4.1681126E-2,7E0,1.706606E1,2.3926547E4,2.4824723E4,2.4917768E4,2.1063015E1,8E0,-2.3743788E-2,5.0098147E-2,-1.101527E-2,-6.3389026E-2,3.9483034E-3,-4.4199303E-2,-6.6756463E-4,3.619033E-2,-6.1137166E-2,-2.9852919E-3,-2.3531843E-2,3.089349E-2,2.5089249E-2,-5.0050206E-2],"split_indices":[2,7,5,3,2,5,5,0,7,2,5,6,5,2,7,0,0,0,0,0,0,0,0,0,0,0,0,0,0],"split_type":[0,0,0,0,0,0,0,0,0,0,0,0,0,0,0,0,0,0,0,0,0,0,0,0,0,0,0,0,0],"sum_hessian":[7.0068604E2,2.951422E1,6.711718E2,7.1310253E0,2.2383196E1,6.3399725E2,3.717453E1,1.137559E0,5.9934664E0,1.1291866E1,1.109133E1,6.095896E2,2.4407686E1,2.6571716E1,1.0602813E1,1.4817896E0,4.511677E0,3.682196E0,7.60967E0,6.35476E0,4.736569E0,5.960154E2,1.357419E1,8.545693E0,1.5861992E1,1.4871542E0,2.5084562E1,5.1956697E0,5.4071436E0],"tree_param":{"num_deleted":"0","num_feature":"9","num_nodes":"29","size_leaf_vector":"1"}},{"base_weights":[1.2009929E-2,2.6080025E-2,-4.910719E-1,3.6459947E-1,4.883314E-3,-2.217007E-1,-1.1658609E0,7.035048E-1,1.00930795E-1,1.6541246E-1,-3.8490437E-2,2.0805632E-1,-6.360859E-1,-6.87545E-2,-1.9421179E-2,4.2224463E-2,-3.9841752E-2,-4.00051E-2,1.798285E-2,-4.6711452E-2,1.0270503E-2,-5.0770957E-2,-1.4167737E-3,-2.6982505E-2,4.4304233E-2,-4.679544E-2,4.3638544E-3],"categories":[],"categories_nodes":[],"categories_segments":[],"categories_sizes":[],"default_left":[0,0,0,0,0,0,0,0,0,0,0,0,0,0,0,0,0,0,0,0,0,0,0,0,0,0,0],"id":41,"left_children":[1,3,5,7,9,11,13,15,17,19,21,23,25,-1,-1,-1,-1,-1,-1,-1,-1,-1,-1,-1,-1,-1,-1],"loss_changes":[4.9571123E0,4.880791E0,3.2050548E0,3.5107417E0,4.4720497E0,2.7774506E0,3.1197262E-1,4.347432E0,5.8153462E0,6.20082E0,4.988596E0,4.5566325E0,1.775142E0,0E0,0E0,0E0,0E0,0E0,0E0,0E0,0E0,0E0,0E0,0E0,0E0,0E0,0E0],"parents":[2147483647,0,0,1,1,2,2,3,3,4,4,5,5,6,6,7,7,8,8,9,9,10,10,11,11,12,12],"right_children":[2,4,6,8,10,12,14,16,18,20,22,24,26,-1,-1,-1,-1,-1,-1,-1,-1,-1,-1,-1,-1,-1,-1],"split_conditions":[7.796343E1,2.271479E4,3.962715E1,6.1631077E1,6E0,2.3720742E4,8.143304E1,6.430844E1,-3.2979008E-4,2.6008863E1,2.2732045E4,2.3525234E4,3.0596825E1,-6.87545E-2,-1.9421179E-2,4.2224463E-2,-3.9841752E-2,-4.00051E-2,1.798285E-2,-4.6711452E-2,1.0270503E-2,-5.0770957E-2,-1.4167737E-3,-2.6982505E-2,4.4304233E-2,-4.679544E-2,4.3638544E-3],"split_indices":[4,5,2,4,7,5,4,2,0,4,5,5,2,0,0,0,0,0,0,0,0,0,0,0,0,0,0],"split_type":[0,0,0,0,0,0,0,0,0,0,0,0,0,0,0,0,0,0,0,0,0,0,0,0,0,0,0],"sum_hessian":[6.9750507E2,6.794505E2,1.805458E1,3.9082798E1,6.403677E2,1.3853075E1,4.201506E0,1.6371555E1,2.2711245E1,1.3561902E2,5.0474866E2,7.04483E0,6.8082457E0,2.7048197E0,1.4966865E0,1.5364877E1,1.0066779E0,4.5997643E0,1.8111479E1,3.9751232E0,1.3164389E2,4.1743574E0,5.005743E2,3.4473262E0,3.5975037E0,4.6055045E0,2.2027411E0],"tree_param":{"num_deleted":"0","num_feature":"9","num_nodes":"27","size_leaf_vector":"1"}},{"base_weights":[1.7509319E-2,1.8734771E-1,-1.37044415E-2,3.6376438E-1,-1.5097089E-1,-4.4613144E-1,2.5720114E-3,1.993991E-1,1.0705711E0,-6.076262E-2,-6.1066855E-2,5.146864E-1,-8.6149573E-1,1.07701614E-1,-7.529389E-2,-8.83665E-3,2.3963306E-2,6.1878897E-2,1.5123952E-3,3.922392E-2,-9.617962E-3,6.160086E-2,-2.9446054E-2,-6.8230994E-2,-4.402187E-4,-9.192171E-3,1.0433033E-2,-1.2116493E-2,5.7250406E-3],"categories":[],"categories_nodes":[],"categories_segments":[],"categories_sizes":[],"default_left":[0,0,0,0,0,0,0,0,0,0,0,0,0,0,0,0,0,0,0,0,0,0,0,0,0,0,0,0,0],"id":42,"left_children":[1,3,5,7,9,11,13,15,17,-1,19,21,23,25,27,-1,-1,-1,-1,-1,-1,-1,-1,-1,-1,-1,-1,-1,-1],"loss_changes":[3.7237535E0,6.56331E0,4.181193E0,8.147074E0,3.5694256E0,9.0433235E0,4.7015133E0,6.360349E0,2.2818222E0,0E0,4.165922E0,6.3700056E0,6.6028414E0,7.231282E0,1.048866E1,0E0,0E0,0E0,0E0,0E0,0E0,0E0,0E0,0E0,0E0,0E0,0E0,0E0,0E0],"parents":[2147483647,0,0,1,1,2,2,3,3,4,4,5,5,6,6,7,7,8,8,10,10,11,11,12,12,13,13,14,14],"right_children":[2,4,6,8,10,12,14,16,18,-1,20,22,24,26,28,-1,-1,-1,-1,-1,-1,-1,-1,-1,-1,-1,-1,-1,-1],"split_conditions":[2.2935307E4,6.1631077E1,2.298874E4,3E0,6.2104263E1,5.3668884E-3,5.0817776E1,3.1736315E1,2E1,-6.076262E-2,6.3213856E1,1.4E1,3.8031574E1,3.715648E1,6.1631077E1,-8.83665E-3,2.3963306E-2,6.1878897E-2,1.5123952E-3,3.922392E-2,-9.617962E-3,6.160086E-2,-2.9446054E-2,-6.8230994E-2,-4.402187E-4,-9.192171E-3,1.0433033E-2,-1.2116493E-2,5.7250406E-3],"split_indices":[5,4,5,8,4,3,4,2,7,0,4,7,2,4,4,0,0,0,0,0,0,0,0,0,0,0,0,0,0],"split_type":[0,0,0,0,0,0,0,0,0,0,0,0,0,0,0,0,0,0,0,0,0,0,0,0,0,0,0,0,0],"sum_hessian":[7.0093896E2,1.0804563E2,5.928933E2,7.0965416E1,3.708022E1,2.0548862E1,5.723445E2,5.861648E1,1.2348933E1,1.9133084E0,3.516691E1,6.12996E0,1.4418901E1,2.4337366E2,3.2897083E2,2.5164598E1,3.3451885E1,1.0477357E1,1.8715763E0,4.0579534E0,3.1108957E1,3.6446376E0,2.4853225E0,8.69067E0,5.728232E0,6.238888E1,1.8098477E2,1.748291E2,1.5414172E2],"tree_param":{"num_deleted":"0","num_feature":"9","num_nodes":"29","size_leaf_vector":"1"}},{"base_weights":[1.1983537E-2,-2.3126094E-1,3.3607736E-2,-3.2105497E-1,6.2872864E-2,2.1398333E-1,2.9891739E-3,2.9720103E-2,-5.404993E-1,3.2860416E-1,-2.9237437E-1,-7.623866E-1,1.6271612E-2,-1.4856796E-2,4.3567818E-2,-1.4091528E-2,-6.55642E-2,3.8364388E-2,8.171457E-3,-7.10294E-2,1.144731E-2,-6.5520205E-2,2.2490587E-2,1.4848647E-3,-2.176618E-2],"categories":[],"categories_nodes":[],"categories_segments":[],"categories_sizes":[],"default_left":[0,0,0,0,0,0,0,0,0,0,0,0,0,0,0,0,0,0,0,0,0,0,0,0,0],"id":43,"left_children":[1,3,5,7,-1,9,11,13,15,17,19,21,23,-1,-1,-1,-1,-1,-1,-1,-1,-1,-1,-1,-1],"loss_changes":[3.6601439E0,7.9987946E0,3.5260003E0,4.202061E0,0E0,5.473416E0,5.572273E0,6.276839E0,6.310584E0,5.382951E0,1.0694895E1,6.800737E0,3.278173E0,0E0,0E0,0E0,0E0,0E0,0E0,0E0,0E0,0E0,0E0,0E0,0E0],"parents":[2147483647,0,0,1,1,2,2,3,3,5,5,6,6,7,7,8,8,9,9,10,10,11,11,12,12],"right_children":[2,4,6,8,-1,10,12,14,16,18,20,22,24,-1,-1,-1,-1,-1,-1,-1,-1,-1,-1,-1,-1],"split_conditions":[3.0548207E-3,2.527809E1,3.9839754E-3,1E1,6.2872864E-2,2.4728934E4,2.1564089E1,2.8025724E-3,2.114063E1,9E0,2.4839023E4,6.881031E1,1.9797E-2,-1.4856796E-2,4.3567818E-2,-1.4091528E-2,-6.55642E-2,3.8364388E-2,8.171457E-3,-7.10294E-2,1.144731E-2,-6.5520205E-2,2.2490587E-2,1.4848647E-3,-2.176618E-2],"split_indices":[3,2,3,7,0,6,2,3,2,7,6,4,3,0,0,0,0,0,0,0,0,0,0,0,0],"split_type":[0,0,0,0,0,0,0,0,0,0,0,0,0,0,0,0,0,0,0,0,0,0,0,0,0],"sum_hessian":[6.933716E2,5.5816227E1,6.3755536E2,5.338083E1,2.4353952E0,9.165024E1,5.459051E2,2.0875904E1,3.2504925E1,7.501959E1,1.6630644E1,8.350064E0,5.3755505E2,1.5502386E1,5.3735185E0,2.5359974E1,7.144952E0,1.95232E1,5.549639E1,4.7108026E0,1.1919842E1,5.694602E0,2.655462E0,5.229425E2,1.4612559E1],"tree_param":{"num_deleted":"0","num_feature":"9","num_nodes":"25","size_leaf_vector":"1"}},{"base_weights":[2.2703355E-2,1.6803803E-1,-2.0539012E-2,4.2544296E-1,-1.2360124E-2,-3.732782E-2,5.5190223E-1,-7.635739E-1,4.983002E-1,5.7362974E-2,-7.837496E-1,1.1668694E-1,-1.0890571E-1,4.9080048E-2,3.1635076E-2,-5.4585356E-2,-1.2626357E-2,3.166194E-2,-4.9419845E-3,3.544396E-2,-1.4871808E-3,-5.9068806E-2,2.0162752E-2,-3.210662E-4,2.9121606E-2,-2.2093985E-2,-2.855724E-3,2.6691973E-2,-2.738725E-2],"categories":[],"categories_nodes":[],"categories_segments":[],"categories_sizes":[],"default_left":[0,0,0,0,0,0,0,0,0,0,0,0,0,0,0,0,0,0,0,0,0,0,0,0,0,0,0,0,0],"id":44,"left_children":[1,3,5,7,9,11,13,15,17,19,21,23,25,-1,27,-1,-1,-1,-1,-1,-1,-1,-1,-1,-1,-1,-1,-1,-1],"loss_changes":[4.3428383E0,7.362549E0,5.143402E0,6.0385914E0,5.107451E0,5.7318234E0,3.3784409E0,4.2291307E-1,5.070348E0,4.9729934E0,4.1912675E0,9.469357E0,6.0915775E0,0E0,2.600306E0,0E0,0E0,0E0,0E0,0E0,0E0,0E0,0E0,0E0,0E0,0E0,0E0,0E0,0E0],"parents":[2147483647,0,0,1,1,2,2,3,3,4,4,5,5,6,6,7,7,8,8,9,9,10,10,11,11,12,12,14,14],"right_children":[2,4,6,8,10,12,14,16,18,20,22,24,26,-1,28,-1,-1,-1,-1,-1,-1,-1,-1,-1,-1,-1,-1,-1,-1],"split_conditions":[6E0,2E0,6.3125343E1,4.177731E-3,5.183051E1,4.2452547E-3,2.1E1,2.3477475E4,6.5144495E-4,-5.2980304E-4,3E0,3.8772526E-3,2.6997292E1,4.9080048E-2,1.691519E-4,-5.4585356E-2,-1.2626357E-2,3.166194E-2,-4.9419845E-3,3.544396E-2,-1.4871808E-3,-5.9068806E-2,2.0162752E-2,-3.210662E-4,2.9121606E-2,-2.2093985E-2,-2.855724E-3,2.6691973E-2,-2.738725E-2],"split_indices":[7,8,2,3,2,3,7,5,0,0,7,3,2,0,0,0,0,0,0,0,0,0,0,0,0,0,0,0,0],"split_type":[0,0,0,0,0,0,0,0,0,0,0,0,0,0,0,0,0,0,0,0,0,0,0,0,0,0,0,0,0],"sum_hessian":[6.894778E2,1.5744153E2,5.3203625E2,6.431457E1,9.312696E1,5.177852E2,1.4251039E1,3.1659772E0,6.1148586E1,8.625621E1,6.8707495E0,1.6408719E2,3.5369803E2,7.319225E0,6.9318137E0,1.23609E0,1.9298874E0,4.9828213E1,1.1320375E1,9.330488E0,7.692572E1,5.1502457E0,1.7205037E0,1.3056244E2,3.3524754E1,4.6595604E1,3.0710242E2,3.7553196E0,3.1764941E0],"tree_param":{"num_deleted":"0","num_feature":"9","num_nodes":"29","size_leaf_vector":"1"}},{"base_weights":[5.5780024E-3,-7.883552E-1,1.5282484E-2,-4.369173E-2,-1.1931126E0,2.716598E-2,-5.4438365E-1,-3.432886E-2,3.977551E-2,-6.5604664E-2,-1.968176E-2,1.137727E-2,4.9580804E-1,-7.462024E-1,2.1761257E-2,4.9916137E-2,1.5554657E-4,3.7962466E-2,-6.350805E-3,-1.9174531E-2,-7.085501E-2],"categories":[],"categories_nodes":[],"categories_segments":[],"categories_sizes":[],"default_left":[0,0,0,0,0,0,0,0,0,0,0,0,0,0,0,0,0,0,0,0,0],"id":45,"left_children":[1,3,5,7,9,11,13,-1,-1,-1,-1,15,17,19,-1,-1,-1,-1,-1,-1,-1],"loss_changes":[5.397429E0,2.4976616E0,4.6138973E0,2.713381E0,1.2288094E-3,5.0117025E0,3.1766925E0,0E0,0E0,0E0,0E0,5.3570695E0,3.718769E0,2.4568338E0,0E0,0E0,0E0,0E0,0E0,0E0,0E0],"parents":[2147483647,0,0,1,1,2,2,3,3,4,4,5,5,6,6,11,11,12,12,13,13],"right_children":[2,4,6,8,10,12,14,-1,-1,-1,-1,16,18,20,-1,-1,-1,-1,-1,-1,-1],"split_conditions":[2.2559108E-3,2.3539111E4,2.516234E4,2.3489936E4,3.08727E-4,2.507643E4,7.353184E-3,-3.432886E-2,3.977551E-2,-6.5604664E-2,-1.968176E-2,-3.7443892E-3,2.5124518E4,6.483498E1,2.1761257E-2,4.9916137E-2,1.5554657E-4,3.7962466E-2,-6.350805E-3,-1.9174531E-2,-7.085501E-2],"split_indices":[3,5,5,5,0,5,3,0,0,0,0,0,6,4,0,0,0,0,0,0,0],"split_type":[0,0,0,0,0,0,0,0,0,0,0,0,0,0,0,0,0,0,0,0,0],"sum_hessian":[6.979727E2,7.4595957E0,6.905131E2,3.0169768E0,4.4426193E0,6.770878E2,1.3425274E1,1.8112813E0,1.2056954E0,3.308978E0,1.1336411E0,6.5601086E2,2.107695E1,1.1329448E1,2.0958254E0,4.454079E0,6.515568E2,1.4657922E1,6.4190297E0,8.373848E0,2.9555998E0],"tree_param":{"num_deleted":"0","num_feature":"9","num_nodes":"21","size_leaf_vector":"1"}},{"base_weights":[3.1000508E-2,4.7344502E-2,-3.6474794E-1,3.281635E-1,2.9177582E-2,5.4771215E-1,-5.594262E-1,-2.8802338E-1,4.3496865E-1,-8.858212E-1,3.9251857E-2,8.691E-1,-1.4431207E-2,-2.428456E-1,-9.123978E-1,1.2430708E-2,-4.7590733E-2,1.5761554E-3,3.4129974E-2,2.6803855E-2,-6.442243E-2,-2.0386213E-2,2.5342612E-3,5.6235816E-2,7.3846304E-3,-2.6962563E-2,4.1578423E-2,-5.516349E-2,-1.9517776E-3],"categories":[],"categories_nodes":[],"categories_segments":[],"categories_sizes":[],"default_left":[0,0,0,0,0,0,0,0,0,0,0,0,0,0,0,0,0,0,0,0,0,0,0,0,0,0,0,0,0],"id":46,"left_children":[1,3,5,7,9,11,13,15,17,19,21,23,-1,25,27,-1,-1,-1,-1,-1,-1,-1,-1,-1,-1,-1,-1,-1,-1],"loss_changes":[4.5111804E0,3.3988612E0,5.221692E0,2.7905278E0,5.8292766E0,1.6944659E0,2.382028E0,2.582043E0,3.4665523E0,4.634148E0,3.2030559E0,5.9532475E-1,0E0,4.7940745E0,1.7329512E0,0E0,0E0,0E0,0E0,0E0,0E0,0E0,0E0,0E0,0E0,0E0,0E0,0E0,0E0],"parents":[2147483647,0,0,1,1,2,2,3,3,4,4,5,5,6,6,7,7,8,8,9,9,10,10,11,11,13,13,14,14],"right_children":[2,4,6,8,10,12,14,16,18,20,22,24,-1,26,28,-1,-1,-1,-1,-1,-1,-1,-1,-1,-1,-1,-1,-1,-1],"split_conditions":[7.653303E1,2.271479E4,-5.3883374E-5,4E0,2.2732045E4,1.7651428E-2,2.3701375E4,6.6938896E1,2.2395068E4,-9.642535E-4,2.435634E-3,-2.2125451E-4,-1.4431207E-2,2.355587E4,2.5067355E4,1.2430708E-2,-4.7590733E-2,1.5761554E-3,3.4129974E-2,2.6803855E-2,-6.442243E-2,-2.0386213E-2,2.5342612E-3,5.6235816E-2,7.3846304E-3,-2.6962563E-2,4.1578423E-2,-5.516349E-2,-1.9517776E-3],"split_indices":[4,5,0,7,5,3,5,4,5,0,3,0,0,5,5,0,0,0,0,0,0,0,0,0,0,0,0,0,0],"split_type":[0,0,0,0,0,0,0,0,0,0,0,0,0,0,0,0,0,0,0,0,0,0,0,0,0,0,0,0,0],"sum_hessian":[6.937797E2,6.671092E2,2.6670538E1,3.949792E1,6.2761127E2,4.370854E0,2.2299685E1,5.5842433E0,3.3913677E1,5.888163E0,6.217231E2,3.1291912E0,1.2416629E0,1.2645725E1,9.653959E0,3.4337306E0,2.1505127E0,1.3327506E1,2.058617E1,1.2262288E0,4.6619344E0,1.4642145E1,6.0708093E2,1.8977153E0,1.231476E0,1.0301798E1,2.3439274E0,7.706477E0,1.9474825E0],"tree_param":{"num_deleted":"0","num_feature":"9","num_nodes":"29","size_leaf_vector":"1"}},{"base_weights":[1.5080692E-2,-2.6199093E-1,3.2668807E-2,3.79455E-2,-3.2416773E-1,1.0754009E-1,-3.6351155E-2,-7.6623553E-1,-1.2783355E-1,1.1862247E-1,-6.040276E-2,-1.0530498E-1,9.260484E-2,1.0795421E-2,-4.4826612E-2,1.6644448E-2,-1.312944E-2,4.094841E-3,2.9800892E-2,-4.0182523E-2,-3.8340003E-3,-2.2728978E-2,7.147142E-3],"categories":[],"categories_nodes":[],"categories_segments":[],"categories_sizes":[],"default_left":[0,0,0,0,0,0,0,0,0,0,0,0,0,0,0,0,0,0,0,0,0,0,0],"id":47,"left_children":[1,3,5,-1,7,9,11,13,15,17,-1,19,21,-1,-1,-1,-1,-1,-1,-1,-1,-1,-1],"loss_changes":[3.4318929E0,2.9146857E0,3.4219978E0,0E0,3.402338E0,4.772806E0,3.0767684E0,1.7551365E0,1.8957291E0,5.487723E0,0E0,4.4404144E0,3.3897042E0,0E0,0E0,0E0,0E0,0E0,0E0,0E0,0E0,0E0,0E0],"parents":[2147483647,0,0,1,1,2,2,4,4,5,5,6,6,7,7,8,8,9,9,11,11,12,12],"right_children":[2,4,6,-1,8,10,12,14,16,18,-1,20,22,-1,-1,-1,-1,-1,-1,-1,-1,-1,-1],"split_conditions":[1.973981E1,3.9536823E1,1.0672245E-5,3.79455E-2,-1.5340869E-4,2.5294062E4,1.6E1,-6.867386E-4,-2.0266094E-5,2.4917768E4,-6.040276E-2,3.924137E-5,2.6743074E1,1.0795421E-2,-4.4826612E-2,1.6644448E-2,-1.312944E-2,4.094841E-3,2.9800892E-2,-4.0182523E-2,-3.8340003E-3,-2.2728978E-2,7.147142E-3],"split_indices":[2,4,0,0,0,5,7,0,0,5,0,0,2,0,0,0,0,0,0,0,0,0,0],"split_type":[0,0,0,0,0,0,0,0,0,0,0,0,0,0,0,0,0,0,0,0,0,0,0],"sum_hessian":[7.014863E2,4.1041985E1,6.6044434E2,1.7128274E0,3.9329155E1,3.16526E2,3.439183E2,1.120259E1,2.8126566E1,3.1478415E2,1.7418602E0,2.2421312E2,1.1970519E2,1.235166E0,9.967423E0,6.0322466E0,2.209432E1,2.9338577E2,2.1398384E1,7.7624483E0,2.1645067E2,9.407981E0,1.1029721E2],"tree_param":{"num_deleted":"0","num_feature":"9","num_nodes":"23","size_leaf_vector":"1"}},{"base_weights":[1.0915371E-2,8.5691035E-1,3.4936643E-3,6.310974E-2,-1.4295849E-2,1.2253896E-2,-6.590951E-1,2.0206118E-2,-4.6345818E-1,3.1991082E-1,-1.0570986E0,7.075009E-4,4.2231258E-2,1.3618498E-2,-5.3736366E-2,-2.097976E-2,4.5806628E-2,8.758911E-4,-6.483231E-2],"categories":[],"categories_nodes":[],"categories_segments":[],"categories_sizes":[],"default_left":[0,0,0,0,0,0,0,0,0,0,0,0,0,0,0,0,0,0,0],"id":48,"left_children":[1,3,5,-1,-1,7,9,11,13,15,17,-1,-1,-1,-1,-1,-1,-1,-1],"loss_changes":[4.378028E0,3.169509E0,4.0287614E0,0E0,0E0,2.5993187E0,3.8672142E0,3.3548548E0,5.374569E0,1.877087E0,1.740109E0,0E0,0E0,0E0,0E0,0E0,0E0,0E0,0E0],"parents":[2147483647,0,0,1,1,2,2,5,5,6,6,7,7,8,8,9,9,10,10],"right_children":[2,4,6,-1,-1,8,10,12,14,16,18,-1,-1,-1,-1,-1,-1,-1,-1],"split_conditions":[-3.7443892E-3,2.369782E4,2.0656327E-2,6.310974E-2,-1.4295849E-2,2.516961E4,-4.6364346E-4,2.515565E4,7E0,2E1,2.3009883E4,7.075009E-4,4.2231258E-2,1.3618498E-2,-5.3736366E-2,-2.097976E-2,4.5806628E-2,8.758911E-4,-6.483231E-2],"split_indices":[0,6,3,0,0,5,0,6,7,7,5,0,0,0,0,0,0,0,0],"split_type":[0,0,0,0,0,0,0,0,0,0,0,0,0,0,0,0,0,0,0],"sum_hessian":[6.9675635E2,5.063918E0,6.9169244E2,3.6611161E0,1.4028022E0,6.8363544E2,8.056989E0,6.7333716E2,1.0298288E1,2.3854616E0,5.671527E0,6.694367E2,3.9004517E0,4.9246073E0,5.3736815E0,1.1970183E0,1.1884433E0,1.202764E0,4.468763E0],"tree_param":{"num_deleted":"0","num_feature":"9","num_nodes":"19","size_leaf_vector":"1"}},{"base_weights":[-2.2705052E-2,-5.1584807E-3,-4.7813514E-1,-6.691347E-1,3.5425266E-3,5.4619472E-2,-7.4398583E-1,-8.548574E-1,1.2636579E-2,-2.2392955E-1,2.6125453E-2,6.909703E-1,-4.192945E-1,-8.797521E-1,2.9129673E-2,6.920335E-3,-5.729658E-2,1.703293E-3,-2.2540225E-2,-3.1237194E-4,1.4104113E-2,5.0102808E-2,7.963161E-3,-4.0461656E-2,1.8962875E-2,-4.91425E-2,1.0998573E-2],"categories":[],"categories_nodes":[],"categories_segments":[],"categories_sizes":[],"default_left":[0,0,0,0,0,0,0,0,0,0,0,0,0,0,0,0,0,0,0,0,0,0,0,0,0,0,0],"id":49,"left_children":[1,3,5,7,9,11,13,15,-1,17,19,21,23,25,-1,-1,-1,-1,-1,-1,-1,-1,-1,-1,-1,-1,-1],"loss_changes":[5.623677E0,3.9247348E0,3.738348E0,1.7205148E0,3.4535084E0,3.191686E0,3.661665E0,2.3390713E0,0E0,3.5692725E0,5.068089E0,5.8226967E-1,2.2180748E0,2.0597486E0,0E0,0E0,0E0,0E0,0E0,0E0,0E0,0E0,0E0,0E0,0E0,0E0,0E0],"parents":[2147483647,0,0,1,1,2,2,3,3,4,4,5,5,6,6,7,7,9,9,10,10,11,11,12,12,13,13],"right_children":[2,4,6,8,10,12,14,16,-1,18,20,22,24,26,-1,-1,-1,-1,-1,-1,-1,-1,-1,-1,-1,-1,-1],"split_conditions":[7.653303E1,2.2559108E-3,8E0,2.0122322E1,3E0,5.0687366E-3,4.570952E1,2E0,1.2636579E-2,2.3506719E4,1.1104809E-2,2.8905645E1,3.6746243E1,2.3E1,2.9129673E-2,6.920335E-3,-5.729658E-2,1.703293E-3,-2.2540225E-2,-3.1237194E-4,1.4104113E-2,5.0102808E-2,7.963161E-3,-4.0461656E-2,1.8962875E-2,-4.91425E-2,1.0998573E-2],"split_indices":[4,3,7,2,7,3,2,8,0,5,3,2,2,7,0,0,0,0,0,0,0,0,0,0,0,0,0],"split_type":[0,0,0,0,0,0,0,0,0,0,0,0,0,0,0,0,0,0,0,0,0,0,0,0,0,0,0],"sum_hessian":[7.030391E2,6.7793146E2,2.510766E1,7.7871723E0,6.701443E2,8.622683E0,1.6484978E1,6.5419035E0,1.2452688E0,5.971675E1,6.1042755E2,3.4850724E0,5.13761E0,1.5260044E1,1.224934E0,1.6014837E0,4.9404197E0,2.8339624E1,3.1377125E1,5.427564E2,6.767112E1,1.6406031E0,1.8444692E0,3.4429955E0,1.6946144E0,1.4049221E1,1.2108232E0],"tree_param":{"num_deleted":"0","num_feature":"9","num_nodes":"27","size_leaf_vector":"1"}},{"base_weights":[-1.4394714E-2,1.3780622E-1,-4.3607146E-2,4.9632666E-1,1.5549752E-2,-3.3455484E-2,-8.5781723E-1,-4.1433036E-2,6.0038006E-1,-9.903018E-1,8.749555E-2,-4.4680092E-2,6.66297E-1,-2.4108614E-1,-5.6053348E-2,-1.0803924E-2,3.9132778E-2,-1.3839451E-2,-5.6252908E-2,2.4873247E-2,-3.0735508E-3,-5.9597264E-3,3.041426E-3,5.6300897E-2,-5.9330068E-3,-2.4274213E-2,5.357155E-3],"categories":[],"categories_nodes":[],"categories_segments":[],"categories_sizes":[],"default_left":[0,0,0,0,0,0,0,0,0,0,0,0,0,0,0,0,0,0,0,0,0,0,0,0,0,0,0],"id":50,"left_children":[1,3,5,7,9,11,13,-1,15,17,19,21,23,25,-1,-1,-1,-1,-1,-1,-1,-1,-1,-1,-1,-1,-1],"loss_changes":[3.089095E0,4.897053E0,4.78622E0,4.416151E0,6.200042E0,4.55702E0,8.877959E-1,0E0,4.177314E0,2.386055E-1,4.901515E0,4.4746284E0,3.4400744E0,3.4204462E-1,0E0,0E0,0E0,0E0,0E0,0E0,0E0,0E0,0E0,0E0,0E0,0E0,0E0],"parents":[2147483647,0,0,1,1,